tree
version=v3
num_class=15
num_tree_per_iteration=15
label_index=0
max_feature_idx=31
objective=multiclass num_class:15
feature_names=Neighborhood Premise CallDescription median_household_income households_below_poverty perc18_24 perc25_64 perc65up perc_asian perc_aa perc_hisp perc_white median_price_homes_sold racial_diversity_index num_households Month crime_hour Outside Weapon_FIREARM Weapon_HANDS Weapon_KNIFE Weapon_NONE Weapon_OTHER call_hour Holiday Weekend Priority_HIGH Priority_LOW Priority_MEDIUM Priority_NON-EMERGENCY Priority_OUT_OF_SERVICE Priority_UNKNOWN
feature_infos=[0:269] [1:75] [1:136] [14417.9060509554:105555.33333333299] [2.9986052998605301:48.720930232558104] [3.44760420724581:30.297173230248902] [42.728184553661002:77.543528424585702] [4.4140030441400304:26.968634511513301] [0:13.8620439719739] [2.43764971114555:97.440982662657504] [0.017008249000765401:31.887159533073898] [0.35826242722794399:87.7412991404819] [12550:306000] [5.4890869235159103:75.564708895114606] [20000:347500] [1:12] [0:23] [0:1] [0:1] [0:1] [0:1] [0:1] [0:1] [0:23] [0:1] [0:1] [0:1] [0:1] [0:1] [0:1] [0:1] [0:1]
tree_sizes=1863 1869 1864 1867 1870 452 1749 1874 1877 1759 1853 1868 1857 1248 1750 1745 1888 1873 1846 1848 351 1848 1871 1826 1590 1864 1882 1777 1251 1748 1795 1785 1837 1807 1853 450 1847 1865 1814 1580 1839 1856 1824 1557 1661 1826 1785 1864 1783 1767 351 1777 1808 1805 1787 1848 1890 1801 1358 1552 1803 1791 1850 1755 1756 453 1867 1779 1805 1592 1837 1872 1826 1164 1533 1797 1781 1871 1758 1755 351 1760 1766 1803 1687 1871 1883 1785 1423 1356 1878 1573 1842 1801 1806 552 1887 1800 1844 1574 1869 1881 1837 1444 1566 1814 1692 1861 1792 1735 452 1834 1770 1834 1700 1849 1889 1855 1522 1260 1775 1794 1873 1787 1737 721 1862 1788 1809 1587 1853 1889 1849 1447 1227 1778 1684 1866 1809 1786 556 1840 1780 1783 1586 1874 1886 1836 1534 1540 1812 1135 1854 1657 1829 453 1832 1839 1847 1674 1857 1865 1810 1539 1343 1818 1795 1866 1654 1800 661 1831 1829 1822 1477 1854 1804 1849 1250 1515 1810 1460 1835 1721 1800 433 1836 1829 1811 1756 1868 1814 1821 1322 1232 1767 1452 1856 1603 1804 657 1868 1806 1714 1765 1857 1854 1787 1649 1696 1774 1725 1801 1817 1765 556 1818 1798 1814 1760 1823 1836 1811 1329 1211 1779 1542 1817 1766 1839 435 1870 1831 1819 1570 1877 1825 1833 1154 1494 1792 1536 1803 1781 1763 617 1633 1846 1806 1677 1853 1850 1830 1456 1317 1822 1370 1803 1769 1771 615 1791 1817 1810 1759 1799 1802 1800 1305 1442 1764 1823 1822 1801 1764 720 1831 1869 1809 1444 1791 1856 1807 1240 1590 1704 1451 1839 1745 1732 620 1870 1823 1856 1717 1807 1800 1801 1302 1323

Tree=0
num_leaves=17
num_cat=0
split_feature=2 21 20 2 22 2 9 14 2 19 10 4 12 21 1 5
split_gain=686.15 286.865 201.688 185.697 172.851 95.1223 186.607 70.3244 68.6235 60.3714 34.3342 17.0377 32.259 15.1508 14.9716 18.3236
threshold=18.000000000000004 1.0000000180025095e-35 1.0000000180025095e-35 14.500000000000002 1.0000000180025095e-35 51.500000000000007 75.37032649024205 101800.00000000001 84.500000000000014 1.0000000180025095e-35 5.3315358475457151 7.3336610110491405 26050.000000000004 1.0000000180025095e-35 57.500000000000007 8.1898437851319184
decision_type=2 2 2 2 2 2 2 2 2 2 2 2 2 2 2 2
left_child=1 3 4 -1 9 6 -6 8 -4 13 -9 -5 -13 -2 -7 -16
right_child=2 -3 7 11 5 14 -8 10 -10 -11 -12 12 -14 -15 15 -17
leaf_value=-2.7080502118440237 -2.7550462940786811 -2.7637580970528632 -1.7219223354740294 -2.3146701602651216 -1.4834924161744358 -2.7080502118440237 -2.544160242012413 -2.7080502118440237 -2.6949433982478408 -2.6394268320188825 -2.3188405281192348 -2.0261006885235791 -1.4694545112826405 -2.8069979632749793 -2.7080502118440237 -2.4303401548703749
leaf_weight=2.2186174429953107 106.12674863636494 4.5110362544655791 2.9164548814296714 1.4909366667270667 2.3208521232008925 17.41935779154301 8.1045180633664113 4.7520788013935071 1.5415283739566801 28.215695347636938 3.6069202795624733 3.8117071613669378 6.3495145626366138 189.88225927576423 3.498121999204157 5.1669809743762016
leaf_count=14 394 45 39 16 37 40 33 19 14 830 34 47 109 4163 7 38
internal_value=-2.70805 -2.11159 -2.7374 -1.88508 -2.75175 -2.54707 -2.28887 -2.34926 -2.01356 -2.77541 -2.55219 -1.7254 -1.6586 -2.78905 -2.65792 -2.55044
internal_weight=0 18.3818 373.552 13.8708 360.735 36.5098 10.4254 12.817 4.45798 324.225 8.359 11.6522 10.1612 296.009 26.0845 8.6651
internal_count=5879 231 5648 186 5542 155 70 106 53 5387 53 172 156 4557 85 45
is_linear=0
shrinkage=1


Tree=1
num_leaves=17
num_cat=0
split_feature=21 26 8 2 16 8 16 7 16 29 5 2 2 2 12 5
split_gain=390.262 602.197 462.379 258.947 266.396 227.561 153.847 123.208 120.621 119.649 138.243 93.4464 81.5958 165.473 73.3981 64.7296
threshold=1.0000000180025095e-35 1.0000000180025095e-35 1.7229423396441204 107.50000000000001 1.5000000000000002 0.09118380750871212 1.0000000180025095e-35 5.967385576118601 6.5000000000000009 1.0000000180025095e-35 9.2090384758005666 130.50000000000003 42.500000000000007 45.500000000000007 18625.000000000004 5.6814797752928108
decision_type=2 2 2 2 2 2 2 2 2 2 2 2 2 2 2 2
left_child=-1 5 3 14 -5 6 -2 8 -7 11 -11 15 -8 -14 -3 -9
right_child=1 2 -4 4 -6 7 12 9 -10 10 -12 -13 13 -15 -16 -17
leaf_value=-2.8070387700710122 -1.4804272548105162 -1.3848167408637484 -2.7064688733668172 -1.5172409410927139 -2.7724577336865246 -1.8718921374472814 -2.7576685081242811 -2.3192964197279862 -2.6378997314940391 -1.836255179945842 -2.7402581122971292 -2.0831763957723464 -1.6090331262066393 -2.7183474914985273 -1.9642727432720535 -2.7940988663153905
leaf_weight=197.54003310576081 2.2112175673246375 6.4687884859740752 13.466348856687544 2.2742811590433112 5.6136368699371815 3.1358627043664447 3.9657903313636762 2.7988118566572657 8.0395296178758127 3.0208666399121276 2.947294607758522 1.8871283419430245 2.44839146733284 2.2273939959704876 7.1951787397265434 126.69277205318213
leaf_count=1671 7 10 145 8 63 35 87 68 224 37 46 9 12 92 36 3329
internal_value=-2.70805 -2.60746 -2.23176 -1.94441 -2.43588 -2.69126 -2.24864 -2.72226 -2.40508 -2.74952 -2.31616 -2.77073 -2.46834 -2.18021 -1.67532 -2.78229
internal_weight=0 194.393 35.0182 21.5519 7.88792 159.375 10.8528 148.522 11.1754 137.347 5.96816 131.379 8.64158 4.67579 13.664 129.492
internal_count=5879 4208 262 117 71 3946 198 3748 259 3489 83 3406 191 104 46 3397
is_linear=0
shrinkage=1


Tree=2
num_leaves=17
num_cat=0
split_feature=21 2 2 2 16 0 1 15 1 17 12 16 15 2 2 0
split_gain=390.262 293.118 827.063 234.267 195.027 127.564 126.325 99.5798 150.331 42.4044 48.8413 54.2785 43.9856 81.8755 75.7991 22.7462
threshold=1.0000000180025095e-35 40.500000000000007 31.500000000000004 16.000000000000004 6.5000000000000009 82.500000000000014 42.500000000000007 10.500000000000002 57.500000000000007 1.0000000180025095e-35 17775.000000000004 14.500000000000002 10.500000000000002 120.50000000000001 69.500000000000014 11.500000000000002
decision_type=2 2 2 2 2 2 2 2 2 2 2 2 2 2 2 2
left_child=-1 2 3 5 -4 -2 -6 8 -8 10 11 -3 13 -12 -14 -11
right_child=1 9 4 -5 6 -7 7 -9 -10 15 12 -13 14 -15 -16 -17
leaf_value=-2.8070387700710122 -2.7080502275081124 -1.9782559130810533 -2.7080502275081124 -2.7917354566304842 -1.4347484542652333 -1.6586890771325302 -2.2351261942586631 -2.4516387470239498 -1.5684985943519489 -2.4895081207027818 -2.7664194788369132 -2.7080502275081124 -2.1047426547905519 -2.0948792154508298 -2.7080502275081124 -2.773709525443667
leaf_weight=197.54003310576081 1.4458713009953488 2.2782846428453918 4.3915782943367949 44.277733702212572 4.4208270311355617 3.008837454020977 9.6846205331385189 6.7705040946602812 7.0057737752795211 2.653816044330596 29.904790684580806 1.2482509836554525 3.4310527592897397 1.9180952049791802 5.2652109190821648 66.688045870512724
leaf_count=1671 18 36 16 1183 21 25 33 21 43 81 749 23 28 32 147 1752
internal_value=-2.70805 -2.60746 -2.46216 -2.71816 -2.0694 -2.03174 -1.9718 -2.08151 -1.94334 -2.7095 -2.63462 -2.27197 -2.67111 -2.71966 -2.47047 -2.75995
internal_weight=0 194.393 81.0057 48.7324 32.2733 4.45471 27.8817 23.4609 16.6904 113.388 44.0457 3.52654 40.5191 31.8229 8.69626 69.3419
internal_count=5879 4208 1360 1226 134 43 118 97 76 2848 1015 59 956 781 175 1833
is_linear=0
shrinkage=1


Tree=3
num_leaves=17
num_cat=0
split_feature=2 2 7 15 21 17 2 2 2 21 17 2 2 2 4 2
split_gain=1548.04 1905.11 150.409 100.427 17.4761 26.8795 16.481 52.5075 67.3721 11.8958 38.4625 13.3058 6.49257 6.10072 5.2372 3.79236
threshold=29.500000000000004 26.500000000000004 15.453764320283351 8.5000000000000018 1.0000000180025095e-35 1.0000000180025095e-35 79.500000000000014 107.50000000000001 103.50000000000001 1.0000000180025095e-35 1.0000000180025095e-35 19.500000000000004 54.500000000000007 45.500000000000007 37.017741612752609 96.500000000000014
decision_type=2 2 2 2 2 2 2 2 2 2 2 2 2 2 2 2
left_child=1 9 -3 -4 -2 -6 12 8 15 -1 -11 -12 13 -7 -15 -8
right_child=4 2 3 -5 5 6 7 -9 -10 10 11 -13 -14 14 -16 -17
leaf_value=-2.7980322814794021 -2.8069228710696867 -1.3918514339346755 -1.4802402862469151 -2.5957126735250586 -2.7971589426915244 -2.7194054249965878 -2.5193326226734887 -2.7209712234288985 -1.5934764287564656 -2.7517523508100443 -2.7080501985371521 -1.84091625647409 -2.7647695417560998 -2.5037221445504212 -2.7080501985371521 -2.7080501985371521
leaf_weight=19.944598708301786 177.23628792539239 18.857630256563429 1.5320455096662033 2.7186150252819061 85.233875937759876 13.759459767490627 2.6722682677209404 15.122337035834787 0.99510726705193508 5.274389035999774 0.80587944388389565 0.69731540977954865 41.646888479590416 2.6947812177240844 1.1706068664789198 1.5712452977895734
leaf_count=211 1453 572 48 21 1531 210 58 164 32 51 25 23 1384 74 4 18
internal_value=-2.70805 -2.18732 -1.52205 -2.14666 -2.7839 -2.75794 -2.71345 -2.63897 -2.3641 -2.75514 -2.65839 -2.19786 -2.74241 -2.7009 -2.58332 -2.5919
internal_weight=0 49.8305 23.1083 4.25066 342.103 164.867 79.6327 20.361 5.23862 26.7222 6.77758 1.50319 59.2717 17.6248 3.86539 4.24351
internal_count=5879 951 641 69 4928 3475 1944 272 108 310 99 48 1672 288 78 76
is_linear=0
shrinkage=1


Tree=4
num_leaves=17
num_cat=0
split_feature=2 2 21 21 17 2 2 1 10 2 10 0 23 17 21 1
split_gain=644.168 1908.52 571.988 53.4827 74.2507 53.5244 50.8815 41.4035 76.3056 27.8072 56.5684 10.7409 7.29651 6.50109 13.1299 12.3912
threshold=31.500000000000004 30.500000000000004 1.0000000180025095e-35 1.0000000180025095e-35 1.0000000180025095e-35 42.500000000000007 50.500000000000007 13.500000000000002 5.3315358475457151 110.50000000000001 5.1333121906042338 243.50000000000003 21.500000000000004 1.0000000180025095e-35 1.0000000180025095e-35 56.500000000000007
decision_type=2 2 2 2 2 2 2 2 2 2 2 2 2 2 2 2
left_child=1 13 -3 -2 5 -5 7 -7 -9 11 -11 -8 -4 14 -1 -16
right_child=3 2 12 4 -6 6 9 8 -10 10 -12 -13 -14 -15 15 -17
leaf_value=-2.7900120717738899 -2.8068994800158156 -2.7525655662929589 -1.37886695552997 -2.7633872377086433 -2.7905331428973894 -2.7080501873593805 -2.692549041891902 -1.6559035710398959 -2.6104146141211668 -1.8956692075119106 -2.7080501873593805 -2.3993330477988661 -2.001927671420646 -2.798097533350584 -2.7080501873593805 -2.4484296750061278
leaf_weight=11.076729975640776 173.63523117080331 3.601057946681979 16.468850221484903 23.699716154485941 77.934170756489038 2.4211557283997527 31.194433186203241 1.9560127779841421 2.4028381500393152 1.5288762487471093 3.061621842905879 1.4620310217142094 1.6543170083314169 32.400822663679719 4.7505019754171363 2.684968264773488
leaf_count=121 1443 10 412 84 1884 15 778 56 25 46 36 58 31 767 48 65
internal_value=-2.70805 -2.43926 -1.65402 -2.7692 -2.72288 -2.64799 -2.58133 -2.32187 -2.13624 -2.63392 -2.39729 -2.6733 -1.42472 -2.77039 -2.71111 -2.62045
internal_weight=0 72.6372 21.7242 319.296 145.661 67.7267 44.027 6.78001 4.35885 37.247 4.5905 32.6565 18.1232 50.913 18.5122 7.43547
internal_count=5879 1454 453 4425 2982 1098 1014 96 81 918 82 836 443 1001 234 113
is_linear=0
shrinkage=1


Tree=5
num_leaves=3
num_cat=0
split_feature=19 2
split_gain=4604.49 22.6985
threshold=1.0000000180025095e-35 18.000000000000004
decision_type=2 2
left_child=-1 -2
right_child=1 -3
leaf_value=-2.8074975247567022 -2.0735802638195917 -1.4908362340639789
leaf_weight=361.50158973410726 2.2160413190722492 28.215695347636938
leaf_count=4995 54 830
internal_value=-2.70805 -1.52671
internal_weight=0 30.4317
internal_count=5879 884
is_linear=0
shrinkage=1


Tree=6
num_leaves=16
num_cat=0
split_feature=18 1 6 0 0 11 16 20 4 10 23 6 1 1 2
split_gain=577.803 348.33 286.989 189.646 196.462 186.868 160.51 64.3425 129.95 36.6608 46.0669 35.7003 31.8256 423.882 10.4297
threshold=1.0000000180025095e-35 1.5000000000000002 49.628997305375705 144.50000000000003 209.50000000000003 6.9189596546447865 14.500000000000002 1.0000000180025095e-35 37.017741612752609 6.032510952418634 17.500000000000004 51.887824668298357 25.500000000000004 24.500000000000004 51.500000000000007
decision_type=2 2 2 2 2 2 2 2 2 2 2 2 2 2 2
left_child=7 -2 5 9 6 -3 -5 12 11 -4 -11 -9 13 -1 -6
right_child=1 2 3 4 14 -7 -8 8 -10 10 -12 -13 -14 -15 -16
leaf_value=-2.8014085907940762 -1.8078826107617103 -1.8185227691546866 -2.8030567082211042 -2.6730630826591137 -2.6178438447985601 -2.5426057855003785 -2.0524766020822955 -2.3235528769123026 -1.8947604928453823 -2.359529468821751 -2.7690517822579266 -2.7885157412140487 -2.8072070052186047 -1.3947143373145421 -2.7883187548216188
leaf_weight=30.083415370434523 6.7155414223670951 7.9526970759034139 40.012470573186874 7.0594995394349125 5.0100406110286704 7.9326835349202156 13.466460302472113 1.9668667390942562 2.3056065514683715 4.6947365030646306 5.1233657374978065 10.228232160210608 236.95010012760758 2.3054900765418997 10.126120075583456
leaf_count=538 22 22 158 34 15 40 34 20 14 22 23 99 4791 3 44
internal_value=-2.70805 -2.5113 -2.55986 -2.6351 -2.45809 -2.16753 -2.25618 -2.78298 -2.58334 -2.75777 -2.59358 -2.70805 -2.79447 -2.70745 -2.71869
internal_weight=0 108.094 101.378 85.4927 35.6621 15.8854 20.526 283.84 14.5007 49.8306 9.8181 12.1951 269.339 32.3889 15.1362
internal_count=5879 414 392 330 127 62 68 5465 133 203 45 119 5332 541 59
is_linear=0
shrinkage=1


Tree=7
num_leaves=17
num_cat=0
split_feature=27 21 2 2 23 21 2 6 2 2 13 2 4 4 2 6
split_gain=643.503 462.775 380.587 636.888 62.1589 29.117 33.771 29.1013 28.5531 28.0252 20.7424 24.1562 17.8578 15.5424 7.33503 8.98453
threshold=1.0000000180025095e-35 1.0000000180025095e-35 75.500000000000014 71.500000000000014 22.500000000000004 1.0000000180025095e-35 40.500000000000007 43.322879304110707 35.500000000000007 29.500000000000004 49.573016218911008 107.50000000000001 27.320093886333357 8.0455376417707214 50.500000000000007 50.622023208618707
decision_type=2 2 2 2 2 2 2 2 2 2 2 2 2 2 2 2
left_child=5 -2 3 8 7 -1 -7 -5 9 -3 -8 12 -12 -4 -10 -16
right_child=1 2 13 4 -6 6 10 -9 14 -11 11 -13 -14 -15 15 -17
leaf_value=-2.806865493452642 -2.8011336784356189 -2.7080501998298199 -2.7003039584595627 -2.7080501998298199 -2.6461973103304124 -2.7841423676492583 -2.7155183756038475 -1.5772826285652903 -2.7181983809554762 -1.8978249011234607 -2.3317997135095307 -2.7080501998298199 -2.7080501998298199 -2.5208952841605532 -2.7080501998298199 -2.3363222752691954
leaf_weight=168.65219894051552 28.88783598318696 1.1008623689413097 9.0895583555102331 0.53901121392846185 1.0205413810908801 77.642135441303253 40.086047850549221 15.326557695865629 8.4729773178696615 1.0451151989400387 4.6502540260553342 7.5667547695338726 1.9493119418621061 23.746973805129528 0.97381401434540693 1.1833811476826666
leaf_count=1537 134 22 294 10 19 1282 357 745 153 48 153 99 20 952 10 44
internal_value=-2.70805 -2.47568 -2.32205 -2.06042 -1.65604 -2.77871 -2.74119 -1.60494 -2.61053 -2.27318 -2.68339 -2.57839 -2.43844 -2.56447 -2.69743 -2.52324
internal_weight=0 91.3866 62.4988 29.6623 16.8861 300.547 131.895 15.8656 12.7762 2.14598 54.2524 14.1663 6.59957 32.8365 10.6302 2.1572
internal_count=5879 2431 2297 1051 774 3448 1911 755 277 70 629 272 173 1246 207 54
is_linear=0
shrinkage=1


Tree=8
num_leaves=17
num_cat=0
split_feature=27 21 2 2 17 2 12 2 21 2 2 2 2 2 8 0
split_gain=936.34 607.059 956.512 686.314 68.5084 28.6476 37.2617 44.736 4.41055 4.8419 5.446 3.55164 2.64301 12.3037 0.869633 0.596958
threshold=1.0000000180025095e-35 1.0000000180025095e-35 75.500000000000014 76.500000000000014 1.0000000180025095e-35 57.500000000000007 43750.000000000007 42.500000000000007 1.0000000180025095e-35 55.500000000000007 76.500000000000014 19.500000000000004 74.500000000000014 75.500000000000014 1.6984278522598568 237.50000000000003
decision_type=2 2 2 2 2 2 2 2 2 2 2 2 2 2 2 2
left_child=8 -2 4 -4 15 6 -6 -8 -1 11 12 -10 -11 -14 -7 -3
right_child=1 2 3 -5 5 14 7 -9 9 10 -12 -13 13 -15 -16 -17
leaf_value=-2.8068654784796059 -2.8011336635700514 -2.7770811606384385 -1.6362452523351347 -2.7111871757490285 -2.7080501848500846 -2.7080501848500846 -2.7080501848500846 -1.7746915250668698 -2.7080501848500846 -2.7080501848500846 -2.7540598222378767 -2.7905039605938287 -2.7080501848500846 -2.1852059738242504 -2.6253638620760671 -2.7080501848500846
leaf_weight=168.65219989418983 28.887836460024118 18.051767956465486 25.581518996506929 7.25501475483179 1.814527658745648 2.1437863856554031 0.94304758869111571 1.9968121964484451 4.7106678858399382 3.9673998989164856 26.32371960580349 95.330867467448115 0.95979791693389394 0.60205159336328506 3.2324791625142097 1.4798396714031685
leaf_count=1537 134 586 1114 132 27 101 40 82 50 62 319 1404 51 25 152 63
internal_value=-2.70805 -2.42775 -2.25197 -1.87983 -2.67066 -2.45543 -2.26826 -2.04507 -2.79328 -2.7744 -2.73073 -2.7863 -2.65577 -2.54496 -2.65812 -2.77207
internal_weight=0 91.3866 62.4988 32.8365 29.6623 10.1307 4.75439 2.93986 300.547 131.895 31.853 100.042 5.52925 1.56185 5.37627 19.5316
internal_count=5879 2431 2297 1246 1051 402 149 122 3448 1911 457 1454 138 76 253 649
is_linear=0
shrinkage=1


Tree=9
num_leaves=16
num_cat=0
split_feature=18 11 2 2 27 10 0 29 6 9 20 12 7 7 15
split_gain=431.823 340.152 304.43 770.204 94.8101 107.583 117.072 76.4472 198.682 66.0138 164.994 43.1698 29.1381 235.229 221.501
threshold=1.0000000180025095e-35 74.24937222696137 36.500000000000007 32.500000000000007 1.0000000180025095e-35 1.2943714342244503 105.50000000000001 1.0000000180025095e-35 51.995950277972305 2.4487445342876355 1.0000000180025095e-35 16550.000000000004 6.9704526254155308 6.6860863657109508 10.500000000000002
decision_type=2 2 2 2 2 2 2 2 2 2 2 2 2 2 2
left_child=7 2 3 -2 5 6 -4 9 -9 10 -1 -7 13 -11 -15
right_child=1 -3 4 -5 -6 11 -8 8 -10 12 -12 -13 -14 14 -16
leaf_value=-2.7448270659239875 -2.7837205247386474 -1.7599946127127166 -2.2737081727626625 -1.3540240452547607 -2.4224240097948688 -2.5381788910138106 -2.7795055951271435 -2.0116600579149893 -2.7881834925543894 -2.8027663166076686 -1.4609869089589747 -2.8039713266285942 -2.807149063885205 -2.7216851479560806 -1.4787806519254962
leaf_weight=3.1602876074612132 8.212325379252432 5.4187932610511771 10.628391899168493 6.6013460755348197 14.727206178009508 6.5211201161146155 6.9996844977140418 4.6704871281981459 10.05718646943569 37.813619386404753 1.3064444065093992 48.984747968614101 221.72003844752908 2.3134739734232417 2.7981758415699005
leaf_count=89 38 16 36 6 37 26 32 29 109 795 1 223 4382 52 8
internal_value=-2.70805 -2.53796 -2.58096 -2.1601 -2.6542 -2.7036 -2.48588 -2.77283 -2.5555 -2.78546 -2.41406 -2.76914 -2.79249 -2.71209 -2.08039
internal_weight=0 108.094 102.675 14.8137 87.8612 73.1339 17.6281 283.84 14.7277 269.112 4.46673 55.5059 264.645 42.9253 5.11165
internal_count=5879 414 398 44 354 317 68 5465 138 5327 90 249 5237 855 60
is_linear=0
shrinkage=1


Tree=10
num_leaves=17
num_cat=0
split_feature=2 1 1 15 16 1 1 17 10 2 6 2 14 6 16 4
split_gain=528.795 542.823 550.135 171.371 253.503 109.132 226.519 104.917 66.2377 73.8972 45.121 34.4149 30.6031 24.0545 22.7168 16.2086
threshold=107.50000000000001 41.500000000000007 13.500000000000002 3.5000000000000004 19.500000000000004 29.500000000000004 26.500000000000004 1.0000000180025095e-35 5.6868309072489156 74.500000000000014 52.952934406955606 110.50000000000001 22250.000000000004 44.700653465636357 10.500000000000002 14.63484074243201
decision_type=2 2 2 2 2 2 2 2 2 2 2 2 2 2 2 2
left_child=5 2 -2 4 7 6 8 -3 13 -10 -8 -4 -5 -1 -12 -14
right_child=1 3 11 12 -6 -7 10 -9 9 -11 14 -13 15 -15 -16 -17
leaf_value=-2.4212093166373512 -2.7727777232035566 -2.2139886344701707 -1.4481399875768728 -2.4703185413089552 -1.8704856621453025 -2.7978928117472841 -1.6508012785650912 -2.7357012072797544 -2.7040623847191125 -2.0462155926042844 -2.0869326848679823 -2.0018418611863891 -2.6856637045979732 -2.8011115204146613 -2.7080501824928676 -2.8007876023964413
leaf_weight=1.5511820744723106 5.6645705923438099 5.0493967905640647 8.0875134542584401 4.145079653710126 6.6119271218776694 255.91220007278025 2.5920547116547814 13.817296847701073 5.7704906407743675 2.8874883744865656 0.83212599717080582 3.7206915244460097 17.9741141051054 28.795655623078346 1.0102085396647451 27.511338969692588
leaf_count=23 40 34 23 16 31 4643 22 86 54 63 11 36 133 401 44 219
internal_value=-2.70805 -2.49919 -1.99549 -2.61902 -2.40778 -2.77265 -2.62852 -2.60666 -2.70805 -2.46159 -1.95122 -1.60569 -2.72344 -2.77511 -2.48234 -2.7509
internal_weight=0 92.5819 17.4728 75.1092 25.4786 299.351 43.4392 18.8667 39.0048 8.65798 4.43439 11.8082 49.6305 30.3468 1.84233 45.4855
internal_count=5879 618 99 519 151 5261 618 120 541 117 77 59 368 424 55 352
is_linear=0
shrinkage=1


Tree=11
num_leaves=17
num_cat=0
split_feature=17 18 5 14 2 16 2 2 19 10 13 15 0 14 9 15
split_gain=469.41 303.195 407.871 108.713 209.719 121.769 54.6128 130.114 179.785 131.957 170.25 72.0475 105.379 45.6228 42.9381 41.1101
threshold=1.0000000180025095e-35 1.0000000180025095e-35 10.111168310708251 25679.000000000004 107.50000000000001 4.5000000000000009 38.500000000000007 52.500000000000007 1.0000000180025095e-35 4.6664215947411405 13.481893161264201 10.500000000000002 68.500000000000014 147175.00000000003 2.4487445342876355 1.5000000000000002
decision_type=2 2 2 2 2 2 2 2 2 2 2 2 2 2 2 2
left_child=1 3 -3 4 5 -1 -5 8 9 10 -8 12 -12 -14 -9 -16
right_child=-2 2 -4 6 -6 -7 7 14 -10 -11 11 -13 13 -15 15 -17
leaf_value=-2.0870009795015534 -2.8026780812913845 -1.7930288188735888 -2.7080501691099572 -2.7729142819649946 -1.6915923034611537 -2.7118915556494105 -2.7630902809940872 -2.1852524890634042 -2.7938759172689864 -2.7080501691099572 -2.5723545277802207 -2.5850246362935101 -1.7074079815669649 -2.2808297035694247 -2.5451178140877473 -2.8029611615115519
leaf_weight=3.9041283261030975 224.26301965303719 10.694087337702515 9.2638629823923093 34.288607288151979 3.4215584695339194 12.528889432549475 4.4440354276448515 1.2928018048405636 14.096217412501572 9.0944893192499858 3.4160749018192318 3.6101425457745782 8.0360470172017795 3.4333099406212559 6.8843230232596389 39.26174833625555
leaf_count=36 3428 21 40 591 12 180 38 26 417 89 23 21 44 17 133 763
internal_value=-2.70805 -2.58148 -2.21382 -2.63251 -2.41319 -2.57559 -2.66813 -2.6276 -2.50739 -2.37509 -2.24725 -2.1125 -2.01132 -1.86164 -2.74029 -2.76016
internal_weight=0 167.67 19.958 147.712 19.8546 16.433 127.858 93.5692 46.1303 32.0341 22.9396 18.4956 14.8854 11.4694 47.4389 46.1461
internal_count=5879 2451 61 2390 228 216 2162 1571 649 232 143 105 84 61 922 896
is_linear=0
shrinkage=1


Tree=12
num_leaves=17
num_cat=0
split_feature=2 2 17 13 16 6 15 1 7 10 16 16 8 4 18 14
split_gain=433.112 516.757 531.895 210.68 162.361 134.117 29.9789 24.8478 18.6361 14.626 14.3404 10.9663 13.7199 9.52147 5.32887 14.5431
threshold=107.50000000000001 110.50000000000001 1.0000000180025095e-35 48.49099531519456 18.500000000000004 56.446084974769668 3.5000000000000004 61.500000000000007 6.4070572716906105 5.7595764856834561 17.500000000000004 4.5000000000000009 4.2026112631773156 47.68378843960236 1.0000000180025095e-35 79883.095238095251
decision_type=2 2 2 2 2 2 2 2 2 2 2 2 2 2 2 2
left_child=7 2 -2 4 5 -4 -6 -1 11 -3 -11 12 -9 14 -10 -16
right_child=1 9 3 -5 6 -7 -8 8 13 10 -12 -13 -14 -15 15 -17
leaf_value=-2.7921979716954048 -2.7080501654600728 -2.7598864476827871 -1.410109112985299 -1.4914735780342481 -2.6835792064222854 -2.3358178870419901 -2.2889133919113949 -2.7080501654600728 -2.7650983706885581 -2.7080501654600728 -2.438448298397478 -2.6907415722834251 -2.2776235080770402 -2.5159008650507997 -2.7540724505737479 -2.5924138495876581
leaf_weight=169.58340582065284 16.733449561521411 40.745743904262781 4.1589656323194566 7.2511447090655556 5.0588926672935468 3.7486467696726322 5.0077758058905602 1.1678353995084789 81.900129776448011 7.0514888465404493 2.8258231673389673 13.32263760268688 1.7735598962754011 1.4455386027693737 22.910639669746164 7.2476653866469851
leaf_count=2624 54 240 64 102 15 23 31 20 2107 59 30 335 39 39 60 37
internal_value=-2.70805 -2.51902 -2.25928 -1.96923 -2.17309 -1.82368 -2.4674 -2.76651 -2.7314 -2.73037 -2.62883 -2.63546 -2.45297 -2.74691 -2.75168 -2.7086
internal_weight=0 92.5819 41.9589 25.2254 17.9743 7.90761 10.0667 299.351 129.768 50.6231 9.87731 16.264 2.9414 113.504 112.058 30.1583
internal_count=5879 618 289 235 133 87 46 5261 2637 329 89 394 59 2243 2204 97
is_linear=0
shrinkage=1


Tree=13
num_leaves=11
num_cat=0
split_feature=22 26 1 1 16 8 6 0 23 6
split_gain=2309.46 409.964 322.06 195.473 273.294 174.431 36.9699 63.9977 115.586 25.5854
threshold=1.0000000180025095e-35 1.0000000180025095e-35 40.500000000000007 62.500000000000007 13.500000000000002 4.6787389078007857 44.700653465636357 108.50000000000001 9.5000000000000018 76.139666142685968
decision_type=2 2 2 2 2 2 2 2 2 2
left_child=6 2 -2 -4 -5 -3 7 8 -1 -8
right_child=1 5 3 4 -6 -7 9 -9 -10 -11
leaf_value=-1.9784650865609215 -2.5843991545793128 -2.7840808987976189 -1.5207814257203169 -1.6596795705633933 -2.7535764076838021 -1.9116616267401747 -2.8074282444962781 -2.7917612618856462 -2.7533120125880388 -2.6290466139392916
leaf_weight=3.2587453350424793 5.5971195921301833 8.335802033543585 19.015050895512108 4.8822361230850202 3.667880155146122 3.0158869698643676 321.25108249485493 12.266198996454476 3.650163646787405 6.993165209889411
leaf_count=24 18 87 58 20 38 19 5287 119 50 159
internal_value=-2.70805 -2.0299 -1.85107 -1.70942 -2.15231 -2.5699 -2.79494 -2.66706 -2.41676 -2.80302
internal_weight=0 44.514 33.1623 27.5652 8.55012 11.3517 347.419 19.1751 6.90891 328.244
internal_count=5879 240 134 116 58 106 5639 193 74 5446
is_linear=0
shrinkage=1


Tree=14
num_leaves=16
num_cat=0
split_feature=18 1 4 6 0 26 2 7 9 9 25 16 10 2 7
split_gain=1014.73 313.024 267.569 203.82 236.519 203.383 117.265 110.708 91.5587 66.9373 42.1301 30.8228 10.394 4.84514 2.48714
threshold=1.0000000180025095e-35 66.500000000000014 13.672973158744851 51.340958025001058 98.500000000000014 1.0000000180025095e-35 113.50000000000001 9.2750648719465385 96.182711346846915 79.710100249020527 1.0000000180025095e-35 12.500000000000002 1.8822887863705351 107.50000000000001 11.057769710636451
decision_type=2 2 2 2 2 2 2 2 2 2 2 2 2 2 2
left_child=-1 7 10 11 5 -5 8 -2 14 13 -3 -4 -9 -7 -6
right_child=1 2 3 4 6 9 -8 12 -10 -11 -12 -13 -14 -15 -16
leaf_value=-2.8073462547756507 -2.3069288674643351 -2.7899343713051463 -2.7722595790310263 -1.462233144564143 -2.6871826467053852 -2.2464734197667759 -2.0752516135699182 -2.6932828748282387 -2.1900595433527115 -1.789660041047564 -2.4174224366668189 -2.4331572544492048 -2.7974411967820503 -2.5484583515976835 -2.7734556898049161
leaf_weight=283.83971829526126 6.8207893371582022 11.029222302138804 5.5825636535882932 8.3642200455069542 3.3356437087059039 3.9390771090984344 9.6013959199190122 14.020715482532976 4.5551960989832869 3.9484055712819099 4.1193177103996268 4.2922116443514824 18.833401724696159 3.8758747130632401 5.7755817770957947
leaf_count=5465 21 47 15 30 27 10 28 35 14 24 29 28 55 30 21
internal_value=-2.70805 -2.44731 -2.31744 -2.21188 -2.11791 -1.85933 -2.35018 -2.67631 -2.55794 -2.15867 -2.70183 -2.6451 -2.74691 -2.37068 -2.71994
internal_weight=0 108.094 68.4187 53.2702 43.3954 20.1276 23.2678 39.6749 13.6664 11.7634 15.1485 9.87478 32.8541 7.81495 9.11123
internal_count=5879 414 303 227 184 94 90 111 62 64 76 43 90 40 48
is_linear=0
shrinkage=1


Tree=15
num_leaves=17
num_cat=0
split_feature=21 18 2 10 2 6 2 13 4 23 15 14 2 0 1 23
split_gain=301.268 244.113 85.4105 37.0538 30.8361 17.4746 19.679 24.33 13.3085 16.2656 16.8129 6.18301 5.68896 5.32115 3.85644 4.65099
threshold=1.0000000180025095e-35 1.0000000180025095e-35 18.000000000000004 0.70396693612461669 18.000000000000004 49.317943962083852 74.500000000000014 11.556158463839152 20.564974121438279 3.5000000000000004 2.5000000000000004 291950.00000000006 24.500000000000004 243.50000000000003 56.500000000000007 18.500000000000004
decision_type=2 2 2 2 2 2 2 2 2 2 2 2 2 2 2 2
left_child=1 2 -1 -4 -3 -5 7 -7 -8 -10 -11 12 -9 -14 -6 -16
right_child=-2 4 3 5 14 6 8 11 9 10 -12 -13 13 -15 15 -17
leaf_value=0.35672397831783587 -0.097852148707343933 0.23572624223674229 0.41335475143150635 0 -0.076403334352984506 0 -0.0030292377437568102 0 0 0 0.41214797934478425 0 0.22579579633977931 0.0091601099213827128 0 -0.054567518766274949
leaf_weight=23.878767149522901 168.90753437858075 4.0013236850500098 5.040355183184146 9.599778810515998 28.984083376824856 7.9602370653301469 14.550586709752681 1.5466864760965098 1.8157148733735073 1.2629134953022001 2.8826862815767527 3.067603074014186 36.022711593657732 3.1872576214373103 39.326098751276731 29.516432970762253
leaf_count=166 4208 20 99 102 82 79 80 7 7 13 46 15 608 35 193 119
internal_value=0 0.0810259 0.183986 0.134242 -0.0290593 0.114624 0.131531 0.165688 0.0355571 0.163257 0.2785 0.194912 0.205833 0.213282 -0.041932 -0.0245166
internal_weight=0 212.643 110.815 86.9365 101.828 81.8962 72.2964 51.7845 20.5119 5.96131 4.1456 43.8243 40.7567 39.21 97.8266 68.8425
internal_count=5879 1671 1257 1091 414 992 890 744 146 66 59 665 650 643 394 312
is_linear=0
shrinkage=0.1


Tree=16
num_leaves=17
num_cat=0
split_feature=21 26 2 2 8 6 3 4 1 23 1 1 10 2 15 1
split_gain=294.656 233.677 139.874 203.899 98.175 92.9995 83.2918 83.2666 70.7309 68.2441 66.5373 105.582 64.5844 60.1681 36.4174 12.0322
threshold=1.0000000180025095e-35 1.0000000180025095e-35 54.500000000000007 61.500000000000007 0.09118380750871212 56.446084974769668 47480.678463855409 27.320093886333357 1.5000000000000002 16.500000000000004 42.500000000000007 41.500000000000007 5.7595764856834561 130.50000000000003 4.5000000000000009 66.500000000000014
decision_type=2 2 2 2 2 2 2 2 2 2 2 2 2 2 2 2
left_child=-1 4 -3 -4 14 13 9 -5 -8 10 11 -7 15 -6 -2 -11
right_child=1 2 3 7 5 6 8 -9 -10 12 -12 -13 -14 -15 -16 -17
leaf_value=-0.097886027382950908 -0.029558095201816643 -0.082322221866105494 0.53203613821415285 -0.082324327437956354 -0.096805300530116656 -0.043206098753576588 0.47909238387332148 0.29684787685378222 -0.091610694643150414 0.61282619889019208 -0.082166246259281386 0.67546538361482533 -0.014248988642625346 0.34405138194176693 0.30661394295668654 0.2499776092364682
leaf_weight=171.96147114410996 2.8067327626049545 9.2599284481257182 23.904490068554878 11.08218593709171 81.833767528645694 3.4579912116751137 2.3223424684256342 10.954952693544326 24.823320974595845 6.2840940598398429 10.681702424772082 3.7502387184649706 2.3205487057566634 3.0405709482729426 14.497523786500095 3.8457826469093561
leaf_count=1671 74 52 12 158 2300 116 7 40 811 58 326 5 64 5 124 56
internal_value=0 0.0777502 0.255347 0.327757 0.0150973 -0.0109024 0.0856584 0.0971005 -0.035426 0.200578 0.0618486 0.30298 0.383871 -0.0786578 0.240541 0.494796
internal_weight=0 214.866 55.2016 45.9416 159.665 142.36 57.486 22.0371 27.1457 30.3404 17.8899 7.20823 12.4504 84.8743 17.3043 10.1299
internal_count=5879 4208 262 210 3946 3748 1443 198 818 625 447 121 178 2305 198 114
is_linear=0
shrinkage=0.1


Tree=17
num_leaves=17
num_cat=0
split_feature=21 17 2 15 27 2 2 25 6 7 2 23 2 2 0 23
split_gain=300.82 161.703 76.4321 85.0821 79.0885 85.3883 90.1536 54.219 38.4844 28.0121 36.5962 26.4228 28.8399 83.3262 26.6647 22.5936
threshold=1.0000000180025095e-35 1.0000000180025095e-35 52.500000000000007 1.5000000000000002 1.0000000180025095e-35 31.500000000000004 29.500000000000004 1.0000000180025095e-35 44.700653465636357 6.9704526254155308 120.50000000000001 12.500000000000002 42.500000000000007 38.500000000000007 11.500000000000002 11.500000000000002
decision_type=2 2 2 2 2 2 2 2 2 2 2 2 2 2 2 2
left_child=-1 2 3 -2 5 6 15 -7 -4 10 -10 -3 13 -13 -14 -5
right_child=1 11 8 4 -6 7 -8 -9 9 -11 -12 12 14 -15 -16 -17
leaf_value=-0.097886027382950908 -0.03318378175401665 -0.064291252904544266 0.57989435812086609 0.016094072755462329 -0.06657178494503424 0.424303909097973 -0.079886105236845903 0.085265350736320411 0 -0.034595967886638837 0.53765620574029582 -0.076430459413745641 0.33686970835665636 0.33783277843465115 -0.041768257603245887 0.45406947159547334
leaf_weight=171.96147114410996 10.381381524726747 49.376351362094283 1.2378423223271955 2.6897075828164816 5.8590586967766276 35.789370921440423 10.53219929151237 7.2118477132171384 4.1710085114464155 26.70516801904887 2.126145051792264 8.2549876850098372 1.9281811136752356 9.9812249150127172 30.72508750949055 6.124869741499424
leaf_count=1671 165 1364 16 34 74 106 302 23 165 693 11 287 36 31 865 36
internal_value=0 0.0799036 0.16214 0.21694 0.257939 0.291639 0.102499 0.372089 0.0305269 0.00386715 0.198712 -0.0106437 0.0374824 0.139352 -0.0132907 0.343092
internal_weight=0 213.094 112.829 78.5884 68.2071 62.348 19.3468 43.0012 34.2402 33.0023 6.29715 100.266 50.8895 18.2362 32.6533 8.81458
internal_count=5879 4208 1625 740 575 501 372 129 885 869 176 2583 1219 318 901 70
is_linear=0
shrinkage=0.1


Tree=18
num_leaves=17
num_cat=0
split_feature=2 2 21 17 2 2 21 17 5 2 2 2 4 2 2 2
split_gain=699.647 317.044 18.3779 25.8134 11.6617 29.0615 10.1591 20.0319 7.76907 5.29993 3.8808 3.82357 3.23219 2.30033 1.16621 0.342154
threshold=29.500000000000004 26.500000000000004 1.0000000180025095e-35 1.0000000180025095e-35 84.500000000000014 107.50000000000001 1.0000000180025095e-35 1.0000000180025095e-35 5.9386001152361461 54.500000000000007 103.50000000000001 45.500000000000007 37.017741612752609 96.500000000000014 123.50000000000001 129.50000000000003
decision_type=2 2 2 2 2 2 2 2 2 2 2 2 2 2 2 2
left_child=1 6 -2 -4 9 10 -1 -8 -3 11 13 -5 -13 -6 -7 -16
right_child=2 8 3 4 5 14 7 -9 -10 -11 -12 12 -14 -15 15 -17
leaf_value=-0.087615780073533642 -0.097758919136911746 0.095593993978605601 -0.086753448657492224 -0.0053984511878787059 0.1528754807158974 -0.036627689143901195 -0.038701729039759769 0.30207745059337393 0.38781340129048886 -0.050221957766424852 0.38486324487343776 0.14729838798810971 0 0 0.038177088919490593 0
leaf_weight=17.437379114329818 154.404794851318 2.7994641587138167 75.044812032952905 12.950917407870294 2.8385775592178133 9.3441374748945218 4.8855685871094456 2.2432385515421629 57.029683565720916 37.752389843575656 2.4195817708969116 3.2923266366124144 1.1619396191090343 1.4777174796909092 2.4222168587148181 2.6392761990427971
leaf_count=211 1453 20 1531 210 47 106 51 48 621 1395 32 74 4 18 45 13
internal_value=0 0.25292 -0.0723092 -0.0450246 -0.00136306 0.0588758 -0.0423036 0.0405045 0.37748 -0.0280746 0.232117 0.00848415 0.0937049 0.100201 -0.0082594 0.00463676
internal_weight=0 84.3953 305.749 151.344 76.2991 21.1415 24.5662 7.12881 59.8291 55.1576 6.73588 17.4052 4.45427 4.3163 14.4056 5.06149
internal_count=5879 951 4928 3475 1944 261 310 99 641 1683 97 288 78 65 164 58
is_linear=0
shrinkage=0.1


Tree=19
num_leaves=17
num_cat=0
split_feature=2 2 21 21 17 2 2 2 14 8 28 1 1 1 0 8
split_gain=355.043 430.423 68.8058 52.7039 62.6491 39.9925 18.3633 19.9054 17.4749 51.7007 14.1086 10.3252 14.1834 4.46822 3.31263 3.05649
threshold=31.500000000000004 29.500000000000004 1.0000000180025095e-35 1.0000000180025095e-35 1.0000000180025095e-35 42.500000000000007 51.500000000000007 79.500000000000014 25679.000000000004 2.1382113620001655 1.0000000180025095e-35 13.500000000000002 57.500000000000007 2.5000000000000004 243.50000000000003 0.38742398562191355
decision_type=2 2 2 2 2 2 2 2 2 2 2 2 2 2 2 2
left_child=1 13 -3 -2 5 -5 11 14 -9 -10 -4 -7 -13 -1 15 -8
right_child=3 2 10 4 -6 6 7 8 9 -11 -12 12 -14 -15 -16 -17
leaf_value=0.030474925870024379 -0.097733695599153902 -0.038356345305999545 0.073114228233395542 -0.051152072808780064 -0.07934590726507823 0 0.13773292604564516 0 0.51359553413211978 0.010657729879404963 0.39784413568866617 0.41447666154318663 0.025967139938845571 -0.072838711537764986 0.1603380491736271 -0.010511029198292263
leaf_weight=1.7694881204515684 151.29401111230254 3.2769284322857848 2.9535703929141155 21.914433461613953 68.939572009257972 2.4017954878509027 1.4822816113010109 3.1029642680659881 4.0436844788491708 5.9023639913648367 47.685395278036594 4.6541332509368658 2.6729656103998423 42.436842017807066 1.3429387006908644 22.134801739826798
leaf_count=35 1443 10 58 84 1884 16 66 18 90 62 435 72 17 916 46 627
internal_value=0 0.163312 0.353543 -0.0567495 -0.0105674 0.0546388 0.107388 0.0684146 0.169649 0.235222 0.38285 0.239114 0.300015 -0.0641835 0.00748491 0
internal_weight=0 98.1222 53.9159 289.886 138.592 69.6524 47.7379 38.009 13.049 9.94605 50.639 9.72889 7.3271 44.2063 24.96 23.6171
internal_count=5879 1454 503 4425 2982 1098 1014 909 170 152 493 105 89 951 739 693
is_linear=0
shrinkage=0.1


Tree=20
num_leaves=2
num_cat=0
split_feature=19
split_gain=1451.22
threshold=1.0000000180025095e-35
decision_type=2
left_child=-1
right_child=-2
leaf_value=-0.098420494407595024 0.38366052692983882
leaf_weight=315.00862246565521 77.876531545072794
leaf_count=4995 884
internal_value=0
internal_weight=0
internal_count=5879
is_linear=0
shrinkage=0.1


Tree=21
num_leaves=17
num_cat=0
split_feature=18 6 9 11 2 13 20 16 0 16 23 23 1 1 10 6
split_gain=394.163 176.839 84.9882 99.5831 77.3987 106.549 52.1604 54.3451 50.5395 37.95 84.3284 36.3684 28.5338 118.729 23.6617 18.8442
threshold=1.0000000180025095e-35 52.952934406955606 86.287871516216754 2.6866448676440107 113.50000000000001 43.768707825406928 1.0000000180025095e-35 15.500000000000002 114.50000000000001 20.500000000000004 17.500000000000004 14.500000000000002 25.500000000000004 24.500000000000004 5.6868309072489156 51.340958025001058
decision_type=2 2 2 2 2 2 2 2 2 2 2 2 2 2 2 2
left_child=6 2 -2 11 9 -6 12 -8 -5 -3 -11 -4 13 -1 15 -9
right_child=1 4 3 8 5 -7 7 14 -10 10 -12 -13 -14 -15 -16 -17
leaf_value=-0.091471177360808398 0 -0.069129486571575582 0.25835844021373111 0.23373257259842087 -0.069890004822561719 0.42339973274951803 -0.075210256719665539 0.31352280413076572 0.52160956863631691 0.38664430441435921 -0.076058343915673399 -0.07099464109766554 -0.098027889396787804 0.38859025424850069 0.48859439793814385 -0.029351727535281303
leaf_weight=26.280451673083007 10.186695601791142 41.490422520786524 5.7982898466289026 12.961132436990736 6.4496961571276215 10.535954464226959 7.9419746398925808 2.2554636597633344 21.651591908186674 6.6324564404785624 8.435479708015917 6.5428153499960899 204.91421644482762 6.4065425395965567 3.5462230518460274 2.806159969419241
leaf_count=538 46 150 18 28 22 29 76 7 39 16 42 24 4791 3 16 34
internal_value=0 0.141926 0.274456 0.331314 0.0362388 0.224327 -0.0717745 0.09428 0.419583 -0.0167155 0.114349 0.0675571 -0.0841818 0 0.273871 0.0839593
internal_weight=0 130.685 57.1405 46.9538 73.544 16.9857 254.151 16.5498 34.6127 56.5584 15.0679 12.3411 237.601 32.687 8.60785 5.06162
internal_count=5879 414 155 109 259 51 5465 133 67 208 58 42 5332 541 57 41
is_linear=0
shrinkage=0.1


Tree=22
num_leaves=17
num_cat=0
split_feature=27 21 2 2 21 2 2 17 2 5 2 2 6 2 12 2
split_gain=408.759 215.617 56.9849 81.2218 30.3373 30.1317 34.1901 25.7651 11.7363 10.7245 9.48629 17.7715 8.91615 5.13741 4.93055 4.91377
threshold=1.0000000180025095e-35 1.0000000180025095e-35 75.500000000000014 71.500000000000014 1.0000000180025095e-35 55.500000000000007 99.500000000000014 1.0000000180025095e-35 35.500000000000007 19.458347933590854 79.500000000000014 74.500000000000014 57.960095347075516 96.500000000000014 59500.000000000007 40.500000000000007
decision_type=2 2 2 2 2 2 2 2 2 2 2 2 2 2 2 2
left_child=4 -2 3 8 -1 15 7 10 -3 12 11 -7 13 -4 -8 -6
right_child=1 2 9 -5 5 6 14 -9 -10 -11 -12 -13 -14 -15 -16 -17
leaf_value=-0.097671322651168402 -0.091362649287250727 0.24840200130160445 0.20619740314740342 0.37538142689641152 -0.071751427411324009 0.13463937042141488 -0.060086751195113523 0.038673206130435761 0.0072950712185999734 0 0.07582869414711485 0.97943497549595104 0.042005435965461101 0 0.030457866072314717 -0.0066223287025430067
leaf_weight=146.51810013130307 25.608616823330522 3.2370046582072964 18.364676501601942 39.690776858478785 67.928042291663587 1.2940441798418785 11.488802559673788 6.019089562818408 10.915586989372967 4.7111062053591004 1.7156179081648586 0.95792526006698597 10.229823341593145 2.1981725785881272 10.103957792744039 22.53154837526381
leaf_count=1537 134 70 707 774 1282 29 70 102 207 123 35 44 365 51 177 172
internal_value=0 0.158897 0.232863 0.300548 -0.0664343 -0.0272945 0.0535841 0.20775 0.0765592 0.124587 0.413892 0.582716 0.146217 0.188345 -0.00846471 -0.0577379
internal_weight=0 114.956 89.3471 53.8434 268.557 122.039 31.5794 9.98668 14.1526 35.5038 3.96759 2.25197 30.7927 20.5628 21.5928 90.4596
internal_count=5879 2431 2297 1051 3448 1911 457 210 277 1246 108 73 1123 758 247 1454
is_linear=0
shrinkage=0.1


Tree=23
num_leaves=17
num_cat=0
split_feature=27 21 17 2 2 2 2 8 2 2 21 17 6 2 2 2
split_gain=551.69 235.749 215.824 58.9102 26.4177 11.2935 11.12 6.94647 11.1279 7.96645 5.20423 10.2953 4.32152 3.5591 5.34775 2.31711
threshold=1.0000000180025095e-35 1.0000000180025095e-35 1.0000000180025095e-35 76.500000000000014 75.500000000000014 75.500000000000014 85.500000000000014 0.063125589894556675 58.500000000000007 35.500000000000007 1.0000000180025095e-35 1.0000000180025095e-35 61.20056944425081 55.500000000000007 76.500000000000014 26.500000000000004
decision_type=2 2 2 2 2 2 2 2 2 2 2 2 2 2 2 2
left_child=10 -2 5 4 7 -3 -7 -4 9 -9 -1 -12 13 15 -15 -13
right_child=1 2 3 -5 -6 6 -8 8 -10 -11 11 12 -14 14 -16 -17
leaf_value=-0.097671322725858892 -0.091362649653942599 -0.059652375849156836 0 0 0.38333547106867516 0.21611173874919076 -0.0055690742651680327 0 0.053254362853065007 0.36822784451881946 -0.09133500883062684 0 0.023017507641256867 0.15096077482872317 -0.023573841565719011 -0.065216987502355481
leaf_weight=146.51810203120112 25.608617026358843 17.713948291726414 1.2524612173438061 5.0938455257564774 57.52387548238039 3.533180456608533 2.120880707167089 0.9640222266316395 5.2599792294204235 4.9151241667568684 61.696879567578435 0.93278995901346107 9.7999207247048599 2.0512572806328526 12.11222951300442 31.431840189732611
leaf_count=1537 134 649 10 88 1049 65 44 44 248 100 867 29 192 52 134 637
internal_value=0 0.173275 0.244194 0.326998 0.350919 -0.013049 0.0976196 0.184313 0.209826 0.315924 -0.0823573 -0.0616534 -0.0255956 -0.0401289 0 -0.0584357
internal_weight=0 123.986 98.3773 75.0093 69.9155 23.368 5.65406 12.3916 11.1391 5.87915 264.543 118.025 56.328 46.5281 14.1635 32.3646
internal_count=5879 2431 2297 1539 1451 758 109 402 392 144 3448 1911 1044 852 186 666
is_linear=0
shrinkage=0.1


Tree=24
num_leaves=14
num_cat=0
split_feature=18 25 17 4 2 3 1 29 6 7 13 26 23
split_gain=289.112 154.165 151.88 151.38 162.772 141.568 118.662 58.1375 80.1519 45.0886 118.371 71.0087 34.7763
threshold=1.0000000180025095e-35 1.0000000180025095e-35 1.0000000180025095e-35 11.84139218147857 58.500000000000007 31298.966103737403 45.500000000000007 1.0000000180025095e-35 51.995950277972305 7.9231992120941266 49.573016218911008 1.0000000180025095e-35 12.500000000000002
decision_type=2 2 2 2 2 2 2 2 2 2 2 2 2
left_child=7 2 -2 12 5 -5 -6 9 -9 10 11 -1 -4
right_child=1 -3 3 4 6 -7 -8 8 -10 -11 -12 -13 -14
leaf_value=-0.060096474265553014 -0.088931935126255801 -0.09249270006573701 0.62666343429073401 0.49353534108610148 0.33425391915519032 0.037911450334715519 -0.093170973342328184 0.33943990577883754 -0.077320745192308457 -0.097934901029298194 -0.093691515193000133 0.36034884618349372 0.29406006954518521
leaf_weight=4.9397252481430778 16.852607101202011 25.606084771454334 10.400777503848078 19.050799217075113 8.5208477787673456 12.189804464578627 27.078189175575972 8.3311787545681018 9.0909001603722555 186.69114461261779 37.160585264675319 11.937018498778343 9.1366470307111722
leaf_count=167 51 117 18 22 19 33 125 29 109 4245 898 17 29
internal_value=0 0.122069 0.177226 0.231468 0.155438 0.322151 0.00352319 -0.0613416 0.110504 -0.0746085 0.00228347 0.225448 0.481349
internal_weight=0 128.836 103.23 86.3771 66.8396 31.2406 35.599 258.151 17.4221 240.728 54.0373 16.8767 19.5374
internal_count=5879 414 297 246 199 55 144 5465 138 5327 1082 184 47
is_linear=0
shrinkage=0.1


Tree=25
num_leaves=17
num_cat=0
split_feature=2 2 1 1 1 1 15 5 15 14 0 15 8 2 8 6
split_gain=340.068 192.064 94.4645 120.041 83.5206 55.1808 74.7918 62.2534 95.4879 54.7705 39.7083 49.1786 36.0049 22.4879 21.805 34.0304
threshold=107.50000000000001 112.50000000000001 29.500000000000004 13.500000000000002 56.500000000000007 64.500000000000014 3.5000000000000004 11.240199629442701 10.500000000000002 105836.02941176471 209.50000000000003 2.5000000000000004 0.99553266070867552 86.500000000000014 1.6054624114286475 57.960095347075516
decision_type=2 2 2 2 2 2 2 2 2 2 2 2 2 2 2 2
left_child=2 4 3 -1 -2 -6 -7 -8 -9 12 14 -12 -5 -11 -3 -16
right_child=1 10 -4 9 5 6 7 8 -10 13 11 -13 -14 -15 15 -17
leaf_value=-0.062409210580709154 0.38970701358229942 -0.092924674189592396 -0.087490649953588462 0.055861795634064626 -0.076380022196247996 0.42976552975880483 -0.078227734290720274 -0.016061864835433575 0.79876895817203986 -0.062870815563020793 0.35356120854750106 -0.051938705508479746 0.49704949875597548 0.42528689709121403 0.2251286709531175 -0.074551012616788245
leaf_weight=26.794783404096961 29.805305849760771 27.802345287054777 224.16246319003403 3.7100071934983161 7.4553346596658256 10.073656646534802 9.4518673289567214 2.4052910823374978 2.446798000484705 5.2742947228252879 6.5181080065667611 4.1566244661808014 8.9224587343633157 1.1280622910708187 6.7106993012130243 7.3948285952210426
leaf_count=342 67 149 4643 42 21 52 98 41 15 158 15 30 70 6 59 71
internal_value=0 0.145478 -0.0603509 0.068036 0.265287 0.142515 0.217655 0.0543058 0.35366 0.262157 0.00123632 0.176947 0.383294 0 -0.0387527 0.0538566
internal_weight=0 114.221 269.992 45.8296 61.6383 31.8329 24.3776 14.304 4.85209 19.0348 52.5826 10.6747 12.6325 6.40236 41.9079 14.1055
internal_count=5879 618 5261 618 294 227 206 154 56 276 324 45 112 164 279 130
is_linear=0
shrinkage=0.1


Tree=26
num_leaves=17
num_cat=0
split_feature=17 15 18 27 8 1 19 2 8 15 13 7 2 6 0 2
split_gain=356.946 112.544 95.3655 73.9762 63.2939 70.6221 80.3575 101.134 72.7425 87.8453 62.7947 61.4897 56.4525 43.8088 42.944 39.2976
threshold=1.0000000180025095e-35 1.5000000000000002 1.0000000180025095e-35 1.0000000180025095e-35 4.7789487399860215 57.500000000000007 1.0000000180025095e-35 35.500000000000007 1.2924421011163374 6.5000000000000009 50.509109245387855 6.0249417292581056 86.500000000000014 54.612537694249056 226.50000000000003 45.500000000000007
decision_type=2 2 2 2 2 2 2 2 2 2 2 2 2 2 2 2
left_child=1 2 10 4 5 6 7 11 9 13 14 -3 -12 -9 -1 -11
right_child=-2 3 -4 -5 -6 -7 -8 8 -10 15 12 -13 -14 -15 -16 -17
leaf_value=-0.084902556750307362 -0.0929570665164276 0.72531657974347752 0.44096098413618895 -0.092202542800687223 -0.086823878614249131 -0.08641788538579373 -0.082037287391813193 -0.06888502615721491 0.11345418221502911 0.61297068587217995 0.16452056976774238 -0.086042583948826912 0.84935155273886809 0.33960344383291829 0.26288162107955054 0.30771199261908672
leaf_weight=12.977834749966865 196.48001187853515 0.97590959072112937 16.109849724918604 26.198591527529061 16.068954065442085 13.155234019272028 11.476764507591723 6.1038431683555228 26.926191178150475 10.893887931481006 6.705853018909691 14.901354258880017 1.9037394151091573 4.0243827998638153 4.8604475464671841 14.001646587625144
leaf_count=218 3428 9 19 687 242 147 374 47 142 22 129 305 11 14 29 56
internal_value=0 0.0999735 0.244362 0.0561347 0.0906078 0.120385 0.153086 0.190326 0.248375 0.346397 0.117055 -0.0235875 0.339156 0.0736978 0 0.449314
internal_weight=0 187.284 42.5577 144.727 118.528 102.459 89.304 77.8272 61.95 35.0238 26.4479 15.8773 8.60959 10.1282 17.8383 24.8955
internal_count=5879 2451 406 2045 1358 1116 969 595 281 139 387 314 140 61 247 78
is_linear=0
shrinkage=0.1


Tree=27
num_leaves=17
num_cat=0
split_feature=2 2 17 14 1 12 7 10 2 1 4 15 23 19 16 18
split_gain=281.104 213.222 117.377 35.6969 25.3569 20.3985 15.7028 12.2523 9.59247 17.7022 7.45046 6.46356 8.6356 7.08592 8.5594 4.91473
threshold=107.50000000000001 110.50000000000001 1.0000000180025095e-35 288250.00000000006 61.500000000000007 18150.000000000004 6.4070572716906105 5.7595764856834561 123.50000000000001 66.500000000000014 47.68378843960236 4.5000000000000009 10.500000000000002 1.0000000180025095e-35 21.500000000000004 1.0000000180025095e-35
decision_type=2 2 2 2 2 2 2 2 2 2 2 2 2 2 2 2
left_child=4 2 -2 5 -1 -4 11 -3 -9 -10 15 -6 -13 14 -14 -8
right_child=1 7 3 -5 6 -7 10 8 9 -11 -12 12 13 -15 -16 -17
leaf_value=-0.081133043120320103 0.0068244037144063983 -0.047888593009322411 0.11616300302914649 0.027093966475503391 0 0.39485286682796639 -0.051394416682864874 -0.016883953525691022 0 0.28143230376897438 0.15711707792075882 0 0.2588091148403992 0 0 0
leaf_weight=149.41265566647053 15.666710656136273 38.016123097389936 5.1129049360752097 4.7472289875149718 5.3268763832747963 37.358818262815475 73.516929920762777 3.6238016225397569 2.6282843546941876 4.0859019663184881 1.6356240287423123 3.0402115993201724 5.7953338343650085 0.98169993609189976 1.3431376870721576 28.813413593918085
leaf_count=2624 54 240 18 11 114 206 2107 34 17 38 39 85 146 30 19 97
internal_value=0 0.135659 0.257294 0.336166 -0.0532275 0.366008 -0.016954 -0.0183978 0.0707224 0.147764 -0.032662 0.069979 0.114131 0.168931 0.205885 -0.0376479
internal_weight=0 111.24 62.8857 47.219 269.866 42.4717 120.453 48.3541 10.338 6.71419 103.966 16.4873 11.1604 8.12017 7.13847 102.33
internal_count=5879 618 289 235 5261 224 2637 329 89 55 2243 394 280 195 165 2204
is_linear=0
shrinkage=0.1


Tree=28
num_leaves=11
num_cat=0
split_feature=22 2 2 6 2 23 16 6 1 1
split_gain=979.095 72.572 36.2743 32.4329 50.8057 36.0151 25.827 24.5877 63.0896 22.9854
threshold=1.0000000180025095e-35 18.000000000000004 13.500000000000002 44.700653465636357 21.500000000000004 1.5000000000000002 18.500000000000004 76.139666142685968 41.500000000000007 44.500000000000007
decision_type=2 2 2 2 2 2 2 2 2 2
left_child=3 2 -2 4 -1 -6 9 -5 -9 -3
right_child=1 6 -4 7 5 -7 -8 8 -10 -11
leaf_value=0.50580342316426885 0.35129294081973961 0.17691288524502091 -0.073061020965646761 -0.098308294819014291 0.2727168195455732 -0.087340002644350712 0.15194403605257162 0.60492801385132799 -0.063020882115922883 0.39136552909591732
leaf_weight=2.0465152692049768 2.672931104898451 9.5713783055543882 7.095524288713932 278.69943930953741 3.3188503384590176 15.207138552330433 10.29273599386215 1.7739422675222147 5.3944574203342199 54.070838414132595
leaf_count=8 2 22 83 5287 7 178 43 29 130 90
internal_value=0 0.301527 0.0226005 -0.0843671 0.0297508 -0.0120524 0.335677 -0.0932785 0.0744016 0.362253
internal_weight=0 83.7034 9.76846 306.44 20.5725 18.526 73.935 285.868 7.1684 63.6422
internal_count=5879 240 85 5639 193 185 155 5446 159 112
is_linear=0
shrinkage=0.1


Tree=29
num_leaves=16
num_cat=0
split_feature=18 1 4 7 3 2 23 2 6 0 2 2 0 10 16
split_gain=669.637 109.546 81.9961 75.5409 58.7206 77.9122 49.1583 39.2575 31.3127 27.3925 13.152 82.3283 16.7537 9.65008 4.82684
threshold=1.0000000180025095e-35 66.500000000000014 13.672973158744851 9.066820057744442 26163.839414694903 73.500000000000014 8.5000000000000018 107.50000000000001 45.776543533071212 122.50000000000001 86.500000000000014 113.50000000000001 38.500000000000007 1.8822887863705351 20.500000000000004
decision_type=2 2 2 2 2 2 2 2 2 2 2 2 2 2 2
left_child=-1 3 8 -2 5 -4 -6 -7 -3 -9 14 12 -12 -5 -8
right_child=1 2 4 13 6 7 10 9 -10 -11 11 -13 -14 -15 -16
leaf_value=-0.098199861137989522 0.29718083727516137 0.22406215384271699 -0.03486134851813661 0.014701480273967386 0.089573889246666094 0.4592078221996877 0.56651274665526685 0.33347529246150676 -0.080127055561926147 0.011970984780116371 0.22805139545353736 0.45662471662318255 -0.060737791816123092 -0.087674340568424172 0.35143530708315684
leaf_weight=245.7974427593872 8.5417459979653341 4.9411899447441092 11.685746833682058 14.026799000799658 8.2976788505911809 8.1016448326408881 10.38615081086755 5.0632723830640307 10.214543819427488 8.5900356136262399 2.9398787319660213 13.503030925989149 4.9563422352075577 17.252836972475052 9.9145515114068967
leaf_count=5465 20 13 29 35 23 15 24 26 63 27 11 24 33 56 15
internal_value=0 0.17679 0.233672 0.0309388 0.272656 0.158611 0.344938 0.27172 0.00586372 0.145834 0.390961 0.305395 0.021479 -0.0353781 0.471314
internal_weight=0 138.415 98.5941 39.8214 83.4383 33.4407 49.9976 21.755 15.1557 13.6533 41.7 21.3993 7.89622 31.2796 20.3007
internal_count=5879 414 303 111 227 97 130 68 76 53 107 68 44 91 39
is_linear=0
shrinkage=0.1


Tree=30
num_leaves=17
num_cat=0
split_feature=21 18 2 2 10 6 2 13 5 15 1 4 2 1 23 12
split_gain=250.675 161.442 37.0095 22.8429 14.585 11.8421 14.0024 13.058 11.8862 6.9713 6.00213 5.04348 17.7448 4.11111 4.64489 5.10558
threshold=1.0000000180025095e-35 1.0000000180025095e-35 18.000000000000004 24.500000000000004 0.70396693612461669 49.317943962083852 98.500000000000014 11.556158463839152 8.0267231133144765 6.5000000000000009 1.5000000000000002 16.598065829242646 109.50000000000001 56.500000000000007 18.500000000000004 59500.000000000007
decision_type=2 2 2 2 2 2 2 2 2 2 2 2 2 2 2 2
left_child=1 2 -1 -3 -4 -6 7 -7 9 -9 -10 -8 -13 -5 15 -15
right_child=-2 3 4 13 5 6 11 8 10 -11 -12 12 -14 14 -16 -17
leaf_value=0.24637854818945815 -0.097050710543798643 0.15184277164281204 0.26768421517946872 -0.077002958945494249 0 0 -0.037874162954577836 0.15844441836254827 0 0 0.17940052362656936 -0.0092637398468323577 0.31320049901680841 0.042858045949203942 -0.053461478872878665 -0.031690001397036122
leaf_weight=30.390207219868898 150.70869025308639 6.3268461227416983 6.9108864031732073 26.28248680755496 9.4100506007671338 7.8691639360040417 7.674039049074052 4.1782019492238751 1.3843219354748715 11.122798781841992 41.913800412788987 3.2069592215120792 2.2080719769001007 16.353109627962112 27.024924818426371 20.929089061915874
leaf_count=166 4208 27 99 81 102 80 43 61 2 77 581 17 29 84 116 106
internal_value=0 0.0698462 0.144603 -0.0254891 0.110259 0.0957846 0.10839 0.127155 0.143416 0.0479494 0.172538 0 0.0853287 -0.0400797 -0.0218821 0
internal_weight=0 223.185 126.269 96.9165 95.8783 88.9674 79.5574 66.4683 58.5991 15.301 43.2981 13.0891 5.41503 90.5896 64.3071 37.2822
internal_count=5879 1671 1257 414 1091 992 890 801 721 138 583 89 46 387 306 190
is_linear=0
shrinkage=0.1


Tree=31
num_leaves=16
num_cat=0
split_feature=21 2 2 2 16 2 7 16 1 6 29 23 23 4 7
split_gain=237.39 160.28 235.681 128.592 107.306 65.2522 59.3768 33.0693 32.6942 31.1347 27.9158 22.4506 29.9667 23.0987 16.5289
threshold=1.0000000180025095e-35 42.500000000000007 56.500000000000007 118.50000000000001 5.5000000000000009 54.500000000000007 15.453764320283351 9.5000000000000018 73.500000000000014 52.952934406955606 1.0000000180025095e-35 17.500000000000004 13.500000000000002 37.017741612752609 14.69188866765864
decision_type=2 2 2 2 2 2 2 2 2 2 2 2 2 2 2
left_child=-1 6 5 8 -5 9 -2 -8 10 -3 -4 12 13 -11 -12
right_child=1 2 3 4 -6 -7 7 -9 -10 11 14 -13 -14 -15 -16
leaf_value=-0.097068508512076143 -0.096156845460644985 -0.059976040955651157 -0.096067190869807667 0.37473242993449069 -0.073920667745342714 0.35677119623509479 0.27701418703234437 -0.047880649919943952 0.21114688557694972 -0.057037096184658964 -0.013651603907159729 -0.022699530678420773 0.36107206368844075 0.26465883333679086 0.27087883051633005
leaf_weight=153.07104713283479 61.619070139713585 5.0959012527018812 56.263742581009865 15.389802071265878 7.1418484570458522 38.187522744759917 7.4379580579698068 3.8507934091612697 4.0364405922591677 4.4359610350802603 2.1916542975231996 2.5260804183781138 9.3909932821989042 3.4917001705616713 3.4400383625179529
leaf_count=1671 1220 87 2284 22 103 25 45 96 35 111 59 64 47 6 4
internal_value=0 0.0644221 0.123434 0.0156948 0.223655 0.271247 -0.0555366 0.148487 -0.0523434 0.132288 -0.0727547 0.191727 0.23454 0.059449 0.124671
internal_weight=0 224.5 151.592 88.4635 22.5317 63.1282 72.9078 11.2888 65.9319 24.9406 61.8954 19.8447 17.3187 7.92766 5.63169
internal_count=5879 4208 2847 2507 125 340 1361 141 2382 315 2347 228 164 117 63
is_linear=0
shrinkage=0.1


Tree=32
num_leaves=17
num_cat=0
split_feature=21 17 2 15 13 7 6 3 23 0 7 2 2 2 16 2
split_gain=244.301 104.019 40.7404 62.9671 42.7274 38.1679 31.3151 23.498 21.118 21.3555 20.8698 20.3221 24.4666 27.1723 19.8937 19.7217
threshold=1.0000000180025095e-35 1.0000000180025095e-35 70.500000000000014 4.5000000000000009 38.026004720217962 12.467483934006767 46.086012612538504 31298.966103737403 12.500000000000002 102.50000000000001 6.9704526254155308 116.50000000000001 65.500000000000014 38.500000000000007 20.500000000000004 80.500000000000014
decision_type=2 2 2 2 2 2 2 2 2 2 2 2 2 2 2 2
left_child=-1 2 3 4 -2 6 -5 -7 -3 11 15 12 13 -10 -8 -4
right_child=1 8 10 5 -6 7 14 -9 9 -11 -12 -13 -14 -15 -16 -17
leaf_value=-0.097068508512076143 0.14484783934021475 -0.060618007353119702 -0.0084184392562445583 0 -0.062758748888171886 0.20853256583869648 0.32602003467949908 0 -0.035642777169419569 -0.021872568813050077 -0.036579124412203873 0.4970572204088175 -0.02917769483882425 0.25785203201097984 0 0.28093193200685196
leaf_weight=153.07104713283479 21.432601084001362 45.319785007275641 2.207905791699889 4.2195484098047009 16.879260402172804 9.0292663574218768 34.953250771388412 10.83146186172962 3.1416844204068246 27.836319743655622 19.590537840500474 1.4084916152060021 10.224088670685886 9.2049166187643987 3.0815751906484357 4.8327027913182974
leaf_count=1671 184 1364 126 8 205 41 220 114 126 673 658 18 340 62 26 43
internal_value=0 0.0668108 0.126485 0.155817 0.0481663 0.218998 0.275326 0.0890986 -0.00918859 0.0319375 0.00836847 0.102735 0.069276 0.166987 0.304051 0.161814
internal_weight=0 224.193 127.058 100.427 38.3119 62.1151 42.2544 19.8607 97.1353 51.8155 26.6311 23.9792 22.5707 12.3466 38.0348 7.04061
internal_count=5879 4208 1625 798 389 409 254 155 2583 1219 827 546 528 188 246 169
is_linear=0
shrinkage=0.1


Tree=33
num_leaves=17
num_cat=0
split_feature=2 2 21 17 2 2 21 17 2 0 2 0 0 2 4 2
split_gain=492.479 174.39 18.6425 24.1069 8.70058 18.6746 8.41002 11.9087 4.256 3.00346 4.42019 2.36789 3.0026 2.64782 3.20668 2.26591
threshold=29.500000000000004 26.500000000000004 1.0000000180025095e-35 1.0000000180025095e-35 84.500000000000014 107.50000000000001 1.0000000180025095e-35 1.0000000180025095e-35 71.500000000000014 161.50000000000003 103.50000000000001 184.50000000000003 116.50000000000001 54.500000000000007 34.415728681783754 38.500000000000007
decision_type=2 2 2 2 2 2 2 2 2 2 2 2 2 2 2 2
left_child=1 6 -2 -4 8 9 -1 -8 11 10 -6 12 -5 14 15 -13
right_child=2 -3 3 4 5 -7 7 -9 -10 -11 -12 13 -14 -15 -16 -17
leaf_value=-0.0856497898521838 -0.096928799228109846 0.26703648040121031 -0.084812329783059554 0.014737557251313236 0 -0.0056851316319090133 -0.036652403805854626 0.20172065725886923 -0.052745854046283874 0.32723748903698635 0.21269710987829149 0 -0.053732552878035036 0 0 0.24891994435748335
leaf_weight=15.635874308645727 137.50989078171551 74.062140215188265 67.740556508302689 9.2425411725416833 3.9281456656754044 14.029234868474303 4.7385276798158875 2.9189926739782095 26.511622183956206 2.1759609375149012 1.8418380282819269 0.73067650012671892 10.693186890333889 1.8935710508376358 1.8323137555271385 1.6466496605426071
leaf_count=211 1453 641 1531 168 41 164 51 48 1341 37 19 19 77 11 15 52
internal_value=0 0.191601 -0.0695081 -0.0415998 0 0.050394 -0.0396708 0.0281213 -0.0243657 0.174552 0.0823434 0 -0.0119663 0.0584124 0.106003 0.182718
internal_weight=0 97.3555 279.776 142.266 74.5257 21.9752 23.2934 7.65752 52.5506 7.94594 5.76998 26.0389 19.9357 6.10321 4.20964 2.37733
internal_count=5879 951 4928 3475 1944 261 310 99 1683 97 60 342 245 97 86 71
is_linear=0
shrinkage=0.1


Tree=34
num_leaves=17
num_cat=0
split_feature=2 2 21 17 21 2 16 2 2 8 1 14 1 17 21 14
split_gain=262.112 250.804 50.4538 52.8038 37.7054 29.8382 10.7338 13.0599 7.57892 9.99376 6.38055 6.27044 5.552 4.53558 7.54977 4.45875
threshold=31.500000000000004 29.500000000000004 1.0000000180025095e-35 1.0000000180025095e-35 1.0000000180025095e-35 42.500000000000007 8.5000000000000018 51.500000000000007 56.500000000000007 1.7406384474250178 64.500000000000014 20500.000000000004 67.500000000000014 1.0000000180025095e-35 1.0000000180025095e-35 144181.25000000003
decision_type=2 2 2 2 2 2 2 2 2 2 2 2 2 2 2 2
left_child=1 13 -2 5 -3 -4 11 15 -9 -10 -6 -7 -12 14 -1 -8
right_child=2 4 3 -5 10 6 7 8 9 -11 12 -13 -14 -15 -16 -17
leaf_value=-0.075698283002611222 -0.096899933551482964 -0.034640591206594594 -0.047359300449892505 -0.076806925795090727 0.27965202226975089 0 0.24199125654451345 -0.050287853872065393 0.12256975124515788 0 0 0.22053821168648377 0.18307001645038942 -0.087895493406888889 0.061387817192738496 0.025043328685874045
leaf_weight=8.7683845832943899 134.72644608654082 3.1055480837821952 20.48753871768713 62.675721663050354 59.355637831613421 0.73968779016286035 5.3011948671191913 7.7186717242002478 11.592333946377041 12.903854214586316 1.4746555797755712 8.9385593077167851 1.882864788174629 24.835791590623558 6.7438013758510342 4.0475507397204638
leaf_count=121 1443 10 84 1884 446 4 50 32 285 409 28 201 19 736 94 33
internal_value=0 0.132041 -0.0534959 -0.00850146 0.252981 0.048397 0.0905815 0.0612124 0.0236039 0.0550434 0.27041 0.196064 0.0475254 -0.0602934 -0.00322076 0.169436
internal_weight=0 106.167 269.132 134.405 65.8187 71.7294 51.2419 41.5636 32.2149 24.4962 62.7132 9.67825 3.35752 40.348 15.5122 9.34875
internal_count=5879 1454 4425 2982 503 1098 1014 809 726 694 493 205 47 951 215 83
is_linear=0
shrinkage=0.1


Tree=35
num_leaves=3
num_cat=0
split_feature=19 3
split_gain=971.236 0.157617
threshold=1.0000000180025095e-35 85364.213891734325
decision_type=2 2
left_child=-1 -2
right_child=1 -3
leaf_value=-0.097683464786127439 0.27400075151654352 0.12772060740989652
leaf_weight=281.0948009332642 92.534209869801998 5.3530450463294974
leaf_count=4995 842 42
internal_value=0 0.268042
internal_weight=0 97.8873
internal_count=5879 884
is_linear=0
shrinkage=0.1


Tree=36
num_leaves=17
num_cat=0
split_feature=18 11 0 9 23 20 2 16 0 1 1 1 23 6 4 23
split_gain=295.737 98.7703 98.097 97.7152 73.4895 43.0073 35.9768 33.7009 28.6825 27.0699 82.1347 20.6184 18.0677 11.0241 17.0854 4.76819
threshold=1.0000000180025095e-35 14.354646211729081 60.500000000000007 94.034016725206612 11.500000000000002 1.0000000180025095e-35 113.50000000000001 15.500000000000002 192.50000000000003 25.500000000000004 24.500000000000004 62.500000000000007 18.500000000000004 51.340958025001058 37.017741612752609 5.5000000000000009
decision_type=2 2 2 2 2 2 2 2 2 2 2 2 2 2 2 2
left_child=5 2 -2 8 -5 9 -3 -7 11 10 -1 -4 15 -9 -15 -13
right_child=1 6 3 4 -6 7 -8 13 -10 -11 -12 12 -14 14 -16 -17
leaf_value=-0.089887407818706411 -0.087564389644505386 -0.092527306303433407 0.29238227357684055 0.26326125770736913 -0.089524374211181923 -0.073015178184010529 0.13858630591834945 0.31444557521542971 0.37718638253401315 -0.097242439148704563 0.2848360601720642 0.099624779477163014 0 -0.042937670706831105 0.27355766949744081 0.24934875510969717
leaf_weight=23.437471800483767 13.136280257254837 26.27905360981822 22.051001951098442 8.7370883449912089 17.496460761874914 7.432367496192458 8.6217179559171182 4.9147395193576795 18.376767598092556 182.56241340842098 7.7895503044128409 9.8408367745578342 8.9560938030481321 3.4663192965090275 2.4210018813610077 12.294015806168316
leaf_count=538 48 151 25 18 52 76 23 11 25 4791 3 13 26 43 3 33
internal_value=0 0.112245 0.158725 0.193866 0.0203546 -0.0694955 -0.0297092 0.0721924 0.254718 -0.0825148 0 0.208608 0.142765 0.190599 0.0532746 0.19181
internal_weight=0 145.789 110.889 97.7523 26.2335 232.024 34.9008 18.2344 71.5187 213.789 31.227 53.1419 31.0909 10.8021 5.88732 22.1349
internal_count=5879 414 240 192 70 5465 174 133 122 5332 541 97 72 57 46 46
is_linear=0
shrinkage=0.1


Tree=37
num_leaves=17
num_cat=0
split_feature=27 21 21 2 2 2 13 5 17 2 15 2 8 2 2 2
split_gain=303.674 140.042 30.3121 25.4643 23.1547 38.9481 11.9329 12.3484 11.1683 10.586 10.2583 7.08665 7.2518 4.40464 3.4082 17.5119
threshold=1.0000000180025095e-35 1.0000000180025095e-35 1.0000000180025095e-35 40.500000000000007 75.500000000000014 50.500000000000007 49.573016218911008 9.6816836908492796 1.0000000180025095e-35 35.500000000000007 11.500000000000002 76.500000000000014 2.4928452675348489 29.500000000000004 65.500000000000014 99.500000000000014
decision_type=2 2 2 2 2 2 2 2 2 2 2 2 2 2 2 2
left_child=2 -2 -1 -4 5 9 14 8 -8 13 -7 12 -6 -3 -5 -16
right_child=1 4 3 6 11 10 7 -9 -10 -11 -12 -13 -14 -15 15 -17
leaf_value=-0.096820334916879497 -0.089936520326543978 0 -0.068499164128499546 -0.035536040121020206 0.16294727139750809 0.27339376448872654 0.43745184734236225 0.013175939435714608 0.046629743826199631 -0.0073967223103476951 0.08630833391431221 0 0.022976085452024814 0.2527749752877419 0.18783366868447315 -0.024669231711910881
leaf_weight=130.22704680263996 23.162055226042867 1.4599233306944359 61.827532077208161 19.747874727472663 21.27757124230266 46.819352567195892 1.9576150570064808 10.9309652633965 3.5612526796758175 8.2357644718140346 6.6312279701232901 8.5935785137116891 8.8564611338078958 2.5849069058895111 5.0003033895045546 13.233576047234235
leaf_count=1537 134 22 1282 117 747 756 57 134 81 153 72 132 367 48 103 137
internal_value=0 0.126869 -0.0631537 -0.0237235 0.176855 0.216203 0.0234653 0.0952019 0.221463 0.0357642 0.253922 0.104911 0.12844 0.173042 -0.00234318 0.0226479
internal_weight=0 127.621 246.486 116.259 104.459 65.7312 54.4316 16.4498 5.51887 12.2806 53.4506 38.7276 30.134 4.04483 37.9818 18.2339
internal_count=5879 2431 3448 1911 2297 1051 629 272 138 223 828 1246 1114 70 357 240
is_linear=0
shrinkage=0.1


Tree=38
num_leaves=17
num_cat=0
split_feature=27 21 17 2 2 2 2 21 17 8 2 2 1 1 8 6
split_gain=408.032 148.465 115.868 30.3497 8.38492 7.48831 6.5924 5.72553 10.4122 4.49124 3.77448 5.02037 3.02135 2.95782 2.10935 1.38709
threshold=1.0000000180025095e-35 1.0000000180025095e-35 1.0000000180025095e-35 76.500000000000014 75.500000000000014 85.500000000000014 75.500000000000014 1.0000000180025095e-35 1.0000000180025095e-35 0.063125589894556675 26.500000000000004 42.500000000000007 73.500000000000014 44.500000000000007 1.4648811878676853 53.805537376911154
decision_type=2 2 2 2 2 2 2 2 2 2 2 2 2 2 2 2
left_child=7 -2 4 6 -3 14 9 -1 -9 -4 -10 -12 13 -11 -6 -13
right_child=1 2 3 -5 5 -7 -8 8 10 12 11 15 -14 -15 -16 -17
leaf_value=-0.096820335289393655 -0.089936519650690813 -0.056383246866572527 0 0 0 -0.0041617687181911894 0.26234104198559999 -0.089785910808826475 0.12912836238565861 0 -0.062044190525066913 -0.019761989011659847 0 0.19180657709050752 0.21415676588980231 0.024945087824677296
leaf_weight=130.22704852744937 23.162055687978864 16.528235348872844 1.2353962417691935 5.1854582298547021 1.2802963331341732 2.0913713378831744 73.767855241894722 55.387331533245742 1.1668727435171593 1.3131040465086652 24.200235203839839 15.630296700634064 0.67442371323704797 10.86700333468616 2.8438841179013252 12.481576586142181
leaf_count=1537 134 649 10 88 22 44 1049 867 37 49 664 139 33 310 43 204
internal_value=0 0.135464 0.182279 0.231875 -0.0118324 0.0744905 0.245752 -0.0800096 -0.0580652 0.144718 -0.0214764 -0.0286552 0.162635 0.174342 0.162822 0
internal_weight=0 138.949 115.787 93.0432 22.7438 6.21555 87.8578 239.093 108.866 14.0899 53.479 52.3121 12.8545 12.1801 4.12418 28.1119
internal_count=5879 2431 2297 1539 758 109 1451 3448 1911 402 1044 1007 392 359 65 343
is_linear=0
shrinkage=0.1


Tree=39
num_leaves=14
num_cat=0
split_feature=18 25 7 9 2 29 6 7 13 2 13 2 2
split_gain=217.887 104.994 99.1298 109.661 116.197 47.3975 47.6891 41.1736 83.6812 41.771 34.6846 21.6268 21.8218
threshold=1.0000000180025095e-35 1.0000000180025095e-35 10.356226066015651 88.202217878716965 69.500000000000014 1.0000000180025095e-35 51.995950277972305 7.9231992120941266 49.573016218911008 35.500000000000007 41.904781546694359 56.500000000000007 115.50000000000001
decision_type=2 2 2 2 2 2 2 2 2 2 2 2 2
left_child=5 2 -2 10 -5 7 -7 8 9 -1 -4 -12 -13
right_child=1 -3 3 4 -6 6 -8 -9 -10 -11 11 12 -14
leaf_value=0.2524592867552552 -0.088093053967521345 -0.091021663782328385 0.35349923356415586 0.22238499557000294 -0.092240776911015954 0.23088832954340033 -0.074832380949133304 -0.097134852969581562 -0.09241882725705719 -0.059136591198616778 0.25379392028125897 -0.068022988386623129 0.19756090164030921
leaf_weight=14.965239318087699 15.690905284136532 23.198491428047419 28.878708459436893 22.214120931923389 23.874926261603832 10.80471056699753 8.3402039213106018 166.23031253367662 33.272105113603175 4.7261649305000892 15.022105883806946 5.735405605286358 5.4562239721417427
leaf_count=49 92 117 33 30 81 29 109 4245 898 135 18 32 11
internal_value=0 0.098187 0.137453 0.174405 0.0550682 -0.0589595 0.0872692 -0.072643 0.000454063 0.167526 0.270613 0.171678 0.0436035
internal_weight=0 140.071 116.872 101.181 46.089 238.339 19.1449 219.194 52.9635 19.6914 55.0924 26.2137 11.1916
internal_count=5879 414 297 205 111 5465 138 5327 1082 184 94 61 43
is_linear=0
shrinkage=0.1


Tree=40
num_leaves=17
num_cat=0
split_feature=2 2 1 1 10 1 1 9 0 3 0 0 6 8 16 11
split_gain=251.608 112.943 82.2417 78.2514 63.6344 32.4173 47.642 60.8552 27.0935 27.0361 24.8747 23.1939 21.8765 18.8604 27.9661 57.5725
threshold=107.50000000000001 112.50000000000001 29.500000000000004 13.500000000000002 1.4292633360277252 56.500000000000007 64.500000000000014 68.085078598821227 209.50000000000003 50574.476428395428 83.500000000000014 59.500000000000007 52.087494862935053 1.6054624114286475 11.500000000000002 45.530152981657857
decision_type=2 2 2 2 2 2 2 2 2 2 2 2 2 2 2 2
left_child=2 4 3 -1 -2 -6 -7 11 13 10 -5 -8 -10 -3 15 -15
right_child=1 8 -4 9 5 6 7 -9 12 -11 -12 -13 -14 14 -16 -17
leaf_value=-0.058758100751468569 -0.07485871615755478 -0.091547934022554581 -0.085615611665464719 0.0053331942506749238 0.29660981999150249 -0.073306255354734562 0.21195362011234642 0.35293089809285555 0.27744729233599857 -0.033170314421864314 0.30536604086858882 -0.073136369312863145 0 0.46820814193220645 -0.074714524088372911 -0.046249089910239446
leaf_weight=24.708256296813488 6.8049572287127367 25.304468210786581 202.08487290795892 5.1153039550408783 35.57822828181088 6.8483722135424641 4.4088791180402058 13.330672269687055 5.6763846222311241 2.9856675742194048 14.751045839861034 7.0914421929046512 6.760875896550715 3.8107572477310878 7.4201139137148857 3.6703272089362144
leaf_count=342 50 149 4643 102 61 19 35 57 17 84 90 72 28 19 82 29
internal_value=0 0.115648 -0.0573643 0.0584753 0.195271 0.225573 0.139485 0.20622 0 0.193975 0.238169 0.0187849 0.13245 -0.0362209 0.044324 0.1891
internal_weight=0 126.705 249.645 47.5603 74.0626 67.2576 31.6794 24.831 52.6429 22.852 19.8663 11.5003 12.4373 40.2057 14.9012 7.48108
internal_count=5879 618 5261 618 294 244 183 164 324 276 192 107 45 279 130 48
is_linear=0
shrinkage=0.1


Tree=41
num_leaves=17
num_cat=0
split_feature=17 1 1 2 2 1 19 2 13 23 12 8 6 2 4 6
split_gain=282.386 62.6975 138.397 93.9438 64.1984 62.8518 59.4556 54.8375 50.3328 33.2127 46.6794 26.1872 24.8245 24.0628 26.014 18.8119
threshold=1.0000000180025095e-35 2.5000000000000004 56.500000000000007 86.500000000000014 52.500000000000007 57.500000000000007 1.0000000180025095e-35 35.500000000000007 50.830805860297907 17.500000000000004 26050.000000000004 1.8104525458079552 76.139666142685968 40.500000000000007 18.714432575387004 44.700653465636357
decision_type=2 2 2 2 2 2 2 2 2 2 2 2 2 2 2 2
left_child=1 8 15 4 5 6 7 12 -1 10 -5 13 -4 -9 -15 -3
right_child=-2 2 3 9 -6 -7 -8 11 -10 -11 -12 -13 -14 14 -16 -17
leaf_value=0.29208923585322982 -0.091602625652611042 0.11537900207007618 0 0.31309662439648034 -0.089267795747265968 -0.084459700909778057 -0.076034842637680289 0.3567597061399127 -0.054668303899852166 0.3838915373659697 -0.062593389151685788 0.028822232043688129 0.43321967233369185 0.27921979030478883 -0.045869216076126193 -0.097763052896762292
leaf_weight=21.762521590106193 176.00057035498321 3.7064896784722796 17.964678520336751 6.5143336262553948 19.560843816027045 12.72828295920044 8.8171280995011312 22.951712816953663 4.041692496277391 15.749468900263308 5.2981312964111567 5.9455819353461257 1.4902615845203389 4.536984868347643 3.5517381355166435 46.97306888923049
leaf_count=146 3428 18 344 15 316 183 327 38 61 42 64 35 5 11 44 802
internal_value=0 0.0817451 0.058841 0.115964 0.067191 0.108997 0.149791 0.188609 0.230034 0.281333 0.127677 0.261269 0.0402043 0.299356 0.111773 -0.0782323
internal_weight=0 201.593 175.789 125.109 97.5472 77.9864 65.2581 56.441 25.8042 27.5619 11.8125 36.986 19.4549 31.0404 8.08872 50.6796
internal_count=5879 2451 2244 1424 1303 987 804 477 207 121 79 128 349 93 55 820
is_linear=0
shrinkage=0.1


Tree=42
num_leaves=17
num_cat=0
split_feature=2 2 17 1 2 14 8 16 10 6 0 7 7 8 12 5
split_gain=216.046 123.77 56.5843 21.8231 18.6293 13.9288 10.0381 15.4277 9.31901 8.46055 7.58486 27.9521 7.35774 6.42016 5.39832 5.15606
threshold=94.500000000000014 110.50000000000001 1.0000000180025095e-35 66.500000000000014 107.50000000000001 288250.00000000006 6.9833519609088111 3.5000000000000004 5.7595764856834561 52.952934406955606 186.50000000000003 10.465894933139731 12.967103295974201 1.3347709636326723 18150.000000000004 11.132201719486853
decision_type=2 2 2 2 2 2 2 2 2 2 2 2 2 2 2 2
left_child=3 2 9 -1 13 14 12 -8 -3 -2 11 -10 -5 -4 -6 -15
right_child=1 8 4 6 5 -7 7 -9 10 -11 -12 -13 -14 15 -16 -17
leaf_value=-0.079008244703446681 0.1807811205334876 -0.044617552368227079 -0.019043868625081645 -0.0036259847850625376 0.097055452066617837 0.027316916034840457 0.33043800402886475 0 0 -0.0071203075248269868 -0.036061963896999158 0.38965908576920849 -0.065376468647964731 0.35079790468794586 0.27519907961049805 0
leaf_weight=137.3763229008764 2.6177594484761384 35.977312702685595 3.7846979228779665 63.798634988255799 5.5321927592158309 4.7386756986379615 1.9309857860207538 7.4169161412864923 5.6650567855685932 14.532204965129493 3.069998010993003 2.541438871063292 33.61780552752316 0.9366501811891792 47.640905790030956 0.89897691551595926
leaf_count=2687 26 240 36 1443 18 11 35 259 33 64 20 36 724 26 206 15
internal_value=0 0.108139 0.183639 -0.0522471 0.227391 0.244799 -0.0159414 0.0777897 -0.0165423 0.00991048 0.0553124 0.113842 -0.0269867 0.0124687 0.260422 0.186289
internal_weight=0 127.936 80.6821 244.141 63.5321 57.9118 106.764 9.3479 47.2538 17.15 11.2765 8.2065 97.4164 5.62033 53.1731 1.83563
internal_count=5879 731 402 5148 312 235 2461 294 329 90 89 69 2167 77 224 41
is_linear=0
shrinkage=0.1


Tree=43
num_leaves=14
num_cat=0
split_feature=22 2 6 0 23 7 6 16 2 2 2 2 2
split_gain=668.235 33.471 29.821 31.4796 26.3301 23.7362 21.5678 28.7556 13.1633 27.6706 15.059 17.0776 13.6049
threshold=1.0000000180025095e-35 18.000000000000004 44.700653465636357 108.50000000000001 9.5000000000000018 14.69188866765864 76.139666142685968 4.5000000000000009 76.500000000000014 123.50000000000001 55.500000000000007 30.500000000000004 42.500000000000007
decision_type=2 2 2 2 2 2 2 2 2 2 2 2 2
left_child=2 5 3 4 -1 -2 -4 -8 10 -10 11 -3 -13
right_child=1 8 6 -5 -6 -7 7 -9 9 -11 -12 12 -14
leaf_value=0.27039382648084237 -0.070469735187948052 0.3221409349003217 -0.09754741346915563 -0.081072924115611289 -0.033093977043168514 0.25063213779818522 0.31348697625887034 -0.060302440296040628 0.0061536206593773932 0.25551459184695174 0.31164823958018589 0.012622367686670494 0.19691362223865097
leaf_weight=7.0548986345529574 6.4842647761106473 9.2474167868495005 248.00803533196449 10.933773138560353 3.0412496393546462 3.3153295367956161 2.9838171880692235 4.9804746564477682 10.400037854909899 10.987479157745836 39.279753014445305 9.428002096712591 12.990935377776621
leaf_count=24 80 5 5287 119 50 5 27 132 29 16 34 44 27
internal_value=0 0.216795 -0.0824425 0.0247702 0.159185 0.0177742 -0.0920314 0.0546501 0.235754 0.143601 0.260718 0.191234 0.128325
internal_weight=0 102.133 277.002 21.0299 10.0961 9.79959 255.972 7.96429 92.3336 21.3875 70.9461 31.6664 22.4189
internal_count=5879 240 5639 193 74 85 5446 159 155 45 110 76 71
is_linear=0
shrinkage=0.1


Tree=44
num_leaves=15
num_cat=0
split_feature=18 17 4 6 5 0 23 15 7 10 15 15 15 12
split_gain=509.23 60.9101 57.862 42.1075 40.2417 55.6126 31.0932 26.6166 17.9153 15.0651 10.4752 4.96259 10.3921 4.09971
threshold=1.0000000180025095e-35 1.0000000180025095e-35 13.672973158744851 52.35813614083991 10.882618857578201 163.50000000000003 12.500000000000002 2.5000000000000004 13.157967448286552 1.9500936479806201 2.5000000000000004 4.5000000000000009 7.5000000000000009 47750.000000000007
decision_type=2 2 2 2 2 2 2 2 2 2 2 2 2 2
left_child=-1 10 7 6 5 11 13 -3 -8 -7 -2 -5 -13 -4
right_child=1 2 3 4 -6 9 8 -9 -10 -11 -12 12 -14 -15
leaf_value=-0.097434098790092127 -0.082765189617010543 0.17632753388281242 0.025337010031129092 0.15026018181750289 0.44697895588354569 0.12694493331891674 0.064523076431487289 -0.083570470818671028 0.26907910092143544 -0.074711462606680754 0.053525435214851473 0.34146855635776785 0.19976992034135521 -0.072766011083796142
leaf_weight=218.95815155096352 11.322332993149759 5.7509062029421356 7.3775381520390493 12.957722768187521 9.3356431499123556 6.9235606640577299 12.853218529373409 12.508925814181564 10.647548511624334 7.2418902590870857 10.115890886634586 20.228071413934231 22.042524311691523 7.0590676069259644
leaf_count=5465 25 16 16 25 18 16 31 75 29 25 36 32 48 22
internal_value=0 0.13883 0.16382 0.189729 0.233303 0.201678 0.0940347 0 0.165704 0.00974592 -0.00913482 0.247288 0.272305 -0.00879238
internal_weight=0 156.365 134.927 116.667 78.7294 69.3938 37.9374 18.2598 23.5008 14.1655 21.4382 55.2283 42.2706 14.4366
internal_count=5879 414 353 262 164 146 98 91 60 41 61 105 80 38
is_linear=0
shrinkage=0.1


Tree=45
num_leaves=17
num_cat=0
split_feature=21 18 2 2 9 8 8 2 15 0 0 2 15 12 1 2
split_gain=210.636 113.482 19.3618 17.8714 7.90906 9.89217 10.7697 9.68326 7.01843 6.97135 6.77957 6.24928 3.91997 5.74279 3.89249 3.64021
threshold=1.0000000180025095e-35 1.0000000180025095e-35 18.000000000000004 24.500000000000004 96.935467488050008 0.42520935297858758 1.1677515114181678 54.500000000000007 6.5000000000000009 57.500000000000007 243.50000000000003 58.500000000000007 8.5000000000000018 104650.00000000001 56.500000000000007 96.500000000000014
decision_type=2 2 2 2 2 2 2 2 2 2 2 2 2 2 2 2
left_child=1 2 -1 -3 5 8 12 10 9 -4 -8 -9 13 -7 -5 -13
right_child=-2 3 4 14 -6 6 7 11 -10 -11 -12 15 -14 -15 -16 -17
leaf_value=0.18935844419226622 -0.096322028085349232 0.12582077798597668 0 -0.074392960695926338 -0.0045165872576297152 0.21091668408753916 0.1413483506282821 -0.051607782388961021 0.26713877360272897 0.15026273003112608 0 0.10269354659118289 -0.050256745961316324 0 -0.018962864389573009 0.0048479106378520693
leaf_weight=34.831776063889265 134.38367633987218 6.9237091764807692 3.5580047089606541 23.96937507763505 4.0153324138373128 1.7441715523600558 36.808163711801171 3.8813975695520666 7.6630855705589047 6.7715068627148867 1.9178007971495379 13.076679695397617 7.5370460189878941 3.9637246187776327 62.096075758337975 12.118847029283641
leaf_count=166 4208 27 26 81 27 34 498 8 121 91 17 82 49 52 306 86
internal_value=0 0.0611068 0.118919 -0.0224706 0.0931725 0.0991504 0.0795364 0.0956566 0.176397 0.0897364 0.131298 0.0413156 0 0.0594347 -0.0367218 0.0635607
internal_weight=0 230.877 137.888 92.9892 103.056 99.0404 81.0478 67.8029 17.9926 10.3295 38.726 29.0769 13.2449 5.7079 86.0655 25.1955
internal_count=5879 1671 1257 414 1091 1064 826 691 238 117 515 176 135 86 387 168
is_linear=0
shrinkage=0.1


Tree=46
num_leaves=16
num_cat=0
split_feature=21 2 2 2 16 7 2 1 3 29 6 23 23 8 16
split_gain=197.715 118.503 146.582 91.1358 65.2296 48.4133 36.5642 25.4749 23.2943 23.0864 21.2875 15.3789 14.859 12.7295 11.6248
threshold=1.0000000180025095e-35 42.500000000000007 56.500000000000007 118.50000000000001 5.5000000000000009 15.453764320283351 54.500000000000007 73.500000000000014 38531.834709913855 1.0000000180025095e-35 52.952934406955606 17.500000000000004 13.500000000000002 4.8202540296447509 20.500000000000004
decision_type=2 2 2 2 2 2 2 2 2 2 2 2 2 2 2
left_child=-1 5 6 7 -5 -2 10 9 -7 -4 -3 12 13 -12 -11
right_child=1 2 3 4 -6 8 -8 -9 -10 14 11 -13 -14 -15 -16
leaf_value=-0.09634796028237641 -0.0951258772229506 -0.057313108773691272 -0.09500108313780764 0.2732539878036972 -0.071031774765144065 0.21563264267002211 0.26870013218877914 0.16655248784930055 -0.047021234204067702 -0.014001469739834977 -0.049513607876736317 -0.02214146836059129 0.26013724323107068 0.17600380187309861 0.21079535698172244
leaf_weight=136.71530025918037 55.108470640145242 4.8087976025417474 50.463119437918067 18.664428114891056 6.6441479092463842 8.5797614976763708 44.582388458773494 4.4889265708625308 3.8194361189380279 2.1731848716735831 3.8289106618613058 2.5066413879394522 11.548455812036989 4.3774819858372211 3.9162972718477249
leaf_count=1671 1220 87 2284 22 103 40 25 35 101 56 96 64 47 21 7
internal_value=0 0.0560451 0.103861 0.0136315 0.174975 -0.0529089 0.20981 -0.0499905 0.118611 -0.0707119 0.105442 0.149574 0.181477 0.0464354 0.0977597
internal_weight=0 225.51 158.003 86.3501 25.3086 67.5077 71.6527 61.0415 12.3992 56.5526 27.0703 22.2615 19.7548 8.20639 6.08948
internal_count=5879 4208 2847 2507 125 1361 340 2382 141 2347 315 228 164 117 63
is_linear=0
shrinkage=0.1


Tree=47
num_leaves=17
num_cat=0
split_feature=21 17 4 1 8 15 25 1 8 1 23 2 6 23 0 6
split_gain=202.245 71.619 28.6946 34.0461 26.1112 25.4617 19.722 23.9073 19.6281 17.8119 30.8862 24.8237 18.1998 16.6803 15.23 14.0696
threshold=1.0000000180025095e-35 1.0000000180025095e-35 34.415728681783754 57.500000000000007 0.93141247476851607 1.5000000000000002 1.0000000180025095e-35 50.500000000000007 4.6787389078007857 55.500000000000007 14.500000000000002 68.500000000000014 53.658722993062561 12.500000000000002 102.50000000000001 58.140615227439966
decision_type=2 2 2 2 2 2 2 2 2 2 2 2 2 2 2 2
left_child=-1 2 3 4 -2 -4 7 -7 -5 11 12 -6 -11 15 -15 -3
right_child=1 13 5 8 9 6 -8 -9 -10 10 -12 -13 -14 14 -16 -17
leaf_value=-0.09634796028237641 -0.047187965673857801 -0.092152306717970103 -0.034537908207913311 0.21991763147276788 0.1873222408342837 0.088349671706993399 0 0.33568825210250325 -0.016596663570759798 -0.044728477902806901 -0.088595811349972853 0 0.1792794196765074 0.083505662467609598 -0.019869334970898232 0.030342852172189478
leaf_weight=136.71530025918037 21.418373748660088 31.362090420909226 2.9677230995148447 20.371101376600567 22.370066703297198 8.5924891754984909 4.1522632017731658 15.727434777654706 2.4002649430185548 3.4200730863958624 13.814164065755902 10.394206273369489 11.810018666088579 25.730188868008554 27.022055220790207 10.377207520417867
leaf_count=1671 341 1009 33 145 144 53 39 75 57 47 196 357 138 546 673 355
internal_value=0 0.0569922 0.103186 0.075131 0.0423375 0.191417 0.221986 0.256517 0.186213 0.0765932 0.011735 0.127989 0.115857 -0.00808226 0.0267648 -0.0569107
internal_weight=0 231.93 137.438 105.998 83.2269 31.4399 28.4722 24.3199 22.7714 61.8085 29.0443 32.7643 15.2301 94.4915 52.7522 41.7393
internal_count=5879 4208 1625 1425 1223 200 167 128 202 882 381 501 185 2583 1219 1364
is_linear=0
shrinkage=0.1


Tree=48
num_leaves=17
num_cat=0
split_feature=2 28 21 17 14 2 2 5 17 2 6 26 0 0 14 0
split_gain=368.694 114.328 18.9133 22.4768 9.49687 6.67548 12.9687 5.9802 7.90233 3.5969 3.38287 2.74798 1.74137 1.70531 5.13796 2.53214
threshold=29.500000000000004 1.0000000180025095e-35 1.0000000180025095e-35 1.0000000180025095e-35 20500.000000000004 84.500000000000014 109.50000000000001 5.6814797752928108 1.0000000180025095e-35 71.500000000000014 46.086012612538504 1.0000000180025095e-35 213.50000000000003 184.50000000000003 141706.25000000003 116.50000000000001
decision_type=2 2 2 2 2 2 2 2 2 2 2 2 2 2 2 2
left_child=1 11 -2 -4 -3 9 -7 -6 10 13 -9 -1 -11 15 -15 -5
right_child=2 4 3 5 7 6 -8 8 -10 12 -12 -13 -14 14 -16 -17
leaf_value=0 -0.096200353511852035 0 -0.082829634212943343 0.013822194810165306 0 0.13633695368848572 -0.0057228794484031681 0 0.22937136004267034 -0.060367325053881662 0.11623498712870182 -0.080909016937053851 0 0.15378267464709672 0 -0.050118775660966952
leaf_weight=4.5081783607602128 123.00341505557299 2.7441513463854781 61.22351424023509 9.2975903581827932 2.5996893085539332 9.3754946161061543 13.017356871627269 1.9231658503413189 72.379051929339767 20.61597021762282 5.9719752296805382 14.266215579584241 3.8848182391375294 2.8287004362791768 3.6138458102941513 9.985141125507651
leaf_count=52 1453 10 1531 168 12 110 151 8 604 1124 57 208 217 57 40 77
internal_value=0 0.156097 -0.0667524 -0.0381964 0.205652 0 0.0448324 0.211752 0.216878 -0.0208079 0.0770377 -0.0592509 -0.048535 0 0.0490761 -0.00892646
internal_weight=0 104.392 256.846 133.842 85.618 72.6189 22.3929 82.8739 80.2742 50.2261 7.89514 18.7744 24.5008 25.7253 6.44255 19.2827
internal_count=5879 951 4928 3475 691 1944 261 681 669 1683 65 260 1341 342 97 245
is_linear=0
shrinkage=0.1


Tree=49
num_leaves=17
num_cat=0
split_feature=17 21 2 28 2 9 0 14 6 0 0 6 0 15 1 1
split_gain=203.939 188.104 96.0159 25.3433 22.9375 6.79438 6.44729 7.56943 7.98531 4.66839 3.36334 3.32856 5.15027 3.21106 3.20725 7.10152
threshold=1.0000000180025095e-35 1.0000000180025095e-35 31.500000000000004 1.0000000180025095e-35 42.500000000000007 28.467077296360952 59.500000000000007 54232.500000000007 48.990588878732503 42.500000000000007 208.50000000000003 54.077669662933552 212.50000000000003 9.5000000000000018 42.500000000000007 57.500000000000007
decision_type=2 2 2 2 2 2 2 2 2 2 2 2 2 2 2 2
left_child=1 -1 3 -3 -4 10 9 11 -9 13 -6 12 14 -7 -8 -16
right_child=-2 2 4 -5 5 6 7 8 -10 -11 -12 -13 -14 -15 15 -17
leaf_value=-0.093924399291855754 -0.083681415704894749 0 -0.044240436437898885 0.22881194537132152 -0.013209619034890785 0.14672051593669219 0 0 0.22693753581834231 -0.0019701924626766894 0.13870114202158632 -0.0016289901809716095 0 0 0.31232914432823289 0
leaf_weight=51.883577017113566 163.22734133154154 6.9042038172483435 19.430646795779467 64.924894615076482 9.8389124209061247 4.1697456082329145 1.7913821265101448 3.2822770252823821 11.093938873149453 8.6582653475925309 1.6590390447527159 2.0275022555142632 5.439825052395463 2.725960910320282 2.2456693034619097 1.4100449457764623
leaf_count=826 3428 56 84 471 232 109 21 41 291 117 43 23 45 40 38 14
internal_value=0 0.0673741 0.126223 0.209271 0.0426555 0.0774026 0.0958373 0.12798 0.1849 0.0265945 0 0.0491466 0.0769552 0.0914354 0.145916 0.201241
internal_weight=0 197.486 145.602 71.8291 73.7732 54.3426 42.8446 27.2906 14.3762 15.554 11.498 12.9144 10.8869 6.89571 5.4471 3.65571
internal_count=5879 2451 1625 527 1098 1014 739 473 332 266 275 141 118 149 73 52
is_linear=0
shrinkage=0.1


Tree=50
num_leaves=2
num_cat=0
split_feature=19
split_gain=723.193
threshold=1.0000000180025095e-35
decision_type=2
left_child=-1
right_child=-2
leaf_value=-0.097037373587619061 0.21048645930989129
leaf_weight=251.19386151432991 109.91253665834665
leaf_count=4995 884
internal_value=0
internal_weight=0
internal_count=5879
is_linear=0
shrinkage=0.1


Tree=51
num_leaves=16
num_cat=0
split_feature=18 11 0 9 23 20 13 1 1 16 14 25 28 10 3
split_gain=229.985 66.1802 65.2311 55.8882 49.9703 36.3272 29.7779 25.555 61.8692 23.4071 21.841 31.0107 11.583 5.08783 9.53265
threshold=1.0000000180025095e-35 14.354646211729081 60.500000000000007 94.034016725206612 11.500000000000002 1.0000000180025095e-35 67.715708252830211 25.500000000000004 24.500000000000004 15.500000000000002 113281.97674418606 1.0000000180025095e-35 1.0000000180025095e-35 5.6868309072489156 15730.011659498301
decision_type=2 2 2 2 2 2 2 2 2 2 2 2 2 2 2
left_child=5 2 -2 10 -5 7 -3 8 -1 -7 12 -12 -4 14 -11
right_child=1 6 3 4 -6 9 -8 -9 -10 13 11 -13 -14 -15 -16
leaf_value=-0.088264266419844653 -0.085236907623992525 -0.091486968134339292 0.2432708141357911 0.19010756544265076 -0.087535472273643444 -0.070645820024835049 0.11292471088487006 -0.096536984006841201 0.22995140634786054 0.17976500990916724 -0.074986395372816192 0.21795003532304469 0.12141173687180558 0.22408621485089808 -0.038269296666209596
leaf_weight=20.879464595578611 11.88567331433296 23.941503457725048 52.75789225846529 10.657759565860035 15.881259653717278 6.9319771155715015 9.5729526802897436 162.62261387333274 8.6242249011993426 3.0874996334314329 6.8354186117649061 6.5038512647151947 18.219677664339542 6.0822692066431046 3.110025729984045
leaf_count=538 48 145 63 18 52 76 29 4791 3 4 22 19 18 16 37
internal_value=0 0.0925726 0.126887 0.151433 0.0164341 -0.0674257 -0.0271378 -0.0809824 0 0.0577479 0.191555 0.0528626 0.214805 0.146497 0.0381124
internal_weight=0 156.256 122.742 110.856 26.539 211.338 33.5145 192.126 29.5037 19.2118 84.3168 13.3393 70.9776 12.2798 6.19753
internal_count=5879 414 240 192 70 5465 174 5332 541 133 122 41 81 57 41
is_linear=0
shrinkage=0.1


Tree=52
num_leaves=17
num_cat=0
split_feature=27 21 21 2 1 2 2 13 23 5 2 2 15 2 1 8
split_gain=234.859 99.1276 30.188 22.252 14.3092 15.9144 10.5578 9.05262 7.75736 6.57494 5.39344 3.61557 2.93737 6.57985 3.73345 3.39496
threshold=1.0000000180025095e-35 1.0000000180025095e-35 1.0000000180025095e-35 40.500000000000007 44.500000000000007 76.500000000000014 50.500000000000007 49.573016218911008 5.5000000000000009 11.823360037094902 50.500000000000007 35.500000000000007 11.500000000000002 75.500000000000014 45.500000000000007 3.7620519194744975
decision_type=2 2 2 2 2 2 2 2 2 2 2 2 2 2 2 2
left_child=2 -2 -1 -4 6 10 -3 -5 -9 -10 11 -6 13 14 -12 -15
right_child=1 4 3 7 5 -7 -8 8 9 -11 12 -13 -14 15 -16 -17
leaf_value=-0.096075166152412961 -0.088440266422692787 0 -0.065249135637317254 -0.00017891531572439257 0.10688559081139169 0 0.23045047270624255 0 0.20233502794406469 0.017292943404362601 0 0 0.035151628851611633 0.12069864178688908 0.19882053823500909 0.0024374035532389415
leaf_weight=116.29910829663277 20.871020635589957 3.3526584394276169 56.566044429317117 37.062613747082651 3.7731173168867809 7.9089244790375224 27.889710364863276 4.3840852230787304 6.3406319208443147 6.7116757743060589 1.3787573277950311 5.4513052348047495 7.1274529360234729 21.417567458003763 29.829667709767818 6.8024900630116454
leaf_count=1537 134 38 1282 357 56 108 454 48 143 81 19 129 111 678 422 282
internal_value=0 0.106208 -0.0599688 -0.020362 0.143294 0.116067 0.209831 0.0225615 0.0823573 0.122492 0.130299 0.0274495 0.141551 0.15095 0.191277 0.0992718
internal_weight=0 135.803 227.364 111.065 114.932 83.6893 31.2424 54.499 17.4364 13.0523 75.7804 9.22442 66.5559 59.4285 31.2084 28.2201
internal_count=5879 2431 3448 1911 2297 1805 492 629 272 224 1697 185 1512 1401 441 960
is_linear=0
shrinkage=0.1


Tree=53
num_leaves=17
num_cat=0
split_feature=27 21 17 2 2 21 17 2 6 2 2 12 2 2 7 1
split_gain=315.416 102.982 72.2373 19.0037 6.27342 6.25431 10.3984 5.4634 3.16942 2.77014 3.13369 2.47528 3.04433 1.8412 1.81723 1.34768
threshold=1.0000000180025095e-35 1.0000000180025095e-35 1.0000000180025095e-35 76.500000000000014 75.500000000000014 1.0000000180025095e-35 1.0000000180025095e-35 85.500000000000014 61.20056944425081 55.500000000000007 76.500000000000014 57000.000000000007 75.500000000000014 26.500000000000004 11.913108775845567 44.500000000000007
decision_type=2 2 2 2 2 2 2 2 2 2 2 2 2 2 2 2
left_child=5 -2 4 11 -3 -1 -7 15 9 13 14 12 -4 -8 -11 -6
right_child=1 2 3 -5 7 6 8 -9 -10 10 -12 -13 -14 -15 -16 -17
leaf_value=-0.096075166317871372 -0.088440265938279139 -0.052807416215562911 0 0 0 -0.088232813563456858 0 -0.0037895044166609444 0.022687565112488088 0 -0.017454563258012763 0.20710826615073838 0.15032331888671485 -0.05793589989722623 0.20610875156912375 0.17164009073273265
leaf_weight=116.29910966381431 20.871020888909698 15.380001088604333 3.718959009274843 5.260225322097539 1.4945412799715985 49.75856969319284 1.105969557538631 2.0831087045371532 9.8095394140109402 1.3746379967778914 11.257937646470962 73.924520295113325 22.337928891181946 26.449337838217616 1.0847080834209917 3.0648711696267128
leaf_count=1537 134 649 88 88 23 867 29 44 192 22 134 1077 286 637 30 42
internal_value=0 0.111567 0.145937 0.180543 -0.0103652 -0.0776829 -0.0544897 0.0578255 -0.0177095 -0.032152 0 0.190293 0.134921 -0.0505338 0.106524 0.129798
internal_weight=0 148.135 127.264 105.242 22.0225 217.14 100.841 6.64252 51.0821 41.2726 13.7173 99.9814 26.0569 27.5553 2.45935 4.55941
internal_count=5879 2431 2297 1539 758 3448 1911 109 1044 852 186 1451 374 666 52 65
is_linear=0
shrinkage=0.1


Tree=54
num_leaves=16
num_cat=0
split_feature=18 25 17 7 9 2 1 5 12 12 23 29 15 4 29
split_gain=168.973 77.1992 75.8683 68.8433 51.5778 84.81 43.6208 63.1003 40.3826 34.862 27.4005 21.8948 14.2225 13.4362 0.228055
threshold=1.0000000180025095e-35 1.0000000180025095e-35 1.0000000180025095e-35 10.356226066015651 88.202217878716965 69.500000000000014 66.500000000000014 8.2147149179618086 65671.052631578961 14075.000000000002 1.0000000180025095e-35 1.0000000180025095e-35 4.5000000000000009 12.306713886102701 1.0000000180025095e-35
decision_type=2 2 2 2 2 2 2 2 2 2 2 2 2 2 2
left_child=6 2 -2 -4 12 -6 -1 8 14 11 -10 -9 -5 -14 -8
right_child=1 -3 3 4 5 -7 7 9 10 -11 -12 -13 13 -15 -16
leaf_value=-0.096461268090785465 -0.087884575918010535 -0.089677846526438967 -0.082748817349968584 0.30626016947736634 0.20136921716912368 -0.088313423346390613 0.16394156033022511 -0.028845802637708258 0.19025210257164649 -0.095124935542069827 -0.081925474324186065 0.27580998817185265 0.23935003078959644 0.090717853414686397 0.33551894378371522
leaf_weight=122.72399138938636 15.425255332142113 21.21930418163538 11.099609509110449 22.477538540959358 22.898527070879936 16.96993362903595 12.459890572354199 2.8937491942197076 5.2521569691598442 55.335718960501254 12.500232444144784 4.4219533205032349 20.384821213781834 16.904829740524292 3.8386564254760733
leaf_count=2856 51 117 81 22 21 64 87 83 12 1930 490 6 21 37 1
internal_value=0 0.0816408 0.112039 0.141693 0.168701 0.0730548 -0.0567853 -0.00436671 0.102951 -0.0658829 0 0.127991 0.22916 0.177328 0.216611
internal_weight=0 147.38 126.161 110.735 99.6357 39.8685 219.426 96.7024 34.0509 62.6514 17.7524 7.3157 59.7672 37.2897 16.2985
internal_count=5879 414 297 246 165 85 5465 2609 590 2019 502 89 80 58 88
is_linear=0
shrinkage=0.1


Tree=55
num_leaves=17
num_cat=0
split_feature=2 2 1 1 10 0 15 7 3 18 23 8 16 6 11 0
split_gain=193.322 75.8814 72.4426 55.1381 41.8458 20.4043 20.1665 18.5937 16.8394 15.5199 26.9948 15.477 18.5509 30.6802 14.3261 13.3843
threshold=107.50000000000001 112.50000000000001 29.500000000000004 13.500000000000002 1.4292633360277252 209.50000000000003 2.5000000000000004 17.528622330717052 50574.476428395428 1.0000000180025095e-35 14.500000000000002 1.6054624114286475 11.500000000000002 58.140615227439966 46.697986952544206 222.50000000000003
decision_type=2 2 2 2 2 2 2 2 2 2 2 2 2 2 2 2
left_child=2 4 3 7 -2 11 -5 -1 -8 10 -6 -3 13 -13 -11 -7
right_child=1 5 -4 6 9 15 8 -9 -10 14 -12 12 -14 -15 -16 -17
leaf_value=-0.088951164038824651 -0.071367160533771221 -0.090077122855819369 -0.083740436341650099 -0.038634189148104819 0.17720382723618444 0.20777193542003772 0.21788267966117592 0.2185380332311159 -0.0022925072959102065 0.24212334150997208 -0.014378538878946957 0.2969451046639297 -0.072218068659539988 -0.04455926876802227 0.057779918061295447 0
leaf_weight=20.976901355199519 6.2018462140113106 22.856131999753416 182.72708395775408 3.0308157401159432 17.496322400867943 6.7346636801958066 20.578712468035523 1.8681341409683216 2.0687541980296364 40.646320540457964 9.6158036617562157 5.2801536135375482 6.9322043359279624 3.5486462060362101 8.0628540068864805 6.9437490878626704
leaf_count=328 50 149 4643 56 55 13 152 14 68 91 62 15 82 33 36 32
internal_value=0 0.0963551 -0.0544743 0.0516173 0.156381 0 0.154306 -0.0550605 0.188948 0.177645 0.101886 -0.0349445 0.03233 0.13705 0.215711 0.107097
internal_weight=0 134.319 231.25 48.5233 82.0231 52.2955 25.6783 22.845 22.6475 75.8213 27.1121 38.6171 15.761 8.8288 48.7092 13.6784
internal_count=5879 618 5261 618 294 324 276 342 220 244 117 279 130 48 127 45
is_linear=0
shrinkage=0.1


Tree=56
num_leaves=17
num_cat=0
split_feature=17 15 27 8 1 19 2 7 10 5 2 2 18 13 0 7
split_gain=229.431 49.2441 46.7299 35.163 38.6016 37.4118 43.1194 35.919 32.5587 25.5133 31.8104 48.425 23.3738 31.9621 23.1542 21.2663
threshold=1.0000000180025095e-35 1.5000000000000002 1.0000000180025095e-35 4.7789487399860215 57.500000000000007 1.0000000180025095e-35 35.500000000000007 14.69188866765864 5.5837661271843411 11.132201719486853 40.500000000000007 107.50000000000001 1.0000000180025095e-35 50.509109245387855 226.50000000000003 6.0249417292581056
decision_type=2 2 2 2 2 2 2 2 2 2 2 2 2 2 2 2
left_child=1 8 3 4 5 6 15 9 12 10 -8 -12 13 14 -1 -3
right_child=-2 2 -4 -5 -6 -7 7 -9 -10 -11 11 -13 -14 -15 -16 -17
leaf_value=-0.079707802309476439 -0.090285337785661252 0.23686706394007773 -0.090385369212212907 -0.083531031584886978 -0.083900159351375195 -0.077205961185104227 0.27533662645168028 -0.070595143199969734 -0.065562044265113181 0.023477885937834422 -0.017767602229954604 0.21557249102325554 0.25748468447615164 0.23684855644316496 0.16320689226963148 -0.083662098911246
leaf_weight=10.121456856839364 158.06237758975476 2.2968688718974581 22.704269573092461 13.5021481430158 11.556995462626217 9.4670569486916047 29.742218144237995 5.6710318736731997 4.9263943163678041 13.286428001709281 13.295101868920026 20.174544715322554 23.053621016442776 10.63930228538811 6.2792597934603682 13.142387344501911
leaf_count=191 3428 9 687 242 147 374 44 28 98 46 109 54 18 75 24 305
internal_value=0 0.0692326 0.0386101 0.0622871 0.0805676 0.100185 0.119437 0.148639 0.15178 0.167503 0.194615 0.116913 0.177143 0.101256 0.00111313 -0.0230363
internal_weight=0 209.859 154.839 132.135 118.633 107.076 97.6086 82.1693 55.02 76.4983 63.2119 33.4696 50.0936 27.04 16.4007 15.4393
internal_count=5879 2451 2045 1358 1116 969 595 281 406 253 207 163 308 290 215 314
is_linear=0
shrinkage=0.1


Tree=57
num_leaves=17
num_cat=0
split_feature=2 2 1 1 1 12 3 18 5 15 0 6 23 10 15 2
split_gain=168.282 86.0932 34.9891 20.7136 17.98 13.7797 17.7121 15.435 15.9257 8.27077 9.61698 8.02821 7.79686 7.17832 6.97932 6.1796
threshold=94.500000000000014 110.50000000000001 57.500000000000007 66.500000000000014 13.500000000000002 18150.000000000004 39766.223838799335 1.0000000180025095e-35 9.3737521411996223 3.5000000000000004 69.500000000000014 61.20056944425081 15.500000000000002 5.7595764856834561 6.5000000000000009 123.50000000000001
decision_type=2 2 2 2 2 2 2 2 2 2 2 2 2 2 2 2
left_child=3 2 4 -1 -2 -4 -7 -8 -9 -6 -11 -5 -13 -3 -14 -15
right_child=1 13 5 11 9 6 7 8 -10 10 -12 12 14 15 -16 -17
