tree
version=v3
num_class=15
num_tree_per_iteration=15
label_index=0
max_feature_idx=23
objective=multiclass num_class:15
feature_names=Neighborhood Premise Month Hour median_household_income households_below_poverty perc18_24 perc25_64 perc65up perc_asian perc_aa perc_hisp perc_white median_price_homes_sold racial_diversity_index num_households Outside Weapon_FIREARM Weapon_HANDS Weapon_KNIFE Weapon_NONE Weapon_OTHER Holiday Weekend
feature_infos=[0:276] [0:89] [1:12] [0:23] [13478.1645220588:113496.13787375401] [0.81190798376184004:48.720930232558104] [2.9011604641856699:30.297173230248902] [42.096727483347799:77.957456050000005] [4.4140030441400304:26.968634511513301] [0:16.25593143] [1.7262471115944:97.440982662657504] [0.017008249000765401:35.22737841] [0.35826242722794399:90.03299423] [12550:377500] [5.4890869235159103:80.195162400000001] [20000:347500] [0:1] [0:1] [0:1] [0:1] [0:1] [0:1] [0:1] [0:1]
tree_sizes=1916 1892 1886 1917 1895 554 1891 1900 1903 1899 1885 1902 1928 1876 1880 1916 1914 1916 1927 1917 549 1870 1924 1934 1915 1905 1916 1974 1896 1879 1902 1866 1874 1925 1919 551 1908 1926 1925 1919 1879 1945 1957 1911 1879 1909 1934 1922 1933 1929 651 1879 1932 1944 1930 1943 1945 1963 1913 1875 1913 1906 1930 1949 1930 654 1885 1932 1947 1891 1952 1949 1973 1881 1891 1945 1908 1932 1948 1933 859 1933 1931 1943 1940 1969 1905 1967 1861 1893 1930 1894 1940 1946 1948 960 1921 1941 1943 1913 1962 1935 1971 1840 1889 1940 1862 1915 1968 1945 1687 1882 1944 1949 1927 1942 1952 1962 1959 1914 1934 1917 1932 1950 1953 1907 1895 1944 1932 1849 1952 1943 1982 1948 1904 1951 1891 1934 1953 1951 1917 1920 1942 1941 1908 1960 1949 1985 1929 1912 1937 1901 1881 1939 1952 1889 1877 1942 1944 1915 1964 1923 1982 1959 1910 1941 1875 1945 1934 1971 1914 1894 1946 1940 1937 1964 1919 1974 1941 1885 1955 1871 1898 1941 1938 1883 1856 1946 1944 1934 1962 1934 1979 1942 1906 1955 1941 1905 1952 1954 1917 1911 1951 1942 1954 1949 1929 1980 1899 1889 1943 1892 1927 1947 1949 1901 1907 1941 1939 1907 1988 1961 1979 1926 1912 1935 1896 1949 1948 1954 1900 1913 1951 1956 1925 1937 1886 1985 1901 1885 1941 1948 1862 1954 1962 1878 1877 1950 1946 1898 1957 1951 1976 1943 1907 1927 1923 1946 1941 1962 1918 1878 1957 1956 1933 1980 1909 1971 1916 1911 1941 1859 1896 1919 1963 1906 1896 1950 1966 1948 1859 1942 1961 1907 1913 1914 1887 1918 1962 1948 1887 1801 1953 1943 1845 1948 1938 1967 1883 1873 1939 1887 1850 1943 1946 1891 1890 1953 1953 1850 1970 1888 1981 1859 1913 1939 1866 1870 1953 1950 1892 1842 1946 1939 1816 1945 1892 1975 1831 1895 1937 1873 1926 1966 1947 1914 1888 1926 1960 1860 1948 1906 1963 1940 1919 1941 1888 1915 1925 1956 1921 1920 1956 1959 1857 1960 1916 1952 1931 1884 1935 1897 1917 1953 1956 1892 1902 1936 1967 1792 1953 1870 1965 1846 1886 1949 1911 1926 1961 1946 1909 1887 1954 1947 1924 1959 1922 1953 1935 1868 1935 1909 1921 1961 1936 1921 1869 1953 1973 1904 1973 1907 1980 1839 1880 1922 1849 1903 1961 1964 1878 1843 1965 1950 1887 1954 1869 1960 1862 1907 1938 1918 1879 1966 1937 1894 1915 1972 1963 1906 1969 1909 1964 1796 1923 1937 1885 1918 1953 1934 1926 1861 1954 1968 1902 1956 1886 1973 1880 1881 1943 1831 1886 1961 1936 1920 1889 1960 1957 1859 1959 1957 1964 1878 1859 1950 1845 1917 1964 1952 1916 1877 1955 1961 1954 1889 1859 1917 1902 1901 1945 1836 1876 1973 1935 1916 1919 1959 1946 1835 1866 1917 1988 1833 1879 1958 1859 1934 1958 1947 1916 1879 1956 1962 1911 1950 1808 1945 1897 1895 1941 1899 1901 1976 1957 1895 1917 1933 1957 1847 1881 1927 1934 1870 1923 1919 1734 1896 1960 1939 1926 1867 1950 1915 1911 1888 1919 1924 1794 1871 1926 1816 1948 1966 1944 1902 1902 1951 1957 1876 1897 1960 1987 1923 1930 1948 1901 1872 1953 1943 1919 1952 1950 1952 1892 1893 1943 1963 1921 1860 1942 1855 1897 1927 1960 1877 1898 1972 1977 1803 1942 1802 1966 1940 1903 1959 1876 1900 1972 1934 1878 1904 1952 1968 1920 1914 1852 1962 1886 1921 1966 1877 1895 1962 1964 1905 1895 1956 1969 1909 1961 1947 1920 1892 1886 1966 1814 1901 1926 1953 1914 1887 1970 1962 1798 1967 1838 1905 1879 1856 1938 1890 1889 1965 1933 1924 1930 1962 1965 1876 1892 1783 1983 1880 1887

Tree=0
num_leaves=17
num_cat=0
split_feature=21 19 17 18 16 1 1 15 1 1 1 1 13 1 1 1
split_gain=68682 44429.4 11852.2 1952.58 947.959 613.35 1080.27 406.413 332.782 383.128 414.059 278.832 268.27 265.328 228.574 357.432
threshold=1.0000000180025095e-35 1.0000000180025095e-35 1.0000000180025095e-35 1.0000000180025095e-35 1.0000000180025095e-35 68.500000000000014 69.500000000000014 71800.000000000015 68.500000000000014 6.5000000000000009 36.500000000000007 3.5000000000000004 74500.000000000015 1.0000000180025095e-35 36.500000000000007 37.500000000000007
decision_type=2 2 2 2 2 2 2 2 2 2 2 2 2 2 2 2
left_child=1 2 3 -1 8 11 -7 -8 9 -3 -11 -4 -6 -2 -13 -16
right_child=13 4 5 -5 12 6 7 -9 -10 10 -12 14 -14 -15 15 -17
leaf_value=-2.4242206666816473 -1.965406399384473 -1.4732551981551394 -2.0899232166977226 -2.3492004562028428 -1.6666711153407714 -1.8747301020248441 -2.0892507713839241 -2.2028000510383121 -1.4681762089953834 -2.0829388051872755 -1.6429836910208289 -2.3585847490328877 -1.8252951003344107 -1.6056614170959798 -1.7080909358939664 -2.2427406553224594
leaf_weight=16431.620096087456 21.823304742574692 70.783414512872696 97.256032004952431 4402.3298701792955 194.9864836782217 162.53617836534977 603.36693416535854 670.26010739803314 241.00519150495529 31.975885644555092 69.265271574258804 193.27857287228107 255.14289762079716 1273.3423897624016 13.28375071287155 233.69912861287594
leaf_count=173176 230 746 1025 46397 2055 1713 6359 7064 2540 337 730 2037 2689 13420 140 2463
internal_value=-2.32073 -2.35953 -2.38618 -2.40837 -1.65529 -2.15199 -2.11785 -2.14894 -1.54532 -1.65391 -1.78108 -2.24337 -1.75639 -1.61166 -2.27747 -2.21363
internal_weight=0 23670.8 22807.6 20833.9 863.159 1973.68 1436.16 1273.63 413.03 172.025 101.241 537.517 450.129 1295.17 440.261 246.983
internal_count=263121 249471 240374 219573 9097 20801 15136 13423 4353 1813 1067 5665 4744 13650 4640 2603
shrinkage=1


Tree=1
num_leaves=17
num_cat=0
split_feature=20 3 1 10 14 1 3 15 14 1 9 0 3 6 3 13
split_gain=664.627 1085.43 549.79 279.27 215.364 152 142.876 138.656 86.5617 85.1525 73.8262 67.2435 61.8 71.2979 60.0184 58.961
threshold=1.0000000180025095e-35 5.5000000000000009 1.0000000180025095e-35 35.883256681624857 24.192119303744004 50.500000000000007 1.5000000000000002 67750.000000000015 7.5994211690546658 1.0000000180025095e-35 3.9661016555155153 128.50000000000003 4.5000000000000009 10.7399971189335 18.500000000000004 144550.50000000003
decision_type=2 2 2 2 2 2 2 2 2 2 2 2 2 2 2 2
left_child=-1 2 4 15 11 -5 8 9 -7 -3 -6 -2 13 -8 -11 -4
right_child=1 7 3 5 10 6 12 -9 -10 14 -12 -13 -14 -15 -16 -17
leaf_value=-5.3521804372704809 -2.9494963028240293 -4.6683010750659921 -4.9399382244131802 -5.1399229893278076 -3.4274888181001195 -4.2320291102824967 -4.4688489310691235 -5.2805279415568771 -4.9660601542072635 -5.230665843384565 -5.258533456114546 0.42224342326100395 -4.9085160041914246 -4.9629896994089009 -5.1257442504249662 -5.2375856141399639
leaf_weight=498.7956698378548 0.25509590096771606 3.0888786269351831 8.5179848670959455 16.536869058385491 0.68210425693541765 1.7967624329030503 19.708931131288416 558.10546681284904 36.534169469028711 190.75627829320729 0.28282371629029512 0.22736808564513922 7.4643278848379842 4.1425356091931453 78.16471139434725 34.094121720641851
leaf_count=89945 46 557 1536 2982 123 324 3554 100640 6588 34398 51 41 1346 747 14095 6148
internal_value=-5.25853 -5.20989 -4.94149 -4.96404 -2.99435 -4.86023 -4.79507 -5.25211 -4.92938 -5.19349 -3.99167 -1.18011 -4.63345 -4.55102 -5.19985 -5.17604
internal_weight=0 960.358 130.243 128.796 1.44739 86.1836 69.6467 830.115 38.3309 272.01 0.964928 0.482464 31.3158 23.8515 268.921 42.6121
internal_count=263121 173176 23486 23225 261 15541 12559 149690 6912 49050 174 87 5647 4301 48493 7684
shrinkage=1


Tree=2
num_leaves=17
num_cat=0
split_feature=20 16 1 1 3 23 9 4 12 8 0 10 3 3 5 2
split_gain=1614.54 1414.36 880.087 2965.22 901.01 395.29 293.278 243.396 234.751 176.964 211.347 97.2521 97.1154 90.6853 106.414 85.6925
threshold=1.0000000180025095e-35 1.0000000180025095e-35 70.500000000000014 72.500000000000014 15.500000000000002 1.0000000180025095e-35 1.1985989079509203 42387.594300448312 12.891067542294453 15.515670875609052 190.50000000000003 10.738495533548003 6.5000000000000009 8.5000000000000018 17.443485122777705 5.5000000000000009
decision_type=2 2 2 2 2 2 2 2 2 2 2 2 2 2 2 2
left_child=-1 2 8 4 5 6 7 9 -2 10 -4 -8 -13 -9 -15 -14
right_child=1 -3 3 -5 -6 -7 11 13 -10 -11 -12 12 15 14 -16 -17
leaf_value=-4.4749548945634929 -4.2211133438622568 -4.4084106456900134 -3.4585223560456395 -4.3776316757370521 -4.2060983375342333 -4.3805113706654097 -3.880452385040094 -3.2218039335484092 -4.3226570514959084 -2.2667936133187343 -2.1389954107327722 -4.1292439448837284 -2.9680903484040706 -2.3361235251695072 -0.78433842505818596 -3.4557430403539544
leaf_weight=1191.3437687978148 363.95290543138981 1169.171224810183 8.0796008557081205 87.405386961996555 11.947213068604468 2.7682566866278639 3.7219144925475147 0.7284886017441744 619.62591414898634 2.7682566866278639 1.5894296765327443 1.4834676980972314 8.9008061885833758 1.6424106657505038 1.0331292897462843 8.9405419304966909
leaf_count=89945 27478 88271 610 6599 902 209 281 55 46781 209 120 112 672 124 78 675
internal_value=-4.38051 -4.33146 -4.25138 -4.01752 -3.43194 -3.212 -3.12981 -2.78874 -4.28499 -3.01064 -3.23261 -3.36802 -3.27383 -2.00356 -1.70439 -3.20758
internal_weight=0 2293.76 1124.59 141.009 53.6035 41.6563 38.888 15.8413 983.579 12.4373 9.66903 23.0467 19.3248 3.40403 2.67554 17.8413
internal_count=263121 173176 84905 10646 4047 3145 2936 1196 74259 939 730 1740 1459 257 202 1347
shrinkage=1


Tree=3
num_leaves=17
num_cat=0
split_feature=16 20 15 3 3 9 11 10 14 3 15 1 9 20 1 1
split_gain=19358.2 22330.3 4520.3 1152.07 935.502 573.119 375.643 336.343 264.444 232.408 229.197 196.145 156.976 149.996 144.041 139.222
threshold=1.0000000180025095e-35 1.0000000180025095e-35 122304.51026856242 19.500000000000004 7.5000000000000009 2.1322002485460652 3.3032883742201302 59.963969089156677 50.79289936761019 16.500000000000004 198475.00000000003 76.500000000000014 0.47447542177489854 1.0000000180025095e-35 78.500000000000014 76.500000000000014
decision_type=2 2 2 2 2 2 2 2 2 2 2 2 2 2 2 2
left_child=13 -2 3 4 11 6 -4 -6 -5 14 -7 -3 -13 -1 15 -9
right_child=1 2 5 8 7 10 -8 9 -10 -11 -12 12 -14 -15 -16 -17
leaf_value=-2.4339355376778165 -2.4339339976770633 -2.1212417145188418 -2.0485842071797413 -1.9846491559821626 -2.2300511994625012 -2.2236856988613023 -2.2076323728000822 -2.2037919556293666 -2.0897807799466297 -2.0897717785325165 -2.2882654356305623 -1.9507611075941456 -2.045767136330582 -2.4108032424566268 -2.2999448473085566 -2.1316128934595118
leaf_weight=4387.951249435544 4071.8321542143822 207.57954274117947 200.61946745216846 1018.7104791253805 424.28242741525173 854.67843447625637 588.59663727879524 363.71096138656139 321.38617922365665 824.01648117601871 1560.9379661679268 286.86796799302101 483.81928765773773 7985.7458434253931 68.001816675066948 1099.1275652348995
leaf_count=46653 43292 2207 2133 10831 4511 9087 6258 3867 3417 8761 16596 3050 5144 84905 723 11686
internal_value=-2.33057 -2.24213 -2.14805 -2.08953 -2.11799 -2.24115 -2.16709 -2.14768 -2.0098 -2.13287 -2.26538 -2.03374 -2.01029 -2.41901 -2.15613 -2.1495
internal_weight=0 12374.2 8302.34 5097.5 3757.41 3204.83 789.216 2779.14 1340.1 2354.86 2415.62 978.267 770.687 12373.7 1530.84 1462.84
internal_count=263121 131563 88271 54197 39949 34074 8391 29548 14248 25037 25683 10401 8194 131558 16276 15553
shrinkage=1


Tree=4
num_leaves=17
num_cat=0
split_feature=16 20 1 1 1 3 1 1 3 11 1 1 3 1 1 3
split_gain=37071.6 45125.3 14844.4 6360.73 4847.97 2579.74 1133.08 1036.55 977.12 971.546 754.947 2502.36 625.034 487.989 644.101 433.944
threshold=1.0000000180025095e-35 1.0000000180025095e-35 68.500000000000014 69.500000000000014 2.5000000000000004 6.5000000000000009 37.500000000000007 72.500000000000014 16.500000000000004 4.6253639161548401 53.500000000000007 51.500000000000007 17.500000000000004 75.500000000000014 83.500000000000014 16.500000000000004
decision_type=2 2 2 2 2 2 2 2 2 2 2 2 2 2 2 2
left_child=1 -1 4 12 -3 -6 -7 8 -5 13 11 15 -4 -9 -15 -8
right_child=-2 2 3 7 5 6 10 9 -10 -11 -12 -13 -14 14 -16 -17
leaf_value=-1.9708570011658797 -1.9603702512340575 -1.5478401762582568 -1.4685545927803421 -1.8856797569526853 -1.6267636490914583 -1.9067712445227767 -1.8562060561177318 -1.4681874797871102 -1.5330605563221884 -1.7645126341363693 -1.872349619857349 -1.471659851065326 -1.5549465992809495 -1.812082637542713 -1.462250480948063 -1.7407931001209007
leaf_weight=6568.2112439274788 18522.572522342205 861.90789949893951 3882.2460517287254 479.9483876824379 682.96557015180588 1470.9594469070435 821.6423556804657 266.79442495107651 93.906006038188934 442.49861615896225 847.40667217969894 260.0365714430809 1081.9605043530464 131.07420033216476 88.696827292442322 541.6138009428978
leaf_count=46653 131563 6122 27575 3409 4851 10448 5836 1895 667 3143 6019 1847 7685 931 630 3847
internal_value=-1.86034 -1.7603 -1.64459 -1.54195 -1.7656 -1.80621 -1.83732 -1.72228 -1.82813 -1.65699 -1.79593 -1.75599 -1.48737 -1.55939 -1.6705 -1.81029
internal_weight=0 18521.9 11953.7 6467.13 5486.53 4624.62 3941.66 1502.92 573.854 929.064 2470.7 1623.29 4964.21 486.565 219.771 1363.26
internal_count=263121 131558 84905 45935 38970 32848 27997 10675 4076 6599 17549 11530 35260 3456 1561 9683
shrinkage=1


Tree=5
num_leaves=4
num_cat=0
split_feature=18 3 1
split_gain=224668 9.37241 4.10663
threshold=1.0000000180025095e-35 5.5000000000000009 69.500000000000014
decision_type=2 2 2
left_child=-1 -2 -3
right_child=1 2 -4
leaf_value=-1.9208181930099846 -1.2977152849094813 -1.2892117824059599 -1.2790331828648287
leaf_weight=31802.413350224495 1488.6929155886173 3190.6012876927853 2129.0729928314686
leaf_count=216724 10145 21743 14509
internal_value=-1.80921 -1.28786 -1.28512
internal_weight=0 6808.37 5319.67
internal_count=263121 46397 36252
shrinkage=1


Tree=6
num_leaves=17
num_cat=0
split_feature=17 12 16 1 1 9 19 1 1 0 1 1 1 5 1 10
split_gain=9514.1 1314.23 868.735 852.688 5324.46 361.368 283.448 262.806 7773.12 215.414 189.63 238.703 1913.52 171.071 159.338 127.101
threshold=1.0000000180025095e-35 26.964263885501854 1.0000000180025095e-35 31.500000000000004 30.500000000000004 0.41809357150000009 1.0000000180025095e-35 31.500000000000004 30.500000000000004 270.50000000000006 33.500000000000007 60.500000000000007 72.500000000000014 14.280840660529444 77.500000000000014 96.130923735014164
decision_type=2 2 2 2 2 2 2 2 2 2 2 2 2 2 2 2
left_child=6 2 3 4 -2 10 -1 8 -8 13 15 -12 -13 -7 -5 -4
right_child=1 -3 5 14 -6 9 7 -9 -10 -11 11 12 -14 -15 -16 -17
leaf_value=-5.3971686842160072 -5.0843604307484052 -4.9036406704142932 -3.0433873505456681 -5.3288672451207022 3.5235307772420885 -4.8039085614941044 -5.254509013716925 -5.2433316895323108 13.226775792457568 -1.0308849583707422 -5.0504245382757791 3.7061197862461874 -3.7793246306701906 -4.1220521310837386 -3.7528466831622116 0.018014469761074459
leaf_weight=1227.5490406723693 4.7212817324325469 37.138644263148308 0.89478026144206768 11.679514118470248 0.85267295502126206 4.8476036516949597 6.073978951200842 41.570438263937831 0.23685359861701716 0.23159018531441589 1.447438658215108 0.35264869127422827 20.43257044069469 25.969681235030293 0.6737169027328499 0.24211701191961765
leaf_count=233223 897 7056 170 2219 162 921 1154 7898 45 44 275 67 3882 4934 128 46
internal_value=-5.31102 -4.41643 -4.16752 -4.77934 -3.75196 -3.96756 -5.38781 -5.14975 -4.54709 -4.19985 -3.66268 -3.73552 -3.64814 -4.22648 -5.24996 -2.31486
internal_weight=0 109.484 72.3456 17.9272 5.57395 54.4184 1275.43 47.8813 6.31083 31.0489 23.3696 22.2327 20.7852 30.8173 12.3532 1.1369
internal_count=263121 20801 13745 3406 1059 10339 242320 9097 1199 5899 4440 4224 3949 5855 2347 216
shrinkage=1


Tree=7
num_leaves=17
num_cat=0
split_feature=20 1 16 1 1 3 1 1 1 1 1 1 1 1 3 1
split_gain=36260.2 13323.7 4259.28 4152.37 3872.84 1868.7 1436.93 1171.59 1119.87 1712.39 515.313 515.01 463.371 450.231 365.813 365.551
threshold=1.0000000180025095e-35 68.500000000000014 1.0000000180025095e-35 5.5000000000000009 87.500000000000014 7.5000000000000009 37.500000000000007 56.500000000000007 66.500000000000014 51.500000000000007 53.500000000000007 33.500000000000007 54.500000000000007 19.500000000000004 18.500000000000004 43.500000000000007
decision_type=2 2 2 2 2 2 2 2 2 2 2 2 2 2 2 2
left_child=-1 2 3 -2 -3 15 13 10 9 14 11 -4 -11 -7 -8 -5
right_child=1 4 7 5 -6 6 8 -9 -10 12 -12 -13 -14 -15 -16 -17
leaf_value=-1.6277847766941864 -1.4802377742966015 -1.4981549838280361 -1.4788028898687169 -1.3283571934576226 -1.2478977338829218 -1.3054538284645227 -1.2455022770494262 -1.1903586631561649 -1.1800757820910017 -1.506186246722409 -1.5007224745517138 -1.3613168617516467 -1.3280364913580307 -1.1609486087227638 -1.3550164439267438 -1.4511489607130756
leaf_weight=16610.765156298876 1197.6297964155674 20864.059195041656 739.07701545953751 413.49161359667778 637.32003507018089 253.19205102324486 1343.5245595872402 168.05599302053452 696.23197108507156 507.4921635389328 1618.139132797718 758.09873774647713 205.54540684819221 1586.0053495168686 400.37955260276794 593.36692920327187
leaf_count=89945 6485 112976 4002 2239 3451 1371 7275 910 3770 2748 8762 4105 1113 8588 2168 3213
internal_value=-1.50792 -1.44567 -1.35321 -1.31015 -1.49073 -1.27621 -1.25113 -1.44764 -1.29219 -1.32399 -1.46154 -1.41926 -1.45471 -1.18079 -1.2706 -1.40064
internal_weight=0 31981.6 10480.2 7196.86 21501.4 5999.23 4992.37 3283.37 3153.17 2456.94 3115.31 1497.18 713.038 1839.2 1743.9 1006.86
internal_count=263121 173176 56749 38970 116427 32485 27033 17779 17074 13304 16869 8107 3861 9959 9443 5452
shrinkage=1


Tree=8
num_leaves=17
num_cat=0
split_feature=16 20 15 1 1 1 1 15 9 1 1 1 1 8 15 8
split_gain=25884.4 30638.3 5058.56 1531.61 1051.24 695.889 611.901 553.757 463.838 938.081 433.596 391.295 360.82 347.333 328.477 247.479
threshold=1.0000000180025095e-35 1.0000000180025095e-35 122304.51026856242 78.500000000000014 78.500000000000014 53.500000000000007 33.500000000000007 269844.00000000006 14.180505867200251 72.500000000000014 73.500000000000014 52.500000000000007 28.500000000000004 12.378317722913151 29350.000000000004 7.9240573541686956
decision_type=2 2 2 2 2 2 2 2 2 2 2 2 2 2 2 2
left_child=8 -2 4 5 11 6 12 13 -1 -10 -11 -3 -4 15 -13 -7
right_child=1 2 3 -5 -6 7 -8 -9 9 10 -12 14 -14 -15 -16 -17
leaf_value=-2.1237784489362772 -2.138286382056799 -1.9674556823257763 -1.8722690220813898 -2.0899336978151895 -2.0894884154505005 -1.7608790262718976 -2.0121472511649969 -1.6659877518930148 -2.0742035223767128 -1.4681368944275621 -2.0871640202421711 -1.9278200705121424 -1.5844615381001126 -1.7092822958167182 -1.8697159557389198 -1.8469985395686392
leaf_weight=15531.598030529916 5287.9034731686115 601.19793252646923 104.92259732633829 134.11526410281658 276.29210145771503 1290.0960104316473 178.45391698926687 910.22490718960762 481.86221938580275 40.307866260409355 15.390276208519934 1254.7960911914706 76.218510746955872 1007.208076313138 4487.6091103255749 460.73112586140633
leaf_count=127157 43292 4922 859 1098 2262 10562 1461 7452 3945 330 126 10273 624 8246 36740 3772
internal_value=-2.03087 -1.94113 -1.84443 -1.75802 -1.89877 -1.74695 -1.8802 -1.73391 -2.12062 -2.02945 -1.64075 -1.89044 -1.75069 -1.75636 -1.8824 -1.78349
internal_weight=0 16069.8 10781.9 4161.97 6619.9 4027.86 359.595 3668.26 16069.2 537.56 55.6981 6343.6 181.141 2758.04 5742.41 1750.83
internal_count=263121 131563 88271 34074 54197 32976 2944 30032 131558 4401 456 51935 1483 22580 47013 14334
shrinkage=1


Tree=9
num_leaves=17
num_cat=0
split_feature=17 16 6 1 1 11 5 4 16 19 13 5 0 12 0 0
split_gain=6517.52 2099.84 623.11 166.675 368.903 134.047 128.847 123.163 121.794 134.354 112.151 109.133 95.5455 65.2531 59.7605 137.6
threshold=1.0000000180025095e-35 1.0000000180025095e-35 4.1820178621229056 33.500000000000007 36.500000000000007 4.906100332301051 17.432201000407304 16495.841109510802 1.0000000180025095e-35 1.0000000180025095e-35 18580.000000000004 35.973508108959201 4.5000000000000009 82.617049460459313 217.50000000000003 198.50000000000003
decision_type=2 2 2 2 2 2 2 2 2 2 2 2 2 2 2 2
left_child=8 -2 -3 -4 6 7 -5 -6 -1 -10 -9 -7 -12 -11 15 -14
right_child=1 2 3 4 5 11 -8 10 9 13 12 -13 14 -15 -16 -17
leaf_value=-5.3418315311435105 -5.241198342367122 -0.26948765188584822 -4.9289748450442108 -0.53245247475013091 -4.838488046235387 -4.533470093037228 -3.3375171780467343 -4.7144578384351634 -5.2910194849904988 -5.0842421401032984 -5.0808017120619109 -3.5808496713287363 -4.0781055062679901 -3.7313429124316073 -4.3490571093241428 -3.2817297830100394
leaf_weight=703.93542773975059 30.928896480705589 0.39659592742100258 4.3569693434983483 0.33515148796141037 3.1839391356334081 25.89045244501904 0.7038181247189641 3.8263128208927801 623.13040399225429 26.119472628459338 1.1842019241303194 1.4243938238359977 32.291845865081996 0.37983835302293201 8.9485447285696846 2.7203129106201223
leaf_count=126021 5537 71 780 60 570 4635 126 685 111555 4676 212 255 5781 68 1602 487
internal_value=-5.25126 -4.53252 -4.27646 -4.29621 -4.26305 -4.28917 -2.34888 -4.19058 -5.31295 -5.28153 -4.15024 -4.48061 -4.10434 -5.06157 -4.08002 -4.01374
internal_weight=0 116.191 85.2625 84.8659 80.509 79.47 1.03897 52.1552 1353.57 649.63 48.9712 27.3148 45.1449 26.4993 43.9607 35.0122
internal_count=263121 20801 15264 15193 14413 14227 186 9337 242320 116299 8767 4890 8082 4744 7870 6268
shrinkage=1


Tree=10
num_leaves=17
num_cat=0
split_feature=17 16 1 1 1 1 1 1 1 1 1 1 1 1 1 19
split_gain=13374.5 31980.8 20795.5 9807.93 2682.08 4470.4 2456.91 2453.13 2294.86 3598.94 1983.39 2459.63 1239.64 2438.01 1175.18 1740.97
threshold=1.0000000180025095e-35 1.0000000180025095e-35 68.500000000000014 2.5000000000000004 30.500000000000004 31.500000000000004 17.500000000000004 11.500000000000002 66.500000000000014 51.500000000000007 75.500000000000014 77.500000000000014 36.500000000000007 37.500000000000007 50.500000000000007 1.0000000180025095e-35
decision_type=2 2 2 2 2 2 2 2 2 2 2 2 2 2 2 2
left_child=14 2 3 -2 6 -6 7 -5 9 12 -4 -12 -7 -14 15 -1
right_child=1 -3 10 4 5 8 -8 -9 -10 -11 11 -13 13 -15 -16 -17
leaf_value=-4.1894942599232694 -4.2277516614032526 -4.2002280354381023 -4.2193204778280453 0.52120888605748661 -4.2860087831554781 1.2600990096736 1.5629460478880848 -3.8154208062886621 1.3860817065737239 -3.9447741924118964 1.1908248803187309 -3.8160141134562071 -4.2618996215860934 -0.21820682212840437 -4.298912532758866 -3.391940715686105
leaf_weight=721.90729469060898 6.9026992321014395 237.3036060333252 28.745700180530548 3.8711083531379709 3.2492435574531582 4.0576677918434205 12.375109434127808 2.0366072058677673 5.845529079437255 3.2958834171295157 1.6013018488883961 2.6429253816604614 1.7101281881332386 9.7477306723594648 3016.8837765455246 28.465861022472382
leaf_count=46435 444 15264 1849 249 209 261 796 131 376 212 103 170 110 627 194054 1831
internal_value=-4.21807 -3.60091 -1.94977 -0.724422 -0.198983 -0.82565 0.752775 -0.959054 -0.36612 -0.915233 -3.92441 -1.90648 -0.277293 -0.82934 -4.27105 -4.15912
internal_weight=0 323.385 86.0816 53.0917 46.189 27.9062 18.2828 5.90772 24.6569 18.8114 32.9899 4.24423 15.5155 11.4579 3767.26 750.373
internal_count=263121 20801 5537 3415 2971 1795 1176 380 1586 1210 2122 273 998 737 242320 48266
shrinkage=1


Tree=11
num_leaves=17
num_cat=0
split_feature=16 17 1 1 1 18 1 1 1 9 0 8 2 3 3 23
split_gain=2327.25 10135.2 8101.27 3785.2 3323.18 708.142 654.778 923.114 655.036 518.35 386.688 247.543 217.6 211.478 204.237 172.164
threshold=1.0000000180025095e-35 1.0000000180025095e-35 68.500000000000014 2.5000000000000004 69.500000000000014 1.0000000180025095e-35 2.5000000000000004 68.500000000000014 69.500000000000014 0.62927773100000006 182.50000000000003 9.0491833550508556 6.5000000000000009 5.5000000000000009 17.500000000000004 1.0000000180025095e-35
decision_type=2 2 2 2 2 2 2 2 2 2 2 2 2 2 2 2
left_child=1 5 3 10 9 6 -1 -8 13 -4 -3 -11 -13 -9 -15 -14
right_child=-2 2 4 -5 -6 -7 7 8 -10 11 -12 12 15 14 -16 -17
leaf_value=-4.2239352397711736 -4.6556829909965689 -2.2335502150135769 -1.8243683552061096 -4.5165489296314734 -4.2140276879515559 -4.6601661806906653 -4.6341404523854068 -4.2195328954200964 -4.6361570823708513 0.022661250714326897 -0.23695410290126695 -1.770649452952529 -0.066455566795553089 -4.4551220646473411 -4.2923773715100104 -1.8955972908153615
leaf_weight=83.87929393351078 1450.500992083922 3.2193419858813277 7.9381035268306794 32.755702191963792 4.5092838089913121 328.63748601078987 391.2823530100286 70.340417362749577 127.17503358609974 3.8036746066063625 1.675821855664253 3.3957442864775658 2.7673110906034712 279.64174702018499 108.44331429153681 0.98123779706656922
leaf_count=7608 131563 292 720 2971 409 29808 35490 6380 11535 345 152 308 251 25364 9836 89
internal_value=-4.56612 -4.47655 -3.21541 -4.12623 -1.75332 -4.53202 -4.49224 -4.51536 -4.43585 -1.1704 -1.53225 -0.704175 -1.10333 -4.3801 -4.40942 -0.522041
internal_weight=0 1450.45 61.0462 37.6509 23.3954 1389.4 1060.76 976.883 585.601 18.8861 4.89516 10.948 7.14429 458.425 388.085 3.74855
internal_count=263121 131558 5537 3415 2122 126021 96213 88605 53115 1713 444 993 648 41580 35200 340
shrinkage=1


Tree=12
num_leaves=17
num_cat=0
split_feature=17 16 15 16 19 18 9 20 15 8 15 5 1 12 1 15
split_gain=31349.7 7384.79 3586.71 3535.79 5067.93 1056.04 779.917 779.861 378.87 340.938 328.41 236.047 201.946 192.311 182.564 153.393
threshold=1.0000000180025095e-35 1.0000000180025095e-35 79075.000000000015 1.0000000180025095e-35 1.0000000180025095e-35 1.0000000180025095e-35 2.9999358182941402 1.0000000180025095e-35 79075.000000000015 5.3932617410331014 39000.000000000007 14.280840660529444 77.500000000000014 71.579921385172412 82.500000000000014 99000.000000000015
decision_type=2 2 2 2 2 2 2 2 2 2 2 2 2 2 2 2
left_child=3 -2 10 -1 5 7 11 15 -6 -9 -3 -4 -11 -8 -14 -5
right_child=1 2 6 4 8 -7 13 9 -10 12 -12 -13 14 -15 -16 -17
leaf_value=-2.8436366496280203 -2.6830061393192852 -2.4239359602932495 -1.9318802281909355 -2.6686987455413007 -2.4742038676084515 -2.8571383404232926 -1.8561872396453856 -2.636971836309169 -2.2465054336772377 -2.8007143991235997 -2.2577372729755378 -2.1209271669606071 -2.7488560697646554 -1.6142331550376345 -2.8451898113719745 -2.5456504897758752
leaf_weight=8023.1301074847579 352.51324307173491 243.51872038096189 106.89357686787844 252.55915392190218 133.1872321665287 1056.1390986666083 131.27728141844273 221.17229662835598 168.83964613080025 1155.3928725421429 242.56374500691891 198.44388272613287 4036.4899110049009 49.085734225809574 206.72033596783876 173.67818802595139
leaf_count=126021 5537 3825 1679 3967 2092 16589 2062 3474 2652 18148 3810 3117 63402 771 3247 2728
internal_value=-2.75756 -2.29065 -2.14841 -2.79765 -2.74782 -2.76487 -1.95602 -2.74877 -2.34663 -2.75864 -2.34082 -2.05446 -2.76364 -1.78986 -2.75357 -2.61836
internal_weight=0 1324.3 971.783 15427.3 7404.18 7102.15 485.7 6046.01 302.027 5619.78 486.082 305.337 5398.6 180.363 4243.21 426.237
internal_count=263121 20801 15264 242320 116299 111555 7629 94966 4744 88271 7635 4796 84797 2833 66649 6695
shrinkage=1


Tree=13
num_leaves=17
num_cat=0
split_feature=21 1 1 1 6 1 1 1 0 1 13 6 3 3 1 23
split_gain=20071 7633.56 2022.16 2728.82 1084.91 937.145 778.669 658.517 502.384 433.918 460.968 427.068 399.055 508.614 356.613 319.57
threshold=1.0000000180025095e-35 69.500000000000014 1.0000000180025095e-35 36.500000000000007 17.597394550416503 81.500000000000014 86.500000000000014 38.500000000000007 18.500000000000004 68.500000000000014 263100.00000000006 7.4683997398374959 3.5000000000000004 18.500000000000004 68.500000000000014 1.0000000180025095e-35
decision_type=2 2 2 2 2 2 2 2 2 2 2 2 2 2 2 2
left_child=-1 2 11 -4 7 -3 -7 -5 -6 -9 12 -2 -11 15 -10 -14
right_child=1 5 3 4 8 6 -8 9 14 10 -12 -13 13 -15 -16 -17
leaf_value=-5.217262314796268 -3.2329726352281432 -4.7525620367631625 -4.4296880505453711 0.14263230805750915 -4.5359748851712096 0.41352634862105653 -5.004207299875187 -3.4141163907615324 -1.2952959858843114 -3.5834006631234079 0.019612787983595226 1.7895053536245422 -1.6867316938864851 -3.1525872922842173 1.5945017814581872 -2.8582091195844526
leaf_weight=1563.2776939719915 0.256921187043189 38.394051536917686 9.267961844801901 0.87729185819625755 0.30705215036868994 0.6579688936471928 0.50130963325500488 7.6637710183858898 1.1216803044080734 3.8350186944007936 0.76449719071388145 1.1843440085649488 9.0925034731626528 6.6987499743700019 1.02768474817276 3.885149657726287
leaf_count=249471 41 6127 1479 140 49 105 80 1223 179 612 122 189 1451 1069 164 620
internal_value=-5.13565 -3.64409 -2.76745 -2.88985 -2.48773 -4.66541 -1.8542 -2.64511 -0.420516 -2.72441 -2.51026 0.954586 -2.59622 -2.40824 0.126911 -2.03073
internal_weight=0 85.536 45.9826 44.5414 35.2734 39.5533 1.15928 32.817 2.45642 31.9397 24.2759 1.44127 23.5114 19.6764 2.14937 12.9777
internal_count=263121 13650 7338 7108 5629 6312 185 5237 392 5097 3874 230 3752 3140 343 2071
shrinkage=1


Tree=14
num_leaves=17
num_cat=0
split_feature=17 16 1 15 1 1 1 1 1 5 15 11 12 0 1 1
split_gain=29484.8 4133.63 4269.63 3898.58 2524.35 846.039 1004.83 786.207 4609.34 745.822 565.165 392.48 314.814 284.702 279.259 550.532
threshold=1.0000000180025095e-35 1.0000000180025095e-35 77.500000000000014 79075.000000000015 79.500000000000014 33.500000000000007 30.500000000000004 31.500000000000004 30.500000000000004 10.964403104092815 35225.000000000007 9.4077250988570622 42.461743049987355 16.500000000000004 33.500000000000007 12.500000000000002
decision_type=2 2 2 2 2 2 2 2 2 2 2 2 2 2 2 2
left_child=-1 2 7 5 -4 6 -3 8 -2 -5 13 -12 14 -7 15 -11
right_child=1 3 4 9 -6 10 -8 -9 -10 12 11 -13 -14 -15 -16 -17
leaf_value=-4.6788236534912819 -4.3930177549450473 -2.0868731734315284 3.5739502631216693 -4.1350352167779629 -4.1178852340152972 -3.7439111538782277 2.1972350267285732 -4.6139235331426134 0.409565115492728 -3.2302863829944135 -3.1879338115962117 -2.1668239038370465 -3.9134379104973469 -2.4564422750810664 -3.423273956147451 0.26762499119368766
leaf_weight=2623.2931331545115 17.537697572261099 3.0528584662824865 1.1042254026979197 28.525822903029621 0.73615026846528042 2.0460647167637935 0.71449878998100746 38.301465438678861 2.2625795016065231 1.8728528888896101 37.099808382801712 4.5035075247287741 14.25749858189374 35.237781233154237 37.283845949918032 0.64954435452818859
leaf_count=242320 1620 282 102 2635 68 189 66 3538 209 173 3427 416 1317 3255 3444 60
internal_value=-4.58456 -3.48645 -4.19985 -3.2282 0.544511 -2.74172 -1.25127 -4.35162 -3.83983 -3.71611 -2.814 -3.07531 -3.49668 -2.52476 -3.34959 -2.29503
internal_weight=0 225.186 59.9421 165.244 1.84038 82.6545 3.76736 58.1017 19.8003 82.5896 78.8872 41.6033 54.0637 37.2838 39.8062 2.5224
internal_count=263121 20801 5537 15264 170 7635 348 5367 1829 7629 7287 3843 4994 3444 3677 233
shrinkage=1


Tree=15
num_leaves=17
num_cat=0
split_feature=20 18 17 16 9 1 5 4 1 19 1 12 15 1 16 1
split_gain=39399.3 23368.1 4530.63 754.335 294.114 161.444 136.217 133.87 94.5214 74.9689 75.8214 70.0706 69.7162 62.7957 62.1275 53.4724
threshold=1.0000000180025095e-35 1.0000000180025095e-35 1.0000000180025095e-35 1.0000000180025095e-35 2.9999358182941402 68.500000000000014 23.209625207617204 36019.023845995609 3.5000000000000004 1.0000000180025095e-35 1.0000000180025095e-35 30.56515154539019 81100.000000000015 69.500000000000014 1.0000000180025095e-35 68.500000000000014
decision_type=2 2 2 2 2 2 2 2 2 2 2 2 2 2 2 2
left_child=1 2 7 5 6 8 -5 -1 -4 10 11 -9 -10 -7 -11 -12
right_child=-2 -3 3 4 -6 13 -8 9 12 14 15 -13 -14 -15 -16 -17
leaf_value=0.37599726321936167 -0.10228204499350513 -0.023380726813759498 0.34894045845285288 0.12419965546133566 0.046716128614683411 0.37251428443813256 0.18989938154747693 1.1463271790737777 0.25916071777343697 0.34043730626433755 0.31094685819476603 0.40438106296719489 0.10931623025268729 0.20038253454575733 0.28078298303932853 0.36400634388963127
leaf_weight=1726.0619501312149 14814.467286929488 4158.4505688622594 43.924584090709686 640.66627552942373 298.82544504757971 186.51973974704742 647.04028187226504 2.4922561571001998 58.016724664019421 387.58001457035931 279.06691397726536 3.7468075212091208 73.441758500644937 26.570634156698361 371.97812046808161 876.1425874568522
leaf_count=10637 173176 46397 456 6172 3003 1713 6089 62 1202 2244 1718 55 1757 409 2558 5473
internal_value=0 0.156327 0.289266 0.167194 0.13651 0.292285 0.15728 0.355348 0.219891 0.336748 0.353291 0.71471 0.176109 0.351459 0.311337 0.351264
internal_weight=0 9780.52 5622.07 1975.01 1586.53 388.473 1287.71 3647.07 175.383 1921.01 1161.45 6.23906 131.458 213.09 759.558 1155.21
internal_count=263121 89945 43548 20801 15264 5537 12261 22747 3415 12110 7308 117 2959 2122 4802 7191
shrinkage=0.1


Tree=16
num_leaves=17
num_cat=0
split_feature=20 3 15 1 5 1 3 15 1 8 13 1 4 3 15 13
split_gain=522.748 448.092 108.182 95.5265 119.317 45.4189 44.3449 39.2802 36.6395 35.1352 34.6379 31.616 29.4477 28.1536 50.443 35.9209
threshold=1.0000000180025095e-35 5.5000000000000009 67750.000000000015 50.500000000000007 10.319075594376901 1.5000000000000002 22.500000000000004 62750.000000000007 51.500000000000007 11.60454455538027 94026.83980582525 1.0000000180025095e-35 26441.709809544504 1.0000000180025095e-35 223775.00000000003 45565.500000000007
decision_type=2 2 2 2 2 2 2 2 2 2 2 2 2 2 2 2
left_child=-1 3 6 -2 -5 10 11 -8 9 -6 -4 12 -3 14 15 -10
right_child=1 2 5 4 8 -7 7 -9 13 -11 -12 -13 -14 -15 -16 -17
leaf_value=-0.093550325364496104 0.050115341504266976 0.66201294846938419 0.33273906846200657 0.037537729034137629 1.2386714537409178 -0.02598961322825934 0.17794172730010122 0.93651011761813496 0.27917465250757995 0.16437127009860955 0.042109372987844312 0.041372105157565425 0.10470245089136479 0.28728987429421815 0.9998489982256169 0.046866549336155548
leaf_weight=422.33596506389449 47.110961319878697 1.6039421148598183 5.6569839348085251 30.521721489727497 0.83507038885727414 515.91061336174607 14.762590573634949 0.78897571982815939 11.821198254358029 0.82398211350664496 18.48919523647055 267.07337872497737 3.5840667774900794 82.609048271086067 0.74322557775303622 17.843957973644137
leaf_count=89945 5173 160 1053 4751 103 96142 2345 126 1434 102 3445 46061 358 9301 102 2520
internal_value=0 0.0387434 0.00669187 0.176269 0.216601 -0.0195783 0.056288 0.222023 0.263501 0.757575 0.113803 0.0465015 0.29378 0.255478 0.166193 0.142373
internal_weight=0 1020.18 827.87 192.309 145.198 540.057 287.813 15.5516 114.676 1.65905 24.1462 272.261 5.18801 113.017 30.4084 29.6652
internal_count=263121 173176 149690 23486 18313 100640 49050 2471 13562 205 4498 46579 518 13357 4056 3954
shrinkage=0.1


Tree=17
num_leaves=17
num_cat=0
split_feature=20 16 10 1 1 3 1 5 1 1 3 3 9 8 13 9
split_gain=1276.13 877.042 197.809 97.1225 121.033 80.3586 83.7955 76.0915 73.7953 137.289 60.9336 52.8434 40.0853 40.7609 36.7929 36.4814
threshold=1.0000000180025095e-35 1.0000000180025095e-35 33.935889323887558 68.500000000000014 5.5000000000000009 18.500000000000004 69.500000000000014 9.1753594621663463 70.500000000000014 72.500000000000014 4.5000000000000009 12.500000000000002 0.55865628034615411 11.158753216673627 246625.00000000003 1.0000000180025095e-35
decision_type=2 2 2 2 2 2 2 2 2 2 2 2 2 2 2 2
left_child=-1 2 14 4 -4 8 7 -7 10 12 -5 -12 -10 -14 -2 -6
right_child=1 -3 3 5 15 6 -8 -9 9 -11 11 -13 13 -15 -16 -17
leaf_value=-0.094270767458897148 0.057521552870978036 -0.025364836962456658 0.19472021377819032 0.21014709389148148 0.37214636752197933 0.76178857559271462 0.016088130857584912 0.26036812341184373 0.17630400175295097 0.021621857471127697 0.042795521544110482 0.13218816078960632 0.3804210672693138 0.21164052141598502 -0.005878958602982611 0.041517618346316232
leaf_weight=1008.9252281767722 265.46863448712975 1127.0263986103237 69.850113532505929 44.665791450999677 3.4549732264131299 3.4012702358886591 14.571698890067635 62.285547363571823 73.82677858043462 42.297120572067797 154.35450664535165 121.2943133469671 29.332869321107864 35.552757751196623 136.11014335323125 264.49476354755461
leaf_count=89945 18628 88271 4743 3100 226 233 1033 4225 1196 3158 10649 8335 724 894 9577 18184
internal_value=0 0.0393756 0.0946771 0.120292 0.0770938 0.145234 0.239435 0.287657 0.129979 0.18162 0.100526 0.0824469 0.22978 0.289283 0.035816 0.0461056
internal_weight=0 2447.99 1320.96 919.383 337.8 581.583 80.2585 65.6868 501.324 181.01 320.315 275.649 138.712 64.8856 401.579 267.95
internal_count=263121 173176 84905 56700 23153 33547 5491 4458 28056 5972 22084 18984 2814 1618 28205 18410
shrinkage=0.1


Tree=18
num_leaves=17
num_cat=0
split_feature=16 20 15 14 3 3 9 8 10 20 3 3 8 11 1 3
split_gain=15302.5 15094 2139.27 543.591 352.06 414.754 198.173 160.931 152.515 145.024 144.163 156.65 124.851 121.291 117.565 113.979
threshold=1.0000000180025095e-35 1.0000000180025095e-35 147175.00000000003 50.406471038278404 19.500000000000004 8.5000000000000018 14.180505867200251 10.098306443392367 96.130923735014164 1.0000000180025095e-35 18.500000000000004 5.5000000000000009 17.012950847970554 5.1158401344243574 53.500000000000007 16.500000000000004
decision_type=2 2 2 2 2 2 2 2 2 2 2 2 2 2 2 2
left_child=9 -2 3 4 5 -3 10 -5 14 -1 11 -4 13 -9 -7 -16
right_child=1 2 6 7 -6 8 -8 12 -10 -11 -12 -13 -14 -15 15 -17
leaf_value=-0.10172533542521733 -0.10190684418282887 0.2200986627425412 0.12419158139998843 0.16845745635194695 0.2299932554035895 0.065872531086799746 -0.011351936374008829 0.13600756344176468 0.22634968846404224 -0.077184702663495475 0.11118953805246222 0.046878453589975409 0.15357480729836781 0.058301370989709757 0.12667536438823959 0.17675320980007977
leaf_weight=3640.2495182263556 3556.261465477779 1140.8840333074327 319.56530795991421 558.84584616869688 1392.0654734522104 206.6286210045223 285.50676912814379 302.85668091475964 220.83465348929167 7333.8576787561178 815.21614234149456 1512.8115862756968 364.60700250416994 618.36037430167198 1207.9764962345359 755.04762988537573
leaf_count=46653 43292 9554 3187 5013 11151 1894 2945 2800 1952 84905 8152 15115 3261 5784 10929 6534
internal_value=0 0.0743126 0.13892 0.169842 0.187223 0.170339 0.0675378 0.123404 0.146554 -0.0853331 0.0760778 0.0604093 0.103755 0.0839423 0.138392 0.145981
internal_weight=0 13257.5 9701.21 6768.11 4923.44 3531.37 2933.1 1844.67 2390.49 10974.1 2647.59 1832.38 1285.82 921.217 2169.65 1963.02
internal_count=263121 131563 88271 58872 42014 30863 29399 16858 21309 131558 26454 18302 11845 8584 19357 17463
shrinkage=0.1


Tree=19
num_leaves=17
num_cat=0
split_feature=16 20 1 1 1 3 1 1 7 3 1 1 1 1 15 3
split_gain=29953.6 28334.3 6742.76 2789.85 2573.32 1589.25 781.333 593.136 649.146 609.205 532.747 1062.23 410.137 5319.55 333.947 326.831
threshold=1.0000000180025095e-35 1.0000000180025095e-35 68.500000000000014 69.500000000000014 2.5000000000000004 7.5000000000000009 43.500000000000007 72.500000000000014 66.95721725753377 17.500000000000004 53.500000000000007 51.500000000000007 76.500000000000014 72.500000000000014 39000.000000000007 16.500000000000004
decision_type=2 2 2 2 2 2 2 2 2 2 2 2 2 2 2 2
left_child=1 -1 4 -4 -3 14 -7 9 -9 -5 11 15 13 -2 -6 -8
right_child=12 2 3 7 5 6 10 8 -10 -11 -12 -13 -14 -15 -16 -17
leaf_value=-0.10743997321784776 -0.088700440296767311 0.21778199240312834 0.248965158838304 -0.017958001913737379 0.30328034152799077 -0.037407951245107408 0.0021655821821048482 0.1827498334126651 -0.02347626849934472 0.2625235653992109 -0.010373965401907104 0.25108340807333079 -0.10422178597403103 0.62348896563006018 0.13906991803183835 0.10595267083555629
leaf_weight=5477.0244236936705 3033.2957060983972 1085.711901396513 6507.4645915478468 507.21560657024384 149.45703572034836 1493.7327541708946 705.09863685071468 919.02703934907913 182.16054691374302 91.314822912216187 819.387735709548 321.69554395973682 13602.492537982762 108.61044535040855 760.76854883134365 534.94571247696877
leaf_count=46653 24087 6122 35260 3569 898 11161 5052 5424 1175 507 5909 1722 106637 839 4607 3499
internal_value=0 0.085536 0.160619 0.219158 0.0787691 0.0472096 0.0192524 0.104989 0.148556 0.0246883 0.0548333 0.0891009 -0.0966898 -0.0640535 0.166129 0.0470087
internal_weight=0 19555 14078 8207.18 5870.8 4785.09 3874.86 1699.72 1101.19 598.53 2381.13 1561.74 16744.4 3141.91 910.226 1240.04
internal_count=263121 131558 84905 45935 38970 32848 27343 10675 6599 4076 16182 10273 131563 24926 5505 8551
shrinkage=0.1


Tree=20
num_leaves=4
num_cat=0
split_feature=18 1 3
split_gain=130781 0.56195 0.700068
threshold=1.0000000180025095e-35 5.5000000000000009 5.5000000000000009
decision_type=2 2 2
left_child=-1 -2 -3
right_child=1 2 -4
leaf_value=-0.10896013925562542 0.30858292086374423 0.31216798435675153 0.31863159368818778
leaf_weight=28220.828070397154 889.35287979245186 1897.5414208471775 6926.0097450166941
leaf_count=216724 4259 9106 33032
internal_value=0 0.316467 0.317251
internal_weight=0 9712.9 8823.55
internal_count=263121 46397 42138
shrinkage=0.1


Tree=21
num_leaves=17
num_cat=0
split_feature=17 16 1 1 1 12 1 21 1 1 19 1 10 1 1 1
split_gain=1999.97 353.634 175.711 904.451 193.439 427.071 1294.27 122.291 541.268 11235 116.366 110.231 89.4435 172.912 171.427 354.379
threshold=1.0000000180025095e-35 1.0000000180025095e-35 13.500000000000002 12.500000000000002 31.500000000000004 27.33639150393363 30.500000000000004 1.0000000180025095e-35 31.500000000000004 30.500000000000004 1.0000000180025095e-35 77.500000000000014 93.990282465000021 77.500000000000014 52.500000000000007 60.500000000000007
decision_type=2 2 2 2 2 2 2 2 2 2 2 2 2 2 2 2
left_child=7 2 3 -2 5 -4 -7 10 9 -9 -1 -6 -3 14 -14 -16
right_child=1 12 4 -5 11 6 -8 8 -10 -11 -12 -13 13 -15 15 -17
leaf_value=-0.093667667855731856 -0.067127061901158455 0.30311523465399176 -0.64648674160218889 4.2933629354382878 -0.029591684887621702 0 10.162284738572474 0.047989410967668782 -0.045532555559788197 20.7210741165805 0.062441301983541989 0.8858304569296197 0 0.24860960429839377 0.65848390584542971 -2.1567781160995643
leaf_weight=1043.198137403233 3.262469782261181 170.33619324740721 11.451144211227074 0.54997892538085569 13.82682453538291 0.74407251260709095 0.14752080431208014 6.4415273201884693 53.673551547923125 0.27446591062471259 49.361533322021614 1.4400495229492651 13.654501173412426 56.1438915040344 0.68167700665071507 1.1194981057196853
leaf_count=219573 697 12431 542 73 3538 472 45 1526 12066 58 9097 170 193 2500 96 44
internal_value=0 0.221975 -0.0915817 0.539081 -0.181819 -0.476914 1.60336 -0.0788458 0.0588257 0.905807 -0.086535 0.0510543 0.263058 0.166547 -0.125921 -1.04298
internal_weight=0 273.358 31.4221 3.81245 27.6096 12.3427 0.891593 1152.95 60.3895 6.71599 1092.56 15.2669 241.936 71.5996 15.4557 1.80118
internal_count=263121 20801 5537 770 4767 1059 517 242320 13650 1584 228670 3708 15264 2833 333 140
shrinkage=0.1


Tree=22
num_leaves=17
num_cat=0
split_feature=20 1 1 16 1 3 1 1 1 1 1 1 1 3 1 1
split_gain=28279.2 8579.77 2470.87 2453.63 2333.49 955.259 767.547 633.345 600.515 747.601 553.064 358.002 329.06 309.918 497.42 1794.84
threshold=1.0000000180025095e-35 68.500000000000014 87.500000000000014 1.0000000180025095e-35 2.5000000000000004 7.5000000000000009 59.500000000000007 37.500000000000007 67.500000000000014 51.500000000000007 54.500000000000007 53.500000000000007 33.500000000000007 18.500000000000004 69.500000000000014 71.500000000000014
decision_type=2 2 2 2 2 2 2 2 2 2 2 2 2 2 2 2
left_child=-1 3 13 4 -2 -6 11 -7 9 -9 -11 12 -5 14 -3 -16
right_child=1 2 -4 6 5 7 -8 8 -10 10 -12 -13 -14 -15 15 -17
leaf_value=-0.11479928227668534 0.0201596479481253 -0.0074172797848013096 0.19518013542464796 0.026121446407298549 0.088209336564482613 0.23153051127010454 0.25083837838027984 0.17888408786563831 0.25027500828428745 0.00042809755764463338 0.15596183126267232 0.007573374453790813 0.11763902471271181 -0.010463890678588526 0.18539181880283162 0.018759150468351717
leaf_weight=14294.907587870577 1140.1339757442474 5349.0419097840786 745.36107084155083 749.6402045711875 1086.7719269245863 2297.078133225441 183.39193747937679 2022.7055986374617 664.28905765712261 511.22078740596771 415.246916025877 1638.6761956363916 832.4080298691988 5508.6027316451073 694.92639285326004 9297.1461171209812
leaf_count=89945 6122 29269 3451 4002 5505 10269 847 9443 2962 2748 1921 8825 4105 29841 3688 50178
internal_value=0 0.0534766 0.0162724 0.123081 0.152908 0.174525 0.0517546 0.190382 0.164199 0.144781 0.070233 0.0403915 0.0743292 0.00987238 0.0171803 0.0303568
internal_weight=0 33136.6 21595.1 11541.6 8137.45 6997.31 3404.12 5910.54 3613.46 2949.17 926.468 3220.72 1582.05 20849.7 15341.1 9992.07
internal_count=263121 173176 116427 56749 38970 32848 17779 27343 17074 14112 4669 16932 8107 112976 83135 53866
shrinkage=0.1


Tree=23
num_leaves=17
num_cat=0
split_feature=16 20 15 1 1 9 1 1 1 15 1 1 1 1 1 20
split_gain=20249.1 20672.7 2384.54 856.808 616.797 446.992 705.852 548.465 443.489 317.249 328.765 270.108 219.735 196.026 733.425 179.063
threshold=1.0000000180025095e-35 1.0000000180025095e-35 108159.92869875224 78.500000000000014 78.500000000000014 14.180505867200251 53.500000000000007 54.500000000000007 72.500000000000014 291950.00000000006 53.500000000000007 33.500000000000007 52.500000000000007 56.500000000000007 76.500000000000014 1.0000000180025095e-35
decision_type=2 2 2 2 2 2 2 2 2 2 2 2 2 2 2 2
left_child=5 -2 4 9 12 15 -7 -8 -9 10 11 -4 -3 -12 -15 -1
right_child=1 2 3 -5 -6 6 7 8 -10 -11 13 -13 -14 14 -16 -17
leaf_value=-0.10518386834965465 -0.1052483668621417 0.048265581691399911 0.17324642031001258 -0.052759660220280807 -0.054841840164591794 -0.075877794737409132 0.56789033958866786 -0.097219852285811259 0.25874067622884733 0.25970622600239918 0.25495984167394103 0.0087307055993582922 0.11338913171109043 -0.092992361179058444 0.19367608988847568 -0.08101792121337148
leaf_weight=4685.6764860703588 4628.1401290333124 572.69896919280291 225.41553483903408 141.78855932503939 241.38983803987503 348.88352951034904 29.190246917307377 66.073778664693236 73.867199029540643 685.96199613809586 486.47480717301369 181.16688171774149 5965.1025655567646 90.906403630971909 3929.6459898799658 9097.8172070980072
leaf_count=45493 43292 4483 1537 1238 2122 3095 239 611 456 4281 3214 1455 43404 624 25913 81664
internal_value=0 0.0753299 0.142086 0.189525 0.101897 -0.0858118 0.00522393 0.173035 0.0900503 0.195676 0.186719 0.100155 0.107698 0.194509 0.187173 -0.0892394
internal_weight=0 17148.7 12520.6 5741.36 6779.19 14301.5 518.015 169.131 139.941 5599.57 4913.61 406.582 6537.8 4507.03 4020.55 13783.5
internal_count=263121 131563 88271 38262 50009 131558 4401 1306 1067 37024 32743 2992 47887 29751 26537 127157
shrinkage=0.1


Tree=24
num_leaves=17
num_cat=0
split_feature=17 5 1 16 19 1 13 1 2 21 3 0 8 2 0 13
split_gain=2117.27 191.624 165.509 121.911 97.5177 73.4742 131.658 87.9295 56.2188 55.1254 54.1363 37.178 54.0275 53.0104 44.8803 46.6835
threshold=1.0000000180025095e-35 5.5900565377366958 52.500000000000007 1.0000000180025095e-35 1.0000000180025095e-35 56.500000000000007 124500.00000000001 72.500000000000014 8.5000000000000018 1.0000000180025095e-35 7.5000000000000009 90.500000000000014 15.609719512658101 5.5000000000000009 119.50000000000001 104020.65552584671
decision_type=2 2 2 2 2 2 2 2 2 2 2 2 2 2 2 2
left_child=3 -2 -3 -1 9 6 -4 -7 -8 -5 -9 12 -12 -14 15 -13
right_child=1 2 5 4 -6 7 8 10 -10 -11 11 14 13 -15 -16 -17
leaf_value=-0.090123187211364253 0.0084749193989226614 0.07361559413990984 0.37129074038130966 -0.044325074397259315 0.14290624949241912 0.026861158355688555 0.85443756039518604 0.40935826559128907 2.1167142238775347 0.086122510348896508 0.17393374802139083 0.66564992960479119 0.10198084333393696 0.81825200799873032 0.28959773615572726 0.25263627082579782
leaf_weight=626.8000654367288 29.602543434477411 33.947827302094083 7.7505697691813094 555.57879817578953 31.714768703724644 11.68962990969885 1.6992031168192627 50.996354859569692 0.68416734552010883 33.977548916707747 46.206944720994215 7.9083423255942744 2.0992957009002557 2.8621252979064593 65.821634006599197 5.5069226010527927
leaf_count=126021 1051 3903 522 104860 4744 2456 129 3514 52 6695 3335 565 152 215 4527 380
internal_value=0 0.251418 0.281374 -0.0589468 -0.0273528 0.315651 0.587318 0.300942 1.25331 -0.0366594 0.318124 0.281779 0.210424 0.532724 0.326758 0.502597
internal_weight=0 266.776 237.173 1248.07 621.271 203.225 10.1339 193.091 2.38337 589.556 181.402 130.405 51.1684 4.96142 79.2369 13.4153
internal_count=263121 20801 19750 242320 116299 15847 703 15144 181 111555 12688 9174 3702 367 5472 945
shrinkage=0.1


Tree=25
num_leaves=17
num_cat=0
split_feature=1 21 1 1 19 1 1 1 17 1 9 18 1 10 1 10
split_gain=1422.77 830.033 985.3 828.851 546.286 965.399 767.911 342.881 238.687 250.281 196.386 169.355 152.769 149.871 138.954 132.889
threshold=50.500000000000007 1.0000000180025095e-35 15.500000000000002 30.500000000000004 1.0000000180025095e-35 17.500000000000004 36.500000000000007 2.5000000000000004 1.0000000180025095e-35 86.500000000000014 1.7927681712749404 1.0000000180025095e-35 40.500000000000007 69.904691394682487 36.500000000000007 71.861295145147452
decision_type=2 2 2 2 2 2 2 2 2 2 2 2 2 2 2 2
left_child=1 4 -3 10 7 -6 13 -1 -2 -10 -4 14 -8 -7 -9 -11
right_child=8 2 3 -5 5 6 12 11 9 15 -12 -13 -14 -15 -16 -17
leaf_value=-0.088395908077574289 -0.079262129272259674 0.045802189330444408 1.7127045323558268 0.73528411904774837 -0.048432366941877636 1.6578316187638629 -0.053386660577257175 0.10460464151666958 0.0042301845382490605 2.2302486178836967 3.3854276867903361 -0.093474792216745858 0.54911781526977443 0.89207092822005429 0.021851540003625821 0.40850702435944258
leaf_weight=203.21027790522203 2731.8540739372838 17.884859901154414 1.8329526996240013 11.703675757162271 31.001291889697235 7.3028506501394777 6.6583359502255925 461.3289826719556 321.42536067866604 0.73672300949692626 1.6128422124311326 70.035399636253715 10.397770188748837 4.9689836879781168 367.77330469340086 1.2178328735753892
leaf_count=13119 194054 1306 117 851 940 221 196 16878 16846 45 103 4539 306 168 13356 76
internal_value=0 0.0590014 0.553524 1.14717 0.044876 0.338016 0.749482 0.0287541 -0.0696415 0.0113623 2.5209 0.0553275 0.30881 1.35486 0.068002 1.1397
internal_weight=0 1195.71 33.0343 15.1495 1162.68 60.3292 29.3279 1102.35 3055.23 323.38 3.44579 899.138 17.0561 12.2718 829.102 1.95456
internal_count=263121 52100 2377 1071 49723 1831 891 47892 211021 16967 220 34773 502 389 30234 121
shrinkage=0.1


Tree=26
num_leaves=17
num_cat=0
split_feature=16 18 12 19 1 17 1 1 17 19 6 1 1 1 1 1
split_gain=1288.03 632.367 294.356 141.968 110.157 122.982 118.354 310.528 117.546 87.0791 143.111 83.6362 146.747 82.0285 169.979 110.32
threshold=1.0000000180025095e-35 1.0000000180025095e-35 20.784753244718253 1.0000000180025095e-35 69.500000000000014 1.0000000180025095e-35 68.500000000000014 2.5000000000000004 1.0000000180025095e-35 1.0000000180025095e-35 7.9438079670793007 74.500000000000014 75.500000000000014 2.5000000000000004 68.500000000000014 69.500000000000014
decision_type=2 2 2 2 2 2 2 2 2 2 2 2 2 2 2 2
left_child=1 2 4 13 6 -6 7 8 -1 -8 -11 -7 -13 -4 -15 -16
right_child=-2 -3 3 -5 5 11 9 -9 -10 10 -12 12 -14 14 15 -17
leaf_value=0.2683983982889746 -0.088913820064375482 -0.093893130175927042 0.1233871169789592 0.28178265338432845 -0.051776336949788407 0 0.13954695746145959 -0.033888985269905886 0.065449347101131192 1.7033084237604186 0.29676418987465397 2.9855372463923362 0.452000204529935 -0.068253352662797209 0.062487536251795761 -0.080322493422363694
leaf_weight=69.440323843620661 1299.7168679258821 289.18487925548106 61.1374890524894 20.235085917795004 56.201739543583244 0.77492349967360441 464.65000288211741 143.97657203997875 50.724793903529644 0.78591899108141916 18.94501047860831 0.36130975745618321 0.93861399934394285 222.83666313567664 347.54756074701436 63.581590714282356
leaf_count=4591 131563 29808 2941 1684 5487 47 23366 14941 315 59 1435 22 167 22909 17676 6110
internal_value=0 0.0415395 0.067327 0.0204749 0.10876 -0.0224165 0.119089 0.064656 0.183453 0.148593 0.357201 0.730908 1.22315 0.0127428 0.00193532 0.0401901
internal_weight=0 1811.32 1522.14 715.338 806.799 58.2766 748.523 264.142 120.165 484.381 19.7309 2.07485 1.29992 695.103 633.966 411.129
internal_count=263121 131558 101750 51320 50430 5723 44707 19847 4906 24860 1494 236 189 49636 46695 23786
shrinkage=0.1


Tree=27
num_leaves=17
num_cat=0
split_feature=17 16 19 18 21 15 8 16 1 16 1 1 11 4 9 3
split_gain=18745.5 3207.95 2734.26 937.264 622.157 395.133 268.918 172.526 169.017 148.338 145.003 126.803 117.76 107.718 106.012 103.172
threshold=1.0000000180025095e-35 1.0000000180025095e-35 1.0000000180025095e-35 1.0000000180025095e-35 1.0000000180025095e-35 45275.000000000007 6.1875615179616759 1.0000000180025095e-35 77.500000000000014 1.0000000180025095e-35 82.500000000000014 14.500000000000002 5.1415260447387938 40117.221562742772 1.312191808632255 5.5000000000000009
decision_type=2 2 2 2 2 2 2 2 2 2 2 2 2 2 2 2
left_child=1 -1 3 4 6 9 -3 -7 11 -2 14 -8 -9 -4 -10 -16
right_child=5 2 13 -5 -6 7 8 12 10 -11 -12 -13 -14 -15 15 -17
leaf_value=-0.083872257469444211 0.088234659065451942 0.069490455354544331 0.21029598706710578 -0.098717435601428108 0.12086120272976555 0.22743594498844988 0.046747340957218587 0.32000166234542732 -0.013396546728264883 0.24797685359089844 -0.086039053132471802 -0.055530553093409755 0.38787342473745401 0.31349205226427412 0.074897238176870135 0.011963842838907739
leaf_weight=7222.4481015833771 69.062543582404032 504.47042172029705 249.66805560755284 930.68032581359148 460.07748077809811 148.61558873602189 138.32254535518587 774.13717602356337 1568.3194402568042 439.07414847286418 177.07214821502566 936.03130020201206 411.35306299477816 182.10242922472543 302.04176875203848 1942.4022513777018
leaf_count=126021 1607 7578 2880 16589 6695 3930 2274 6826 24627 5238 3085 15434 3200 1864 4765 30508
internal_value=0 -0.0364741 0.00983013 -0.00530727 0.00909839 0.302024 -0.000119716 0.330748 -0.00707114 0.226437 0.00238818 -0.0422813 0.343626 0.254021 0.00651775 0.0204718
internal_weight=0 14613.6 7391.19 6959.42 6028.74 1842.24 5568.66 1334.11 5064.19 508.137 3989.84 1074.35 1185.49 431.77 3812.76 2244.44
internal_count=263121 242320 116299 111555 94966 20801 88271 13956 80693 6845 62985 17708 10026 4744 59900 35273
shrinkage=0.1


Tree=28
num_leaves=17
num_cat=0
split_feature=21 1 1 16 6 6 3 1 1 1 13 1 3 3 3 1
split_gain=891.888 334.5 172.107 176.772 135.501 135.009 119.636 89.9814 88.5002 86.0972 83.0673 74.3494 58.4078 53.9276 68.4888 61.4083
threshold=1.0000000180025095e-35 1.0000000180025095e-35 1.5000000000000002 1.0000000180025095e-35 17.597394550416503 18.418825674596352 12.500000000000002 48.500000000000007 68.500000000000014 73.500000000000014 257344.00000000003 70.500000000000014 16.500000000000004 3.5000000000000004 18.500000000000004 66.500000000000014
decision_type=2 2 2 2 2 2 2 2 2 2 2 2 2 2 2 2
left_child=-1 -2 5 4 7 -3 -5 -4 -6 10 11 13 -13 -9 15 -15
right_child=1 2 3 6 8 -7 -8 9 -10 -11 -12 12 -14 14 -16 -17
leaf_value=-0.080122810899275185 -0.2851951528027532 0.35998232550718917 -0.063798578259911462 0.38819363012886893 0.030297910436884359 1.6244507234279606 0.12182829527117008 0.27122170354824232 -0.22408863617306266 -0.087413010575509015 -0.044960759050906615 0.38898557359494451 1.742935896984628 0.30928685376740322 0.20781227030059363 0.066300385068695608
leaf_weight=1399.6556107029123 25.803152624517679 9.0511326408013666 43.715638890862465 26.79388780798763 26.456029523164034 0.99655487202107984 49.560547462664545 20.188065573573112 27.205027494579554 25.976557087618858 35.038887653499842 2.5106836557388301 0.44253057241439808 11.124743066728113 49.550559870898724 238.34514930844307
leaf_count=249471 230 735 590 2192 233 81 4273 707 229 186 200 278 49 339 1221 2107
internal_value=0 0.0661758 0.0823208 0.074736 0.0520398 0.494058 0.21644 0.0709844 -0.0970487 0.0865885 0.099486 0.115467 0.621344 0.110514 0.0993725 0.0774849
internal_weight=0 592.759 566.956 556.908 480.554 10.0477 76.3544 426.893 53.6611 383.177 357.201 322.162 2.95321 319.209 299.02 249.47
internal_count=263121 13650 13420 12604 6139 816 6465 5677 462 5087 4901 4701 327 4374 3667 2446
shrinkage=0.1


Tree=29
num_leaves=17
num_cat=0
split_feature=17 13 12 1 1 1 16 4 1 8 7 5 2 3 9 13
split_gain=6285.94 67.5019 101.153 81.4848 129.357 786.557 136.727 73.5465 71.5583 64.2126 58.8195 54.0834 46.3172 54.9982 54.2104 43.7978
threshold=1.0000000180025095e-35 75018.750000000015 71.579921385172412 53.500000000000007 63.500000000000007 60.500000000000007 1.0000000180025095e-35 39309.84231064561 37.500000000000007 10.71913721718945 54.444601400000003 8.9355594248582122 9.5000000000000018 11.500000000000002 2.1322002485460652 217500.00000000003
decision_type=2 2 2 2 2 2 2 2 2 2 2 2 2 2 2 2
left_child=-1 10 3 8 5 7 -6 -5 11 -7 -2 15 13 -8 -15 -3
right_child=1 2 -4 4 6 9 12 -9 -10 -11 -12 -13 -14 14 -16 -17
leaf_value=-0.094154630760496877 0.24015068651441168 0.99040081666563562 0.024265758027394672 0.61930926100502137 -0.07871951697484289 1.4825582535389585 0.26510805346570671 0.071309146891621961 -0.084468958283434009 2.8109879037219319 0.15928993613340281 0.20196031701187619 0.22130617986487025 0.47072478619667113 0.28411482038093683 0.14878264759983584
leaf_weight=2339.4626042654331 354.17896999919321 1.7627865646500134 14.794653329532592 4.0706671094521862 8.3578873169608396 1.0218856269493692 45.937910202890635 7.2493815841153264 7.8445055158808819 1.3804370682337319 131.26983357523568 40.766937869600952 35.96555026806891 53.251161683350801 26.321202054619789 1.3807866338174788
leaf_count=242320 7272 191 1158 137 1102 45 1651 299 569 67 2766 1271 1360 1750 1064 99
internal_value=0 0.240992 0.28437 0.300354 0.332217 0.633598 0.307353 0.276058 0.185664 2.28214 0.218464 0.235905 0.327875 0.35772 0.410091 0.648416
internal_weight=0 735.555 250.106 235.311 183.556 13.7224 169.834 11.32 51.755 2.40232 485.449 43.9105 161.476 125.51 79.5724 3.14357
internal_count=263121 20801 10763 9605 7475 548 6927 436 2130 112 10038 1561 5825 4465 2814 290
shrinkage=0.1


Tree=30
num_leaves=17
num_cat=0
split_feature=20 18 17 16 9 13 5 1 16 5 1 6 19 1 9 3
split_gain=30626 12907.9 1988.44 363.402 167.816 73.408 69.8167 57.4839 46.5462 45.2198 43.4248 39.5955 69.7266 58.9551 91.5581 33.8588
threshold=1.0000000180025095e-35 1.0000000180025095e-35 1.0000000180025095e-35 1.0000000180025095e-35 2.9999358182941402 104650.00000000001 23.209625207617204 68.500000000000014 1.0000000180025095e-35 26.307185253140407 68.500000000000014 17.597394550416503 1.0000000180025095e-35 70.500000000000014 12.051665525121752 2.5000000000000004
decision_type=2 2 2 2 2 2 2 2 2 2 2 2 2 2 2 2
left_child=1 2 5 7 6 -1 -5 9 10 -4 15 -12 13 14 -13 -7
right_child=-2 -3 3 4 -6 8 -8 -9 -10 -11 11 12 -14 -15 -16 -17
leaf_value=0.25506947361611887 -0.10123738878532154 -0.018683515234389957 0.13597448798872633 0.10115526011758427 0.042332027720189992 0.29387105274703312 0.14558418928772285 0.23840730110606706 0.21087387255180301 0.24274191873145365 0.25822581216486173 1.0068383999460482 0.23966597420159286 0.20191912856259464 0.43878775350504368 0.20267127581049485
leaf_weight=3069.0574618221085 13350.645131047815 3952.9058200791478 148.64781530410983 706.77860329137184 306.95474381186068 54.689514920115585 753.25607833592221 278.13361425930634 836.04746927919655 58.952420955523849 332.74767005443573 4.3518840484321144 24.35110966861248 5.832848295569419 11.532275255769489 263.2235295442257
leaf_count=14875 173176 46397 2589 6172 3003 269 6089 2122 4316 826 1607 74 107 30 112 1357
internal_value=0 0.125208 0.208201 0.131138 0.109975 0.245906 0.124136 0.207945 0.227502 0.166713 0.247329 0.271182 0.362873 0.497016 0.5999 0.218634
internal_weight=0 10807.5 6854.56 2252.72 1766.99 4601.83 1460.03 485.734 1532.78 207.6 696.729 378.816 46.0681 21.717 15.8842 317.913
internal_count=263121 89945 43548 20801 15264 22747 12261 5537 7872 3415 3556 1930 323 216 186 1626
shrinkage=0.1


Tree=31
num_leaves=17
num_cat=0
split_feature=20 3 15 12 3 1 1 1 3 1 0 1 6 7 13 3
split_gain=452.998 290.731 89.1101 61.084 59.2173 38.8368 30.4105 190.025 63.8338 62.6811 52.1738 40.6044 40.3173 66.3527 45.2912 37.0988
threshold=1.0000000180025095e-35 6.5000000000000009 122304.51026856242 42.461743049987355 20.500000000000004 50.500000000000007 75.500000000000014 70.500000000000014 17.500000000000004 72.500000000000014 41.500000000000007 71.500000000000014 8.8931613440384627 54.677496920739792 39700.000000000007 12.500000000000002
decision_type=2 2 2 2 2 2 2 2 2 2 2 2 2 2 2 2
left_child=-1 3 4 5 6 -2 7 -3 11 12 -11 15 13 -10 -14 -9
right_child=1 2 -4 -5 -6 -7 -8 8 9 10 -12 -13 14 -15 -16 -17
leaf_value=-0.093475790776511858 0.061290117108817627 0.0082775774921212183 -0.038771933682010019 0.036643202035224191 0.10168797537612691 0.18043005424648154 -0.019769381172795038 0.50631981446754049 3.4716875599008135 1.4190430891349759 0 0.024246461513000972 1.5807881662003644 0.42892361146313773 0 0.14945731630879358
leaf_weight=374.35194691096376 36.320288306102157 240.03652439871803 288.76508713280782 55.985450909938663 95.675004567950964 151.42025125212967 160.48679503286257 6.8531755553558522 0.22800528816878729 0.33906147861853231 1.4843965903855858 6.8859914289787403 0.36601978819817305 0.21610279707238078 0.498537911567837 6.6296358373947442
leaf_count=89945 3659 42741 55798 8351 15620 14629 28169 1215 40 60 269 1270 60 42 88 1165
internal_value=0 0.0346083 0.00563427 0.130361 0.0304756 0.157845 0.0142022 0.0352202 0.306707 0.740412 0.297165 0.235742 1.29151 2.18707 0.730799 0.337303
internal_weight=0 1052.19 808.464 243.726 519.699 187.741 424.024 263.537 23.5009 3.13212 1.82346 20.3688 1.30867 0.444108 0.864558 13.4828
internal_count=263121 173176 146537 26639 90739 18288 75119 46950 4209 559 329 3650 230 82 148 2380
shrinkage=0.1


Tree=32
num_leaves=17
num_cat=0
split_feature=20 16 10 1 1 1 1 3 3 8 12 1 1 13 0 2
split_gain=1106.12 652.055 126.294 53.3064 71.1692 43.9475 36.6931 89.5182 48.8677 52.8405 51.9273 35.7094 35.792 31.0439 33.8331 48.1698
threshold=1.0000000180025095e-35 1.0000000180025095e-35 33.935889323887558 68.500000000000014 11.500000000000002 72.500000000000014 70.500000000000014 15.500000000000002 5.5000000000000009 15.911767572606101 1.6927408248608602 36.500000000000007 39.500000000000007 18580.000000000004 190.50000000000003 8.5000000000000018
decision_type=2 2 2 2 2 2 2 2 2 2 2 2 2 2 2 2
left_child=-1 2 -2 4 -4 6 7 8 9 -5 -11 -6 -13 14 15 -9
right_child=1 -3 3 5 11 -7 -8 13 -10 10 -12 12 -14 -15 -16 -17
leaf_value=-0.094141966537876501 0.032654603727973706 -0.022919542441314302 0.14508411969098964 0.12481897128348807 -0.011968101134462641 0.026321346464086189 0.16332874348540949 0.63530944447971915 0.050434013190097965 1.2381361240135331 0.29529726499204217 0.25856689601074434 0.054902047125337229 0.15691043621315556 0 0
leaf_weight=894.30872394563903 411.41254694480449 1089.1013115933165 88.808232476934791 56.047113165259361 84.508222322911024 53.050405053421855 172.83779007568955 4.810405654832719 219.18574749026448 0.83490110002457996 3.6213396089151502 9.3782575596123916 175.88808326609433 145.74922759737819 2.0198226943612099 1.7354764007031915
leaf_count=89945 28205 88271 5112 3298 5789 3866 3132 266 14365 48 212 620 11632 8151 112 97
internal_value=0 0.0353154 0.079732 0.0986634 0.0670468 0.115712 0.123383 0.107274 0.0729895 0.153263 0.491476 0.0410347 0.0656815 0.16885 0.361847 0.472251
internal_weight=0 2518.99 1429.89 1018.48 358.583 659.892 606.842 434.004 279.689 60.5034 4.45624 269.775 185.266 154.315 8.5657 6.54588
internal_count=263121 173176 84905 56700 23153 33547 29681 26549 17923 3558 260 18041 12252 8626 475 363
shrinkage=0.1


Tree=33
num_leaves=17
num_cat=0
split_feature=16 20 15 1 1 1 9 3 3 20 15 1 1 3 4 10
split_gain=12363.1 10997.5 1179.8 336.363 454.51 359.445 171.027 161.993 195.794 151.478 125.205 117.848 201.593 108.952 91.4206 87.2628
threshold=1.0000000180025095e-35 1.0000000180025095e-35 147175.00000000003 77.500000000000014 56.500000000000007 78.500000000000014 2.1322002485460652 20.500000000000004 8.5000000000000018 1.0000000180025095e-35 198475.00000000003 53.500000000000007 38.500000000000007 16.500000000000004 38909.092533907962 96.277557921298026
decision_type=2 2 2 2 2 2 2 2 2 2 2 2 2 2 2 2
left_child=9 -2 3 4 11 7 -4 8 -5 -1 14 12 -3 -10 -8 -15
right_child=1 2 6 5 -6 -7 10 -9 13 -11 -12 -13 -14 15 -16 -17
leaf_value=-0.10060644620761985 -0.10080533871160378 0.11610223154141808 0.11103460879689693 0.17080646774441466 -0.065882323419709704 0.03480730649893362 0.052366523098779962 0.17935476240670978 0.1067287137315383 -0.074124885889701383 0.031654194894485982 0.13582203167935836 0.001671331534567782 0.13886071750623463 0.11856666123607017 0.25137823514970375
leaf_weight=3222.1956523412955 3170.4086321695067 477.9853499121964 518.45772932469845 1364.6226595565668 164.32738333195448 296.38858852535486 544.0769782140851 1304.5965493395925 1604.2504775002603 6745.4585091359913 1672.4248362183571 786.42906071990728 229.3928390070796 1455.3031849041586 346.56725808233023 74.544360414147377
leaf_count=46653 43292 3794 4575 9747 1427 2450 5029 9096 12905 84905 16596 6116 1907 10909 3199 521
internal_value=0 0.0630034 0.110924 0.131726 0.0916414 0.142608 0.0585261 0.148099 0.139015 -0.0826942 0.0478708 0.109028 0.0791169 0.125145 0.078224 0.1444
internal_weight=0 14009.8 10839.4 7757.84 1658.13 6099.71 3081.53 5803.32 4498.72 9967.65 2563.07 1493.81 707.378 3134.1 890.644 1529.85
internal_count=263121 131563 88271 58872 13244 45628 29399 43178 34082 131558 24824 11817 5701 24335 8228 11430
shrinkage=0.1


Tree=34
num_leaves=17
num_cat=0
split_feature=16 20 1 1 1 3 1 1 1 1 1 1 1 3 3 1
split_gain=24054.2 20091.7 3661.74 1548.25 1543.5 1015.53 670.943 441.414 433.9 411.499 3181.05 386.841 734.673 300.831 287.31 279.135
threshold=1.0000000180025095e-35 1.0000000180025095e-35 68.500000000000014 69.500000000000014 4.5000000000000009 6.5000000000000009 37.500000000000007 83.500000000000014 85.500000000000014 76.500000000000014 72.500000000000014 53.500000000000007 51.500000000000007 20.500000000000004 6.5000000000000009 75.500000000000014
decision_type=2 2 2 2 2 2 2 2 2 2 2 2 2 2 2 2
left_child=1 -1 4 -4 -3 -6 -7 14 -9 10 -2 12 -8 -13 -5 -16
right_child=9 2 3 7 5 6 11 8 -10 -11 -12 13 -14 -15 15 -17
leaf_value=-0.10539690223795467 -0.08525314603997361 0.16490613628079956 0.18656504344451605 0.18834583670914568 0.1373307026913044 -0.039339714575423915 0.040457687365683989 0.31895346377054923 0.023404863334954115 -0.10191018401748562 0.37174660898635903 -0.031273878530289269 0.19371846037938137 0.15233003878411008 0.074322047284877304 -0.032665604500213122
leaf_weight=4859.8546743575571 2780.0394104290608 1283.3877798169851 7595.0084100067616 172.03071154654026 901.5341617166996 1294.1816441193223 1434.346980586648 144.49023497104645 76.706140637397766 12310.31356010586 161.08607842028141 720.86511826515198 400.89599972963333 101.79092176258564 1135.7745174467564 309.27300548553467
leaf_count=46653 24087 6346 35260 987 4814 10261 9683 725 408 106637 839 5280 1847 739 6788 1767
internal_value=0 0.0720976 0.127503 0.166625 0.0673555 0.0415434 0.0196707 0.0841913 0.216857 -0.0938712 -0.0601936 0.0484367 0.0739839 -0.00844994 0.0659905 0.051364
internal_weight=0 20430.1 15570.3 9433.28 6137 4853.61 3952.08 1838.27 221.196 15251.4 2941.13 2657.9 1835.24 822.656 1617.08 1445.05
internal_count=263121 131558 84905 45935 38970 32624 27810 10675 1133 131563 24926 17549 11530 6019 9542 8555
shrinkage=0.1


Tree=35
num_leaves=4
num_cat=0
split_feature=18 3 3
split_gain=91747.2 0.207004 2.3818
threshold=1.0000000180025095e-35 21.500000000000004 8.5000000000000018
decision_type=2 2 2
left_child=-1 2 -2
right_child=1 -3 -4
leaf_value=-0.10690848523840531 0.23174548451200133 0.22929146021248689 0.23722012655812461
leaf_weight=25440.483375190015 3130.3513631373644 1235.8453309834003 6996.3077010661364
leaf_count=216724 12824 5042 28531
internal_value=0 0.234865 0.235536
internal_weight=0 11362.5 10126.7
internal_count=263121 46397 41355
shrinkage=0.1


Tree=36
num_leaves=17
num_cat=0
split_feature=17 16 19 1 1 12 12 16 8 1 14 1 9 1 1 9
split_gain=1243.14 542.576 106.265 83.7277 176.891 350.542 355.133 62.0174 53.817 33.6152 30.8951 28.7996 59.4135 61.8391 45.0373 42.1021
threshold=1.0000000180025095e-35 1.0000000180025095e-35 1.0000000180025095e-35 36.500000000000007 30.500000000000004 21.404111221796104 27.33639150393363 1.0000000180025095e-35 12.28342122329904 77.500000000000014 46.918612387932036 77.500000000000014 0.41563944150000004 60.500000000000007 60.500000000000007 1.587906319310497
decision_type=2 2 2 2 2 2 2 2 2 2 2 2 2 2 2 2
left_child=2 3 -1 4 -2 -6 -7 -4 10 -5 -3 12 13 -10 -14 -13
right_child=1 8 7 9 5 6 -8 -9 11 -11 -12 15 14 -15 -16 -17
leaf_value=-0.090090825066798455 -0.01608917655516981 0.1823038955721529 -0.057187398862276188 -0.024898012901298977 -0.28444272177817215 -0.52093486989923843 -3.2536772248885875 0.16126639546275123 0.063596230925892686 0.32805571661389116 0.28252455857229836 0.19219229559306586 0.17959757861500397 -0.30415219305023156 1.0300360007115719 0.055235530106926528
leaf_weight=991.72003765613727 21.812889723398257 76.009215123252943 24.209490077795408 12.885399713064546 19.206292870338078 1.2932851307559752 0.85152092098724086 27.098691550354715 16.221308339852843 3.3139622401795341 63.907762986433227 112.02465938497335 11.26741218497045 6.2753938622772685 0.72271243063733059 30.479741999879479
leaf_count=233223 1620 3528 4353 3277 281 18 171 4744 434 170 4598 4179 613 59 50 1803
internal_value=0 0.129194 -0.0827967 -0.14745 -0.220542 -0.425339 -1.64646 0.0564937 0.18129 0.0419339 0.228702 0.143317 0.0573552 -0.0351172 0.238118 0.16351
internal_weight=0 376.272 1043.03 59.3634 43.164 21.3511 2.14481 51.3082 316.908 16.1994 139.917 176.991 34.4868 22.4967 11.9901 142.504
internal_count=263121 20801 242320 5537 2090 470 189 9097 15264 3447 8126 7138 1156 493 663 5982
shrinkage=0.1


Tree=37
num_leaves=17
num_cat=0
split_feature=20 1 1 16 1 1 1 3 1 1 1 1 1 3 3 1
split_gain=23140.1 5825 1700.49 1560.45 1453.83 606.947 539.115 502.098 372.333 411.374 341.535 327.731 260.505 241.579 379.354 295.225
threshold=1.0000000180025095e-35 68.500000000000014 86.500000000000014 1.0000000180025095e-35 5.5000000000000009 43.500000000000007 56.500000000000007 8.5000000000000018 67.500000000000014 51.500000000000007 19.500000000000004 54.500000000000007 53.500000000000007 19.500000000000004 8.5000000000000018 69.500000000000014
decision_type=2 2 2 2 2 2 2 2 2 2 2 2 2 2 2 2
left_child=-1 3 13 4 -2 10 12 -7 9 -9 -6 -11 -5 14 -3 -16
right_child=1 2 -4 6 5 7 -8 8 -10 11 -12 -13 -14 -15 15 -17
leaf_value=-0.11141699413114621 0.023038152734826126 -0.0083062507857773176 0.15355231315632414 0.062897833573002104 0.092774754512218449 0.04462860082841047 0.19771148720124498 0.14215041880698373 0.19655364158762872 0.002036251244732367 0.18733619449720856 0.1225244972318601 0.0064370404333476631 -0.011417163333408493 0.0015575913004963 0.03580826677715658
leaf_weight=12774.277396477635 1224.9175549596548 4856.602787822485 854.99783380329609 1651.6163042262197 448.95248678326607 800.73115414381027 217.24439588189125 1930.6882876157761 725.29977139830589 469.09695965051651 2719.4061868339777 437.87029024958611 1624.9795327037573 4312.4138511270285 3690.6250468492508 7947.8403847962618
leaf_count=89945 6485 26466 3640 8107 1932 3895 910 8224 2906 2516 11158 1854 8762 23711 20527 42083
internal_value=0 0.0465002 0.0153287 0.101612 0.124161 0.140595 0.0450704 0.116346 0.132439 0.116021 0.173964 0.0603022 0.0349235 0.00964481 0.0151565 0.0249547
internal_weight=0 33913.3 21662.5 12250.8 8756.96 7532.05 3493.84 4363.69 3562.96 2837.66 3168.36 906.967 3276.6 20807.5 16495.1 11638.5
internal_count=263121 173176 116427 56749 38970 32485 17779 19395 15500 12594 13090 4370 16869 112787 89076 62610
shrinkage=0.1


Tree=38
num_leaves=17
num_cat=0
split_feature=16 20 15 1 1 9 1 1 1 20 13 8 1 1 3 1
split_gain=16193 15005.5 1346.97 495.06 443.486 411.258 510.419 223.069 296.203 185.262 173.153 165.278 168.388 157.836 156.49 154.273
threshold=1.0000000180025095e-35 1.0000000180025095e-35 117404.55801104974 78.500000000000014 78.500000000000014 14.180505867200251 53.500000000000007 54.500000000000007 72.500000000000014 1.0000000180025095e-35 50375.000000000007 14.190510507303001 53.500000000000007 33.500000000000007 5.5000000000000009 73.500000000000014
decision_type=2 2 2 2 2 2 2 2 2 2 2 2 2 2 2 2
left_child=5 -2 4 11 10 9 -7 -8 -9 -1 -3 12 13 -4 -14 -10
right_child=1 2 3 -5 -6 6 7 8 15 -11 -12 -13 14 -15 -16 -17
leaf_value=-0.1035254217438822 -0.10363962187457232 0.072777890506282403 0.1389872579435458 -0.050895953251950898 -0.048533495986799374 -0.07178839240258994 0.3346030908430499 -0.094767256128543753 0.26058811062318116 -0.077587466994873289 0.10341134714502405 0.19495985290185325 0.10302767754394666 0.010558128124348254 0.15824367026753486 -0.066758197285402165
leaf_weight=4154.1505244807013 4130.9492419167982 3283.7566281110048 219.093018040061 121.09073835611343 236.95748279243708 320.01885727420449 43.440517321228981 59.958130287006497 69.558559626340866 8367.6476922854781 4300.0560367554426 815.36260775476694 596.87394824624062 172.66357200592756 4156.2449854239821 17.656917655840516
leaf_count=45493 43292 22387 1300 1123 2237 3095 239 611 330 81664 28554 4445 3417 1362 23446 126
internal_value=0 0.0636919 0.11342 0.148739 0.0859454 -0.0826117 0.00519538 0.134899 0.0753616 -0.0861994 0.0901587 0.152809 0.146112 0.0826053 0.151328 0.193318
internal_weight=0 18033 13902.1 6081.33 7820.77 13032.4 510.633 190.614 147.174 12521.8 7583.81 5960.24 5144.88 391.757 4753.12 87.2155
internal_count=263121 131563 88271 35093 53178 131558 4401 1306 1067 127157 50941 33970 29525 2662 26863 456
shrinkage=0.1


Tree=39
num_leaves=17
num_cat=0
split_feature=17 16 6 19 1 21 5 16 18 3 9 10 6 8 13 3
split_gain=1402.33 121.484 94.7626 75.8044 73.1257 46.7673 28.9153 26.5217 24.0926 23.205 19.9726 20.9485 19.568 16.4738 18.7211 24.4284
threshold=1.0000000180025095e-35 1.0000000180025095e-35 4.1820178621229056 1.0000000180025095e-35 53.500000000000007 1.0000000180025095e-35 19.059512652296153 1.0000000180025095e-35 1.0000000180025095e-35 6.5000000000000009 1.9631324879005916 10.738495533548003 8.1950246627489545 11.07820050626909 39950.000000000007 13.500000000000002
decision_type=2 2 2 2 2 2 2 2 2 2 2 2 2 2 2 2
left_child=1 -1 -2 5 6 8 -4 -8 9 -3 -6 -12 -13 -7 -15 -16
right_child=2 3 4 -5 10 13 7 -9 -10 -11 11 12 -14 14 15 -17
leaf_value=-0.089654502916600112 -0.041093553002403076 0.020796810813061405 -0.0013505995035441153 0.11602565919912632 0.18716181846635482 0.0021748883261254216 -0.024623739796816538 0.25612442369422034 -0.092661158116273401 -0.041824064578528497 0.10357285229018848 0.37029852083100828 0.234763666774084 0 0.40972196435857183 0.091984808987176925
leaf_weight=561.66583177771054 18.67632197218154 68.195372395916024 26.071326510844301 35.7596371814858 206.58724843515665 17.844878746080184 4.155556774036083 10.546565681579523 79.574668599758297 377.00462165335193 10.1084088019561 18.290872087556636 47.921812298547593 6.2509192554280189 4.3948286706790221 7.6046014496076655
leaf_count=126021 81 13738 1988 4744 11328 3320 1499 758 16589 74533 668 1190 3289 1158 820 1397
internal_value=0 -0.0562173 0.174142 -0.0245938 0.18683 -0.0337145 0.0586071 0.170851 -0.0413951 -0.0320363 0.205002 0.252151 0.273519 0.0755392 0.142504 0.215611
internal_weight=0 1158.3 342.358 596.63 323.682 560.87 40.7734 14.7021 524.775 445.2 282.908 76.3211 66.2127 36.0952 18.2503 11.9994
internal_count=263121 242320 20801 116299 20720 111555 4245 2257 104860 88271 16475 5147 4479 6695 3375 2217
shrinkage=0.1


Tree=40
num_leaves=17
num_cat=0
split_feature=1 1 19 1 1 1 21 1 1 17 1 1 17 5 21 7
split_gain=1157.6 357.537 514.922 810.402 638.616 312.985 168.441 486.237 223.76 162.489 153.391 185.083 1689.19 277.786 193.286 136.174
threshold=68.500000000000014 2.5000000000000004 1.0000000180025095e-35 60.500000000000007 66.500000000000014 36.500000000000007 1.0000000180025095e-35 66.500000000000014 67.500000000000014 1.0000000180025095e-35 33.500000000000007 34.500000000000007 1.0000000180025095e-35 17.072677517677857 1.0000000180025095e-35 56.818092214105206
decision_type=2 2 2 2 2 2 2 2 2 2 2 2 2 2 2 2
left_child=1 -1 5 -4 -5 10 9 -8 -9 -7 -3 12 -12 -14 -13 -6
right_child=-2 2 3 4 15 6 7 8 -10 -11 11 14 13 -15 -16 -17
leaf_value=-0.0862584807605975 -0.0768288797198452 0.069302599966899622 0.25043898978899398 0 5.1152471071582646 -0.041573692940832185 0.14465209037285673 0.47777085613736103 3.4032094111702822 0.055343513911772904 0.15975045320541978 0.10023394962970447 4.7980676138622327 2.1650134323369739 1.3098558400930056 2.3988800125794536
leaf_weight=221.69169486733131 2393.9513100731128 428.93637444667934 74.934267316843489 0.7052141772583117 0.57833041343837954 550.50904720369726 27.54848177917302 0.54696491081267484 0.68987730424851179 251.82375597811188 24.391710749827329 73.16197410505265 0.59541151020675842 2.2182711353525519 1.3604511730372895 0.5265762023627758
leaf_count=14959 183242 14999 1527 54 44 39560 1459 46 55 2603 1401 2899 56 134 43 40
internal_value=0 0.0318096 0.0500656 0.302242 2.39868 0.03579 -0.00241561 0.235125 2.17988 -0.0110463 0.0957911 0.206625 0.431167 2.75314 0.123484 3.89946
internal_weight=0 1660.22 1438.53 76.7444 1.81012 1361.78 831.118 28.7853 1.23684 802.333 530.664 101.728 27.2054 2.81368 74.5224 1.10491
internal_count=263121 79879 64920 1665 138 63255 43723 1560 101 42163 19532 4533 1591 190 2942 84
shrinkage=0.1


Tree=41
num_leaves=17
num_cat=0
split_feature=16 18 12 19 1 1 1 17 3 5 4 17 1 1 1 5
split_gain=1137.83 511.973 199.129 90.5151 81.221 73.4639 196.902 72.893 80.3123 65.3982 55.0071 54.4145 52.3875 67.1023 118.464 46.0614
threshold=1.0000000180025095e-35 1.0000000180025095e-35 14.293742146702701 1.0000000180025095e-35 69.500000000000014 68.500000000000014 2.5000000000000004 1.0000000180025095e-35 22.500000000000004 7.112679567903756 13996.036454864652 1.0000000180025095e-35 69.500000000000014 68.500000000000014 2.5000000000000004 35.973508108959201
decision_type=2 2 2 2 2 2 2 2 2 2 2 2 2 2 2 2
left_child=1 2 4 9 5 6 -1 -8 10 -4 -9 15 13 14 -11 -7
right_child=-2 -3 3 -5 -6 11 7 8 -10 12 -12 -13 -14 -15 -16 -17
leaf_value=0.14512751946544361 -0.088259100092784579 -0.093749975486848977 -0.039767002589399879 0.19718297243910141 -0.023878567044001223 0.13451784906363523 -0.047808717324954009 1.7624008426892797 1.7041650402925717 0.10691796137785935 0.11443667408152683 0.07937359821750728 -0.072147996858017149 0.067105416800324752 -0.055753350423614914 0.24995492838176833
leaf_weight=129.57143300771685 1173.7941161263627 255.13928814046085 162.6950388966842 28.810173670932727 53.517813618935179 275.30761077487841 120.47036303141107 0.22242190386168559 0.39646653353702266 65.127302821725777 5.8184002424241044 175.72484394907951 44.46594568763976 345.53599053877406 142.89471922598756 42.111849345266819
leaf_count=4542 131563 29808 14036 1842 5109 18660 12640 27 74 2651 1192 1069 4565 16404 16084 2855
internal_value=0 0.0376319 0.0587334 0.0229245 0.093827 0.102346 0.0582987 -0.0296667 0.29633 0.0162105 0.189523 0.125079 0.031585 0.0400749 -0.00440598 0.150107
internal_weight=0 1847.81 1592.67 789.529 803.141 749.623 256.479 126.908 6.43729 760.719 6.04082 493.144 598.024 553.558 208.022 317.419
internal_count=263121 131558 101750 55582 46168 41059 18475 13933 1293 53740 1219 22584 39704 35139 18735 21515
shrinkage=0.1


Tree=42
num_leaves=17
num_cat=0
split_feature=17 16 19 18 21 8 5 1 1 1 2 15 9 3 7 0
split_gain=11832.1 2906.99 1749.47 828.971 467.678 206.113 178.523 141.788 125.472 106.857 87.26 86.8647 85.3996 80.3303 110.162 76.7587
threshold=1.0000000180025095e-35 1.0000000180025095e-35 1.0000000180025095e-35 1.0000000180025095e-35 1.0000000180025095e-35 6.1875615179616759 23.870318349430303 77.500000000000014 82.500000000000014 14.500000000000002 9.5000000000000018 167500.00000000003 1.312191808632255 5.5000000000000009 65.972304104780761 82.500000000000014
decision_type=2 2 2 2 2 2 2 2 2 2 2 2 2 2 2 2
left_child=1 -1 3 4 5 15 -2 9 12 -7 -8 -6 -9 14 -14 -3
right_child=6 2 -4 -5 11 7 10 8 -10 -11 -12 -13 13 -15 -16 -17
leaf_value=-0.081737008560603605 0.22874634262944063 0.095729793028532684 0.18488435957791438 -0.097991807252681667 0.075467291891435362 0.040552637410024239 0.14976252965856582 -0.011600456567211363 -0.083983840882995292 -0.052071510414549452 0.23237054437715043 0.16959306302264446 0.039729457907996049 0.01124486401894435 0.20222497783692184 0.019250328527963205
leaf_weight=6547.7372564530833 1595.6137193254544 281.54907629266381 529.72632345819602 821.3132631033659 364.48225832784647 144.14128578826785 574.46885762290913 1538.6946586892009 159.39752861484885 875.43614042177796 171.67824717407348 137.88069303147495 268.42842587828636 1954.1952331587672 50.003627650439739 252.1058851480484
leaf_count=126021 13210 3877 4744 16589 4973 2274 5835 24627 3085 15434 1756 1722 4016 30508 749 3701
internal_value=0 -0.0332372 0.00979687 -0.00373503 0.00909657 0.000679703 0.20971 -0.00562113 0.00289992 -0.0388915 0.168886 0.101475 0.00655642 0.0188879 0.0655196 0.059763
internal_weight=0 13925.1 7377.35 6847.63 6026.31 5523.95 2341.76 4990.3 3970.72 1019.58 746.147 502.363 3811.32 2272.63 318.432 533.655
internal_count=263121 242320 116299 111555 94966 88271 20801 80693 62985 17708 7591 6695 59900 35273 4765 7578
shrinkage=0.1


Tree=43
num_leaves=17
num_cat=0
split_feature=21 1 16 6 1 1 13 3 1 5 1 1 3 3 9 1
split_gain=770.676 221.093 96.0649 77.005 97.2296 57.9532 56.9054 44.8313 31.9311 31.5464 29.7982 76.9073 27.5306 35.6511 35.3357 29.6271
threshold=1.0000000180025095e-35 1.0000000180025095e-35 1.0000000180025095e-35 17.597394550416503 64.500000000000014 73.500000000000014 257344.00000000003 12.500000000000002 1.0000000180025095e-35 14.280840660529444 48.500000000000007 4.5000000000000009 3.5000000000000004 18.500000000000004 1.8261192940330153 67.500000000000014
decision_type=2 2 2 2 2 2 2 2 2 2 2 2 2 2 2 2
left_child=8 9 3 5 -5 6 10 -4 -1 -2 11 -3 -12 15 -15 -14
right_child=1 2 7 4 -6 -7 -8 -9 -10 -11 12 -13 13 14 -16 -17
leaf_value=0.071543998493394531 0.00034732611112694121 0.23131904820448621 0.24867306709127524 0.086809419082220424 -0.16375573455655201 -0.077174418072677567 -0.040118834497658129 0.10210107723929328 -0.08036082365579654 -0.24757320655304615 0.19753714944721015 -0.055054864113271623 0.20980639079601826 0.10922388841031572 0.28983778900111218 0.062239433049604359
leaf_weight=13.384914905298499 5.512971967458614 12.301664179190864 37.451516963981859 27.350594932805393 34.930410398636013 26.343950665555894 38.846517020693341 54.413637178348111 1257.9123441122647 26.276839233934879 25.869501667097211 38.979096474561985 15.015370368957518 44.933963242918253 15.76245056465268 251.8786733020097
leaf_count=2617 52 710 2192 297 252 186 289 4273 246854 178 716 520 350 923 328 2384
internal_value=0 0.0547207 0.0679292 0.0513894 -0.0523229 0.0653199 0.0739786 0.162803 -0.078693 -0.201841 0.0851446 0.0119456 0.0955182 0.0871962 0.157562 0.0708676
internal_weight=0 655.867 624.077 532.212 62.281 469.931 443.587 91.8652 1271.3 31.7898 404.741 51.2808 353.46 327.59 60.6964 266.894
internal_count=263121 13650 13420 6955 549 6406 6220 6465 249471 230 5931 1230 4701 3985 1251 2734
shrinkage=0.1


Tree=44
num_leaves=17
num_cat=0
split_feature=17 1 15 6 1 1 1 1 1 1 1 14 1 1 1 3
split_gain=4604.4 41.1907 37.9899 29.4123 38.2662 70.2709 36.4023 65.927 59.7116 46.0582 195.697 42.812 40.5068 33.9536 31.0212 26.5784
threshold=1.0000000180025095e-35 85.500000000000014 35225.000000000007 7.5775310006011756 31.500000000000004 30.500000000000004 30.500000000000004 31.500000000000004 53.500000000000007 37.500000000000007 36.500000000000007 43.822380549542508 13.500000000000002 12.500000000000002 1.0000000180025095e-35 7.5000000000000009
decision_type=2 2 2 2 2 2 2 2 2 2 2 2 2 2 2 2
left_child=-1 2 15 4 5 -4 12 11 9 10 -9 -8 13 14 -5 -2
right_child=1 -3 3 6 -6 -7 7 8 -10 -11 -12 -13 -14 -15 -16 -17
leaf_value=-0.094059750250119645 0.099761505040028453 -0.084041829752192515 0.20078679417900736 0.15379317012192772 0.10634363865966133 0.99506256943942495 0.29158826597075532 -0.080448563098076728 0.21290724071747166 -0.08926709658122052 1.0840878635362161 0.66098827678212047 -0.13772349810333984 0.35995039919843758 -0.082352308996224713 0.1666560529365505
leaf_weight=2095.0258912936438 86.895405955146998 5.6216209884732953 8.3201237989123875 26.028944946825504 69.363758763996884 1.4052107324823744 11.930454025976362 5.0611875036265728 394.33101860270835 11.87105650315061 1.9592025708407161 5.2736253822222343 5.2942027284298083 6.7057676678523412 6.553276762366294 261.68714420648757
leaf_count=242320 1153 126 510 376 2780 27 117 253 10069 683 91 65 526 82 481 3462
internal_value=0 0.175508 0.177221 0.194043 0.13427 0.324501 0.203812 0.212962 0.204553 0.0255675 0.232144 0.409881 0.11352 0.149591 0.103626 0.15023
internal_weight=0 908.302 902.68 554.098 79.0891 9.72533 475.009 430.427 413.222 18.8914 7.02039 17.2041 44.5822 39.288 32.5822 348.583
internal_count=263121 20801 20675 16060 3317 537 12743 11278 11096 1027 344 182 1465 939 857 4615
shrinkage=0.1


Tree=45
num_leaves=17
num_cat=0
split_feature=20 18 21 19 9 1 1 1 2 13 13 1 5 1 1 4
split_gain=24624.6 7821.05 556.425 602.113 140.05 62.6865 60.1456 123.071 43.5434 40.7199 37.4323 36.42 64.4457 33.8049 33.1093 48.8556
threshold=1.0000000180025095e-35 1.0000000180025095e-35 1.0000000180025095e-35 1.0000000180025095e-35 2.2188685835111106 69.500000000000014 70.500000000000014 68.500000000000014 9.5000000000000018 91273.232205835215 267450.00000000006 1.0000000180025095e-35 22.718390552085403 52.500000000000007 68.500000000000014 52544.097686952657
decision_type=2 2 2 2 2 2 2 2 2 2 2 2 2 2 2 2
left_child=1 2 3 4 6 14 7 13 10 -6 -7 12 -4 -1 15 -5
right_child=-2 -3 11 5 9 8 -8 -9 -10 -11 -12 -13 -14 -15 -16 -17
leaf_value=0.12745842425036871 -0.10033174916958712 -0.013823541941964246 0.19736993667812747 0.19013460017639244 0.10602992648288434 0.17785453161429496 0.10674364527578142 0.20057033780598899 0.11936412836150351 0.042253768077142713 0.081934552084180309 0.19349012016890951 0.57018704442395007 0.057998474467984042 0.21350097624913286 0.10366290572625253
leaf_weight=255.34658158617503 12025.155515331775 3757.9766176044941 14.981872607021616 463.17489377906816 141.09356683213264 700.65571807324886 1363.7578874554019 243.80422948300838 215.89170098304749 376.98648904962465 46.876351580023766 3128.0209172776122 7.602793972939252 104.08541185618378 572.0139027684927 81.720548160950216
leaf_count=2953 173176 46397 112 2065 1237 3176 10228 1402 985 3918 228 13420 118 1063 2251 392
internal_value=0 0.104458 0.162076 0.139701 0.106387 0.179453 0.118616 0.145311 0.160261 0.0597905 0.171956 0.194473 0.326727 0.107586 0.19593 0.177326
internal_weight=0 11474 7716.01 4565.41 2485.07 2080.33 1966.99 603.236 963.424 518.08 747.532 3150.61 22.5847 359.432 1116.91 544.895
internal_count=263121 89945 43548 29898 20801 9097 15646 5418 4389 5155 3404 13650 230 4016 4708 2457
shrinkage=0.1


Tree=46
num_leaves=17
num_cat=0
split_feature=20 3 10 1 15 15 3 3 8 15 1 13 1 8 23 23
split_gain=390.899 207.348 78.5903 56.9749 41.4804 39.6087 39.0194 29.08 28.0442 24.813 20.8603 21.0666 20.5773 30.0255 22.4781 19.7533
threshold=1.0000000180025095e-35 5.5000000000000009 33.573029515066608 1.0000000180025095e-35 238275.00000000003 223775.00000000003 19.500000000000004 2.5000000000000004 12.378317722913151 35225.000000000007 50.500000000000007 144550.50000000003 83.500000000000014 11.219741232500178 1.0000000180025095e-35 1.0000000180025095e-35
decision_type=2 2 2 2 2 2 2 2 2 2 2 2 2 2 2 2
left_child=-1 4 -3 8 5 7 9 10 15 12 -2 -12 14 -14 -5 -4
right_child=1 2 3 6 -6 -7 -8 -9 -10 -11 11 -13 13 -15 -16 -17
leaf_value=-0.093402818173513716 0.010674627974704649 -0.041114599270563962 0.56734861721399399 0.013033771988310483 -0.020099830307792294 0.51746495194617326 0.066893680867593411 0.16728738394673054 0.093754957890016088 -0.0064647305926995371 0.12335045191417889 -0.0014338255597253851 0.80570961237577066 0.030706075922523158 0.12593264013891498 0.0041606605725598468
leaf_weight=331.5567301461524 29.158116544596851 244.54752791649662 3.495016139931975 73.85012027900666 21.389986567664891 2.6333461171016088 144.87573995068669 79.638350271619856 5.9128125947900116 329.05534732178785 107.45693879155442 13.907938110642133 0.9037386816926295 1.7102204831317065 24.150840210262686 1.1459387084469197
leaf_count=89945 2915 48780 346 12224 2903 161 23064 6488 546 60081 8977 2042 157 313 4058 121
internal_value=0 0.0306753 0.00635373 0.0263423 0.109717 0.122019 0.0219473 0.117117 0.257358 0.00658974 0.089994 0.108333 0.0501487 0.331951 0.0417441 0.447042
internal_weight=0 1083.83 829.647 585.1 254.185 232.795 574.546 230.161 10.5538 429.67 150.523 121.365 100.615 2.61396 98.001 4.64095
internal_count=263121 173176 149690 100910 23486 20583 99897 20422 1013 76833 13934 11019 16752 470 16282 467
shrinkage=0.1


Tree=47
num_leaves=17
num_cat=0
split_feature=20 16 12 1 1 1 3 1 5 7 6 15 3 3 12 13
split_gain=961.479 490.9 90.3404 46.2076 62.3216 51.1362 26.976 53.1335 42.0764 41.0842 24.5659 23.9956 23.1128 35.7673 22.9884 24.5259
threshold=1.0000000180025095e-35 1.0000000180025095e-35 63.886770584941551 68.500000000000014 6.5000000000000009 72.500000000000014 19.500000000000004 70.500000000000014 25.959583660576154 45.341525775446662 8.1719929196056658 117404.55801104974 6.5000000000000009 15.500000000000002 0.89311942817217405 33875.000000000007
decision_type=2 2 2 2 2 2 2 2 2 2 2 2 2 2 2 2
left_child=-1 2 3 4 -2 6 7 8 -5 -10 11 -8 -3 -14 15 -6
right_child=1 12 -4 5 14 -7 10 -9 9 -11 -12 -13 13 -15 -16 -17
leaf_value=-0.094024543284866119 0.1174168739855584 -0.055477465472277443 0.0039202771454262377 0.052697253563906345 0.098010522330966604 0.011059266832900809 0.31064546893908934 0.13488013441438804 0.69941662068806254 0.11463165566984029 0.12229372934186489 0.022687673787204779 0.010654469460825596 -0.030202341493497199 0.029982236394269376 0.54193204854590504
leaf_weight=792.06396568743503 118.19278807565547 161.59659678814955 193.75190148130059 317.18447035457939 7.329452792182563 72.980343696661294 16.043057421222333 208.92095057293773 1.2751457206904877 130.34739638213068 70.351950968615711 4.3491041380912057 350.38967842049897 541.90027651377022 383.49356989469379 1.7471597334370015
leaf_count=89945 6289 13738 13272 18998 461 5087 772 3248 71 7621 3271 217 29088 45445 25505 93
internal_value=0 0.0319323 0.0681967 0.0774795 0.0534537 0.0923123 0.100119 0.0927267 0.0729102 0.120958 0.152738 0.2535 -0.0204941 -0.0140609 0.0339743 0.193051
internal_weight=0 2579.85 1525.97 1332.22 510.763 821.452 748.472 657.728 448.807 131.623 90.7441 20.3922 1053.89 892.29 392.57 9.07661
internal_count=263121 173176 84905 71633 32348 39285 34198 29938 26690 7692 4260 989 88271 74533 26059 554
shrinkage=0.1


Tree=48
num_leaves=17
num_cat=0
split_feature=16 20 10 12 3 3 20 15 1 1 4 12 3 13 9 0
split_gain=10092.3 8319.14 757.065 235.636 177.172 222.11 158.006 122.837 90.98 98.7786 98.5768 89.4183 80.2947 68.3328 64.6457 54.2728
threshold=1.0000000180025095e-35 1.0000000180025095e-35 33.935889323887558 2.1479522061975653 19.500000000000004 7.5000000000000009 1.0000000180025095e-35 198475.00000000003 78.500000000000014 53.500000000000007 16495.841109510802 47.314717435734757 19.500000000000004 238625.00000000003 14.180505867200251 229.50000000000003
decision_type=2 2 2 2 2 2 2 2 2 2 2 2 2 2 2 2
left_child=6 -2 7 -4 5 -5 -1 11 9 -7 -11 -3 -8 -12 -9 -16
right_child=1 2 3 4 -6 8 12 14 -10 10 13 -13 -14 -15 15 -17
leaf_value=-0.099633261772719653 -0.099863816247058881 0.045334042479604666 0.14394413730809894 0.12305442577886488 0.12445296296868953 0.026705725825784385 -0.075653390957789599 0.039955242850721294 -0.0030964985332124664 0.019576151679538356 0.092070320447564968 0.093314428133758787 -0.042550102689016073 0 -0.033543012987652519 0.076289190556217246
leaf_weight=2848.1235066004883 2824.0200622865523 766.6051934286952 1434.928217805922 1415.6109189465651 2026.4114969968796 327.99004667997269 5355.1832076944411 1372.9254342094064 136.97920435667038 219.69941114634275 2897.2060105130076 809.40190783888102 864.06917455792427 83.319664560258389 231.67850959300995 55.563526548445225
leaf_count=46653 43292 6353 9253 9395 12993 2657 73201 13099 1181 1876 21071 6615 11704 833 2378 567
internal_value=0 0.0542687 0.0912316 0.106845 0.0993429 0.089311 -0.0800503 0.049991 0.0762545 0.0793599 0.0847292 0.0700309 -0.0710682 0.0895026 0.0309145 -0.0119943
internal_weight=0 14602.3 11778.3 8542.14 7107.22 5080.81 9067.38 3236.17 3665.19 3528.22 3200.23 1576.01 6219.25 2980.53 1660.17 287.242
internal_count=263121 131563 88271 59259 50006 37013 131558 29012 27618 26437 23780 12968 84905 21904 16044 2945
shrinkage=0.1


Tree=49
num_leaves=17
num_cat=0
split_feature=16 20 1 1 1 3 1 1 1 1 3 7 3 1 7 9
split_gain=19553.4 14837.9 2166.18 1034.8 966.471 698.017 463.56 409.755 2410.57 320.058 430.722 363.145 298.341 312.006 231.52 226.316
threshold=1.0000000180025095e-35 1.0000000180025095e-35 68.500000000000014 69.500000000000014 4.5000000000000009 7.5000000000000009 37.500000000000007 76.500000000000014 63.500000000000007 72.500000000000014 15.500000000000002 66.95721725753377 20.500000000000004 66.500000000000014 65.972304104780761 1.7772458110547369
decision_type=2 2 2 2 2 2 2 2 2 2 2 2 2 2 2 2
left_child=1 -1 4 -4 -3 14 -7 8 -2 10 -5 -11 13 15 -6 -8
right_child=7 2 3 9 5 6 12 -9 -10 11 -12 -13 -14 -15 -16 -17
leaf_value=-0.10366889610595825 -0.083931288042453034 0.13154756924137692 0.14827400488289222 -0.040385632550190974 0.13027439715977696 -0.034059536455768043 0.085901566116348679 -0.099828024758141121 0.26518626491156039 0.1177431051780224 0.14129818476095279 -0.030638293505442796 0.13098883832688071 -0.04969105763278172 0.011494399241193505 0.01569059757688893
leaf_weight=4304.4069553614754 2526.3298607355173 1409.7148027122021 8346.6558949947357 469.52701488882303 886.44382525980473 1198.7980247959495 802.9836892336607 11128.748710282147 214.48082237038761 1119.4602761864662 180.60487952828407 192.39616726338863 323.32554419338703 418.75460611283779 203.38910910487175 1080.8358273804188
leaf_count=46653 23846 6346 35260 3162 4413 10083 4822 106637 1080 5424 914 1175 1936 3345 1054 6971
internal_value=0 0.0618038 0.104632 0.132904 0.0585325 0.0375707 0.0174261 -0.0912878 -0.0565795 0.0674744 0.00995176 0.0959152 0.040964 0.0282849 0.108187 0.0456644
internal_weight=0 20937.3 16632.9 10308.6 6324.25 4914.53 3824.7 13869.6 2740.81 1961.99 650.132 1311.86 2625.9 2302.57 1089.83 1883.82
internal_count=263121 131558 84905 45935 38970 32624 27157 131563 24926 10675 4076 6599 17074 15138 5467 11793
shrinkage=0.1


Tree=50
num_leaves=5
num_cat=0
split_feature=18 1 1 3
split_gain=69100.8 0.690974 1.12666 0.9703
threshold=1.0000000180025095e-35 5.5000000000000009 36.500000000000007 5.5000000000000009
decision_type=2 2 2 2
left_child=-1 -2 -3 -4
right_child=1 2 3 -5
leaf_value=-0.10518926057378573 0.18377339788822042 0.19906653859751977 0.18571148712633867 0.1906290669515126
leaf_weight=22924.107620532544 1116.9291514158249 518.37275770306587 2242.410348072648 8312.6667863130569
leaf_count=216724 4259 1976 8555 31607
internal_value=0 0.189477 0.190044 0.189593
internal_weight=0 12190.4 11073.4 10555.1
internal_count=263121 46397 42138 40162
shrinkage=0.1


Tree=51
num_leaves=17
num_cat=0
split_feature=17 16 19 16 1 11 1 1 1 1 12 13 3 9 0 1
split_gain=1020.1 293.56 100.892 44.0708 42.1185 32.1493 35.2969 24.1219 42.9973 25.5617 63.0368 25.2729 20.9927 18.073 27.1674 16.8694
threshold=1.0000000180025095e-35 1.0000000180025095e-35 1.0000000180025095e-35 1.0000000180025095e-35 77.500000000000014 1.5672863285227903 62.500000000000007 33.500000000000007 53.500000000000007 12.500000000000002 13.206032404403802 73800.000000000015 21.500000000000004 1.7772458110547369 182.50000000000003 13.500000000000002
decision_type=2 2 2 2 2 2 2 2 2 2 2 2 2 2 2 2
left_child=2 4 -1 -4 15 6 -3 9 -9 11 -11 -7 13 14 -13 -2
right_child=1 5 3 -5 -6 7 -8 8 -10 10 -12 12 -14 -15 -16 -17
leaf_value=-0.08964360999583279 -0.011679030533770979 -0.0054799637700397369 -0.053789119338937687 0.12890825502844835 0.21974563140883541 0.073518600695084674 0.12143855718705265 -0.076435563839593643 0.1591634366568638 1.178399329171997 0.10647690031209384 1.1235629098276365 0 0.2194159576578025 0.26154709447451968 -0.12304223267825126
leaf_weight=890.91349915418732 20.652272906154394 25.75256350368727 22.176839457027882 31.025003266414387 4.414885942474938 6.737475539557634 109.90191933698952 7.5218074081931254 219.1896759797819 1.1074406015686684 1.4959935121005399 0.99520456232130561 0.78772214055061329 2.268351424485445 1.1191016659140585 53.528667984595813
leaf_count=233223 770 559 4353 4744 170 149 3547 441 10121 68 82 55 51 149 42 4597
internal_value=0 0.100558 -0.0816195 0.051116 -0.0745247 0.137302 0.0967028 0.159772 0.150963 0.291405 0.595881 0.217527 0.388349 0.475206 0.708466 -0.0932116
internal_weight=0 455.473 944.115 53.2018 78.5958 376.877 135.654 241.223 226.711 14.5113 2.60343 11.9079 5.17038 4.38266 2.11431 74.1809
internal_count=263121 20801 242320 9097 5537 15264 4106 11158 10562 596 150 446 297 246 97 5367
shrinkage=0.1


Tree=52
num_leaves=17
num_cat=0
split_feature=20 1 1 16 1 3 1 1 1 1 1 3 3 3 1 1
split_gain=19119.4 4043.07 1157.78 1051.73 957.323 421.904 392.335 350.454 294.742 373.945 281.711 265.131 205.145 373.571 318.479 797.409
threshold=1.0000000180025095e-35 68.500000000000014 86.500000000000014 1.0000000180025095e-35 5.5000000000000009 5.5000000000000009 56.500000000000007 37.500000000000007 67.500000000000014 51.500000000000007 54.500000000000007 1.5000000000000002 17.500000000000004 8.5000000000000018 69.500000000000014 77.500000000000014
decision_type=2 2 2 2 2 2 2 2 2 2 2 2 2 2 2 2
left_child=-1 3 12 4 -2 11 -5 -7 9 -9 -11 -6 13 -3 -15 -16
right_child=1 2 -4 6 5 7 -8 8 -10 10 -12 -13 -14 14 15 -17
leaf_value=-0.10867921161817645 0.02153763743895469 -0.0060833769977531454 0.12493091165027659 0.030719320141490588 0.1121380440676276 0.15331044161143614 0.16557076843165675 0.11611130561245342 0.1624144708990653 -0.0032997543051100525 0.099970246801988738 0.0056879390525169772 -0.0046443392544308626 0.0021406488550407355 0.11515520571454559 0.023887604329486965
leaf_weight=11387.388921321966 1233.8444411456585 4787.2316506356001 910.68244181573391 3334.8352424055338 426.41193886101246 2678.8224877417088 231.10307170450687 2438.1463680565357 789.1670293211937 564.89146600663662 493.59688158333302 522.5110592097044 6718.0046110451221 3104.016778036952 1186.073186263442 4986.4544980376959
leaf_count=89945 6485 26466 3640 16869 1967 10276 910 9828 3011 3003 1988 2412 36934 17536 5759 26092
internal_value=0 0.0408096 0.0145616 0.085589 0.103553 0.116329 0.0394832 0.124862 0.10706 0.0945416 0.0447751 0.0536145 0.00972093 0.0165891 0.0282989 0.0414391
internal_weight=0 34405.8 21692.5 12713.3 9147.39 7913.55 3565.94 6964.62 4285.8 3496.63 1058.49 948.923 20781.8 14063.8 9276.54 6172.53
internal_count=263121 173176 116427 56749 38970 32485 17779 28106 17830 14819 4991 4379 112787 75853 49387 31851
shrinkage=0.1

